{"learner":{"attributes":{},"feature_names":[],"feature_types":[],"gradient_booster":{"model":{"gbtree_model_param":{"num_parallel_tree":"1","num_trees":"100"},"iteration_indptr":[0,1,2,3,4,5,6,7,8,9,10,11,12,13,14,15,16,17,18,19,20,21,22,23,24,25,26,27,28,29,30,31,32,33,34,35,36,37,38,39,40,41,42,43,44,45,46,47,48,49,50,51,52,53,54,55,56,57,58,59,60,61,62,63,64,65,66,67,68,69,70,71,72,73,74,75,76,77,78,79,80,81,82,83,84,85,86,87,88,89,90,91,92,93,94,95,96,97,98,99,100],"tree_info":[0,0,0,0,0,0,0,0,0,0,0,0,0,0,0,0,0,0,0,0,0,0,0,0,0,0,0,0,0,0,0,0,0,0,0,0,0,0,0,0,0,0,0,0,0,0,0,0,0,0,0,0,0,0,0,0,0,0,0,0,0,0,0,0,0,0,0,0,0,0,0,0,0,0,0,0,0,0,0,0,0,0,0,0,0,0,0,0,0,0,0,0,0,0,0,0,0,0,0,0],"trees":[{"base_weights":[-4.089564E-1,-7.044263E-1,2.9476237E0,-9.027675E-1,4.8214126E0,1.5759325E0,4.3488035E0,-9.347471E-1,1.9923953E0,1.4975815E0,4.3871385E-1,1.8909019E0,-4.562279E-1,1.3419567E0,2.590389E-1,-9.549577E-1,7.298964E-1,2.2619483E0,2.3368444E-1,2.0411463E0,-1.8501893E-1,-2.456108E-1,7.887968E-2,-9.8610586E-1,7.144952E-1,9.0705854E-1,3.1137082E-1,2.1566813E0,5.0803576E-2,-3.0242777E-1,3.4961227E-1,3.3894676E-1,-2.3289879E-1,4.828275E-1,9.4847065E-1],"categories":[],"categories_nodes":[],"categories_segments":[],"categories_sizes":[],"default_left":[0,0,0,0,0,0,0,0,0,0,0,0,0,0,0,0,0,0,0,0,0,0,0,0,0,0,0,0,0,0,0,0,0,0,0],"id":0,"left_children":[1,3,5,7,9,11,13,15,17,-1,-1,19,21,-1,-1,23,-1,25,-1,27,-1,-1,-1,29,31,-1,-1,33,-1,-1,-1,-1,-1,-1,-1],"loss_changes":[5.801596E2,5.9239075E2,8.41546E1,4.989447E1,3.4389648E0,1.7181633E1,6.045929E0,3.729431E1,1.9638062E-1,0E0,0E0,9.64872E0,1.3171391E0,0E0,0E0,2.7300049E1,0E0,9.390259E-1,0E0,4.2285233E0,0E0,0E0,0E0,2.4945068E1,7.036413E0,0E0,0E0,5.8672867E0,0E0,0E0,0E0,0E0,0E0,0E0,0E0],"parents":[2147483647,0,0,1,1,2,2,3,3,4,4,5,5,6,6,7,7,8,8,11,11,12,12,15,15,17,17,19,19,23,23,24,24,27,27],"right_children":[2,4,6,8,10,12,14,16,18,-1,-1,20,22,-1,-1,24,-1,26,-1,28,-1,-1,-1,30,32,-1,-1,34,-1,-1,-1,-1,-1,-1,-1],"split_conditions":[1.3049738E-1,8.3654396E-2,1.6216797E-1,2.0005482E-1,1.9016643E-1,2.1449186E-1,1.4590316E-1,3.0511385E-1,9.8246396E-2,1.4975815E0,4.3871385E-1,3.275206E-1,2.3754242E-1,1.3419567E0,2.590389E-1,1.9399181E-1,7.298964E-1,2.5571325E-1,2.3368444E-1,3.5242438E-1,-1.8501893E-1,-2.456108E-1,7.887968E-2,2.0531891E-1,3.4959388E-1,9.0705854E-1,3.1137082E-1,2.203944E-1,5.0803576E-2,-3.0242777E-1,3.4961227E-1,3.3894676E-1,-2.3289879E-1,4.828275E-1,9.4847065E-1],"split_indices":[2871,1751,491,1474,2535,993,4670,1863,4087,0,0,823,2871,0,0,2874,0,1474,0,2871,0,0,0,1866,2874,0,0,2871,0,0,0,0,0,0,0],"split_type":[0,0,0,0,0,0,0,0,0,0,0,0,0,0,0,0,0,0,0,0,0,0,0,0,0,0,0,0,0,0,0,0,0,0,0],"sum_hessian":[5.818814E2,5.3553033E2,4.6351025E1,5.1778204E2,1.7748335E1,2.4495636E1,2.1855389E1,5.1279486E2,4.9871354E0,1.6428211E1,1.3201241E0,2.1268667E1,3.2269702E0,2.0828625E1,1.0267632E0,5.10448E2,2.3468874E0,3.3736506E0,1.6134851E0,2.0241903E1,1.0267632E0,2.0535264E0,1.1734437E0,5.015005E2,8.947508E0,1.1734437E0,2.200207E0,1.892178E1,1.3201241E0,4.969534E2,4.5470943E0,7.1873426E0,1.7601655E0,1.3934644E1,4.9871354E0],"tree_param":{"num_deleted":"0","num_feature":"5000","num_nodes":"35","size_leaf_vector":"1"}},{"base_weights":[-3.7835208E-1,-6.2355894E-1,1.2551318E0,-7.91721E-1,5.323886E-1,1.3425937E0,-5.437283E-1,-8.2568985E-1,3.8477775E-1,1.4020827E0,-2.4710561E-1,-2.371876E-1,-1.6792644E-2,-8.6043024E-1,1.0171773E0,1.053709E0,1.7543402E0,-8.7392354E-1,5.8102787E-1,4.0218034E-1,-1.8736999E-1,5.4668105E-1,8.4768933E-1,1.7920959E0,1.00762755E-1,-2.7173546E-1,1.1672371E-1,-5.089137E-2,3.2234973E-1,5.5756986E-1,2.6800758E-1],"categories":[],"categories_nodes":[],"categories_segments":[],"categories_sizes":[],"default_left":[0,0,0,0,0,0,0,0,0,0,0,0,0,0,0,0,0,0,0,0,0,0,0,0,0,0,0,0,0,0,0],"id":1,"left_children":[1,3,5,7,-1,9,11,13,-1,15,-1,-1,-1,17,19,21,23,25,-1,-1,-1,-1,27,29,-1,-1,-1,-1,-1,-1,-1],"loss_changes":[2.1231863E2,1.8686014E2,1.162722E1,3.138736E1,0E0,9.704048E0,4.281962E-1,2.802655E1,0E0,6.120285E0,0E0,0E0,0E0,1.7423615E1,5.2471037E0,4.021244E0,1.0467377E0,1.7071564E1,0E0,0E0,0E0,0E0,7.010111E0,1.1721039E-1,0E0,0E0,0E0,0E0,0E0,0E0,0E0],"parents":[2147483647,0,0,1,1,2,2,3,3,5,5,6,6,7,7,9,9,13,13,14,14,15,15,16,16,17,17,22,22,23,23],"right_children":[2,4,6,8,-1,10,12,14,-1,16,-1,-1,-1,18,20,22,24,26,-1,-1,-1,-1,28,30,-1,-1,-1,-1,-1,-1,-1],"split_conditions":[1.16277866E-1,8.3654396E-2,1.9589159E-1,2.0005482E-1,5.323886E-1,3.1652564E-1,1.7270513E-1,1.7848784E-1,3.8477775E-1,1.8980393E-1,-2.4710561E-1,-2.371876E-1,-1.6792644E-2,2.3563308E-1,9.4085656E-2,1.4874165E-1,1.4590316E-1,1.9399181E-1,5.8102787E-1,4.0218034E-1,-1.8736999E-1,5.4668105E-1,1.6270074E-1,1.7824782E-1,1.00762755E-1,-2.7173546E-1,1.1672371E-1,-5.089137E-2,3.2234973E-1,5.5756986E-1,2.6800758E-1],"split_indices":[2871,1751,2874,1474,0,2630,2871,1863,0,491,0,0,0,2873,465,2871,4670,2874,0,0,0,0,2871,3585,0,0,0,0,0,0,0],"split_type":[0,0,0,0,0,0,0,0,0,0,0,0,0,0,0,0,0,0,0,0,0,0,0,0,0,0,0,0,0,0,0],"sum_hessian":[5.2712506E2,4.588622E2,6.8262825E1,4.294209E2,2.944133E1,6.5339615E1,2.9232132E0,4.2309427E2,6.326627E0,6.3936592E1,1.4030194E0,1.5285282E0,1.394685E0,4.157892E2,7.305053E0,3.415222E1,2.978437E1,4.144774E2,1.3118184E0,6.256041E0,1.0490121E0,5.5611405E0,2.8591082E1,2.875557E1,1.0288014E0,4.045547E2,9.9227085E0,5.258189E0,2.3332893E1,2.5780855E1,2.974714E0],"tree_param":{"num_deleted":"0","num_feature":"5000","num_nodes":"31","size_leaf_vector":"1"}},{"base_weights":[-3.245883E-1,-5.4162925E-1,8.6465514E-1,-6.925678E-1,1.3239311E0,5.11268E-1,1.2080797E0,-7.249797E-1,8.7397236E-1,1.3720256E0,2.4525585E-2,6.0992426E-1,-2.4388935E-1,1.2666318E0,-6.9824114E-2,-7.597898E-1,6.190133E-1,4.0259972E-1,3.8640067E-1,1.3989217E0,1.2187508E-1,4.7687778E-1,4.889424E-1,9.306927E-1,4.6369928E-1,-7.8864795E-1,1.1190927E0,2.833684E-1,4.4000596E-1,-1.3295E-1,8.315801E-1,1.4282585E0,1.2187508E-1,3.522633E-1,4.204085E-1,1.0649346E0,-1.1644621E-1,-2.420655E-1,4.8372158E-1,1.2955804E-1,3.8181236E-1,1.591877E-1,-2.0445181E-1,3.7256515E-1,6.361362E-2,4.381152E-1,1.2187508E-1,5.9530184E-2,3.7753904E-1,3.9246827E-1,8.745767E-2],"categories":[],"categories_nodes":[],"categories_segments":[],"categories_sizes":[],"default_left":[0,0,0,0,0,0,0,0,0,0,0,0,0,0,0,0,0,0,0,0,0,0,0,0,0,0,0,0,0,0,0,0,0,0,0,0,0,0,0,0,0,0,0,0,0,0,0,0,0,0,0],"id":2,"left_children":[1,3,5,7,9,11,13,15,17,19,-1,21,-1,23,-1,25,27,-1,29,31,-1,-1,33,35,-1,37,39,41,-1,-1,43,45,-1,47,-1,49,-1,-1,-1,-1,-1,-1,-1,-1,-1,-1,-1,-1,-1,-1,-1],"loss_changes":[1.1868132E2,1.10148575E2,8.007427E0,1.8888947E1,1.6430397E0,5.2983456E0,3.273594E0,1.6975754E1,1.2480326E0,1.6476059E-1,0E0,3.345314E0,0E0,1.7565422E0,0E0,1.9552917E1,2.2753406E0,0E0,2.287419E0,2.0743561E-1,0E0,0E0,3.5473833E0,3.5964384E0,0E0,1.617659E1,4.389429E-2,2.2737114E0,0E0,0E0,6.845684E-1,2.5621033E-1,0E0,3.8650806E0,0E0,2.7393608E0,0E0,0E0,0E0,0E0,0E0,0E0,0E0,0E0,0E0,0E0,0E0,0E0,0E0,0E0,0E0],"parents":[2147483647,0,0,1,1,2,2,3,3,4,4,5,5,6,6,7,7,8,8,9,9,11,11,13,13,15,15,16,16,18,18,19,19,22,22,23,23,25,25,26,26,27,27,30,30,31,31,33,33,35,35],"right_children":[2,4,6,8,10,12,14,16,18,20,-1,22,-1,24,-1,26,28,-1,30,32,-1,-1,34,36,-1,38,40,42,-1,-1,44,46,-1,48,-1,50,-1,-1,-1,-1,-1,-1,-1,-1,-1,-1,-1,-1,-1,-1,-1],"split_conditions":[1.3049738E-1,8.3654396E-2,1.7283653E-1,2.175363E-1,2.965325E-1,1.678662E-1,3.025077E-1,1.7848784E-1,2.5571325E-1,1.5747742E-1,2.4525585E-2,1.381113E-1,-2.4388935E-1,2.115057E-1,-6.9824114E-2,2.0531891E-1,5.504374E-1,4.0259972E-1,2.8348255E-1,2.1528469E-1,1.2187508E-1,4.7687778E-1,2.4275951E-1,1.1907412E-1,4.6369928E-1,2.2291388E-1,3.0894938E-1,7.233074E-2,4.4000596E-1,-1.3295E-1,3.3472607E-1,4.272927E-1,1.2187508E-1,8.485061E-2,4.204085E-1,1.9046709E-1,-1.1644621E-1,-2.420655E-1,4.8372158E-1,1.2955804E-1,3.8181236E-1,1.591877E-1,-2.0445181E-1,3.7256515E-1,6.361362E-2,4.381152E-1,1.2187508E-1,5.9530184E-2,3.7753904E-1,3.9246827E-1,8.745767E-2],"split_indices":[2871,1751,491,1474,2535,2874,2105,1863,1474,299,0,2871,0,2871,0,1866,1863,0,1474,2541,0,0,1863,4087,0,1476,1866,4087,0,0,1474,3495,0,1452,0,2871,0,0,0,0,0,0,0,0,0,0,0,0,0,0,0],"split_type":[0,0,0,0,0,0,0,0,0,0,0,0,0,0,0,0,0,0,0,0,0,0,0,0,0,0,0,0,0,0,0,0,0,0,0,0,0,0,0,0,0,0,0,0,0,0,0,0,0,0,0],"sum_hessian":[4.5698648E2,3.869173E2,7.006917E1,3.5853757E2,2.8379751E1,3.576026E1,3.4308907E1,3.5179608E2,6.741492E0,2.7221272E1,1.1584804E0,3.378283E1,1.977431E0,3.308529E1,1.2236177E0,3.433381E2,8.457966E0,2.5455601E0,4.195932E0,2.6047373E1,1.1738985E0,2.379046E0,3.1403784E1,1.6978981E1,1.610631E1,3.3871597E2,4.6221437E0,7.0147095E0,1.4432564E0,1.4669231E0,2.7290087E0,2.4873474E1,1.1738985E0,2.8517916E1,2.8858676E0,1.5585136E1,1.3938447E0,3.368216E2,1.8943663E0,1.5407145E0,3.081429E0,5.942063E0,1.0726465E0,1.0374119E0,1.6915967E0,2.3699575E1,1.1738985E0,2.5421532E1,3.096385E0,1.1329639E1,4.2554965E0],"tree_param":{"num_deleted":"0","num_feature":"5000","num_nodes":"51","size_leaf_vector":"1"}},{"base_weights":[-2.6841855E-1,-4.6203226E-1,6.5501446E-1,-5.952095E-1,1.0976855E0,3.7635145E-1,9.5462716E-1,-6.150747E-1,5.583011E-1,1.1430057E0,2.0491999E-2,4.7804666E-1,-5.155453E-1,1.0055748E0,-5.8323823E-2,-6.3142806E-1,5.7123655E-1,1.1727332E0,6.937924E-2,3.802113E-1,3.7993538E-1,-2.344274E-1,-2.6472535E-3,7.1364737E-1,1.2669504E0,-6.482593E-1,4.4987237E-1,1.2035027E0,7.843129E-2,-3.1033248E-1,5.268093E-1,8.2546914E-1,-9.628852E-2,1.321673E0,1.3509558E-1,-2.0378356E-1,1.7964578E-1,3.7016466E-1,9.588619E-2,-2.6026947E-2,-2.1193068E-1,4.2207503E-1,1.1659257E-1,2.9938734E-1,3.8255148E-2,4.1600606E-1,1.4166604E-1],"categories":[],"categories_nodes":[],"categories_segments":[],"categories_sizes":[],"default_left":[0,0,0,0,0,0,0,0,0,0,0,0,0,0,0,0,0,0,0,0,0,0,0,0,0,0,0,0,0,0,0,0,0,0,0,0,0,0,0,0,0,0,0,0,0,0,0],"id":3,"left_children":[1,3,5,7,9,11,13,15,-1,17,-1,19,21,23,-1,25,-1,27,-1,-1,29,-1,-1,31,33,35,-1,37,-1,39,41,43,-1,45,-1,-1,-1,-1,-1,-1,-1,-1,-1,-1,-1,-1,-1],"loss_changes":[7.108275E1,6.875493E1,5.404194E0,1.5914902E1,1.1415596E0,3.6402178E0,2.104765E0,1.3604103E1,0E0,4.0576553E-1,0E0,2.1597047E0,5.7388115E-1,1.4911118E0,0E0,1.1726692E1,0E0,3.567276E-1,0E0,0E0,3.3837428E0,0E0,0E0,2.2454624E0,8.733368E-2,1.1941849E1,0E0,2.2008896E-1,0E0,4.87965E-1,2.6831365E0,1.7663517E0,0E0,1.07120514E-1,0E0,0E0,0E0,0E0,0E0,0E0,0E0,0E0,0E0,0E0,0E0,0E0,0E0],"parents":[2147483647,0,0,1,1,2,2,3,3,4,4,5,5,6,6,7,7,9,9,11,11,12,12,13,13,15,15,17,17,20,20,23,23,24,24,25,25,27,27,29,29,30,30,31,31,33,33],"right_children":[2,4,6,8,10,12,14,16,-1,18,-1,20,22,24,-1,26,-1,28,-1,-1,30,-1,-1,32,34,36,-1,38,-1,40,42,44,-1,46,-1,-1,-1,-1,-1,-1,-1,-1,-1,-1,-1,-1,-1],"split_conditions":[1.3049738E-1,8.3654396E-2,1.7283653E-1,2.8679448E-1,2.965325E-1,2.1449186E-1,3.025077E-1,3.0892053E-1,5.583011E-1,1.02525085E-1,2.0491999E-2,1.381113E-1,2.3754242E-1,2.115057E-1,-5.8323823E-2,2.3563308E-1,5.7123655E-1,1.7532347E-1,6.937924E-2,3.802113E-1,1.6270074E-1,-2.344274E-1,-2.6472535E-3,1.1907412E-1,4.3447098E-1,2.175363E-1,4.4987237E-1,1.8503955E-1,7.843129E-2,1.6171224E-1,1.6729578E-1,1.9727108E-1,-9.628852E-2,2.620574E-1,1.3509558E-1,-2.0378356E-1,1.7964578E-1,3.7016466E-1,9.588619E-2,-2.6026947E-2,-2.1193068E-1,4.2207503E-1,1.1659257E-1,2.9938734E-1,3.8255148E-2,4.1600606E-1,1.4166604E-1],"split_indices":[2871,1751,491,1869,2535,993,2105,4245,0,4731,0,2871,2871,2871,0,2873,0,3582,0,0,2871,0,0,4087,2871,1474,0,2541,0,2871,2871,2871,0,993,0,0,0,0,0,0,0,0,0,0,0,0,0],"split_type":[0,0,0,0,0,0,0,0,0,0,0,0,0,0,0,0,0,0,0,0,0,0,0,0,0,0,0,0,0,0,0,0,0,0,0,0,0,0,0,0,0,0,0,0,0,0,0],"sum_hessian":[3.9488556E2,3.268545E2,6.803105E1,3.0171115E2,2.5143362E1,3.6416767E1,3.1614285E1,3.0003412E2,1.6770141E0,2.3977331E1,1.1660311E0,3.3105988E1,3.3107767E0,3.0391598E1,1.222687E0,2.9884354E2,1.1905866E0,2.2943016E1,1.0343145E0,2.3424928E0,3.0763496E1,1.8158636E0,1.4949131E0,1.6118914E1,1.4272683E1,2.9719205E2,1.6515034E0,2.188348E1,1.0595356E0,5.2021017E0,2.5561396E1,1.4729117E1,1.3897961E0,1.2796728E1,1.4759555E0,2.904235E2,6.768546E0,2.0773502E1,1.1099778E0,4.104428E0,1.0976737E0,2.2223883E0,2.3339006E1,1.14657E1,3.2634175E0,1.1299464E1,1.4972631E0],"tree_param":{"num_deleted":"0","num_feature":"5000","num_nodes":"47","size_leaf_vector":"1"}},{"base_weights":[-2.1576162E-1,-3.8425606E-1,5.0592065E-1,-4.9533588E-1,9.9584615E-1,3.6413428E-1,1.0089378E0,-5.368781E-1,6.782798E-1,1.0476462E0,1.7125731E-2,4.4357237E-1,-5.774681E-1,3.154406E-1,1.0462454E-1,-5.7094884E-1,2.964824E-1,7.997694E-1,-1.1949058E-2,1.223669E0,6.600131E-1,3.735498E-1,4.227223E-1,-2.5566307E-1,-2.173373E-3,-6.1870474E-1,5.231171E-1,5.5017865E-1,3.6082E-1,8.512404E-2,3.87543E-1,-3.6901843E-2,9.214862E-1,2.3810546E-1,7.6683956E-1,-1.9124559E-1,4.002304E-1,2.21261E-1,-1.9011725E-1,2.4236734E-1,-1.1619344E-1,8.754866E-2,-1.15724385E-1,3.062596E-1,7.8183636E-2,2.6033366E-1,3.667747E-2,2.7737322E-1,-8.409593E-3],"categories":[],"categories_nodes":[],"categories_segments":[],"categories_sizes":[],"default_left":[0,0,0,0,0,0,0,0,0,0,0,0,0,0,0,0,0,0,0,0,0,0,0,0,0,0,0,0,0,0,0,0,0,0,0,0,0,0,0,0,0,0,0,0,0,0,0,0,0],"id":4,"left_children":[1,3,5,7,9,11,13,15,17,19,-1,21,23,-1,-1,25,-1,27,-1,29,31,33,-1,-1,-1,35,37,39,-1,-1,-1,41,43,45,47,-1,-1,-1,-1,-1,-1,-1,-1,-1,-1,-1,-1,-1,-1],"loss_changes":[4.2353134E1,4.3669964E1,4.343794E0,1.310537E1,9.765644E-1,4.2276564E0,2.5288582E-2,1.3708679E1,8.4983873E-1,5.665703E-1,0E0,2.8222342E0,7.0905113E-1,0E0,0E0,1.3284531E1,0E0,1.4959764E-1,0E0,4.45549E-1,1.5757105E0,2.3499098E0,0E0,0E0,0E0,9.584442E0,3.175339E0,1.9617088E0,0E0,0E0,0E0,4.875336E-1,1.4053965E-1,2.579299E0,1.4964294E0,0E0,0E0,0E0,0E0,0E0,0E0,0E0,0E0,0E0,0E0,0E0,0E0,0E0,0E0],"parents":[2147483647,0,0,1,1,2,2,3,3,4,4,5,5,6,6,7,7,8,8,9,9,11,11,12,12,15,15,17,17,19,19,20,20,21,21,25,25,26,26,27,27,31,31,32,32,33,33,34,34],"right_children":[2,4,6,8,10,12,14,16,18,20,-1,22,24,-1,-1,26,-1,28,-1,30,32,34,-1,-1,-1,36,38,40,-1,-1,-1,42,44,46,48,-1,-1,-1,-1,-1,-1,-1,-1,-1,-1,-1,-1,-1,-1],"split_conditions":[1.3049738E-1,8.485061E-2,2.5893235E-1,1.7848784E-1,2.965325E-1,2.1838479E-1,4.331971E-1,2.0531891E-1,7.233074E-2,2.828221E-1,1.7125731E-2,2.2497988E-1,2.3754242E-1,3.154406E-1,1.0462454E-1,1.9277824E-1,2.964824E-1,5.504374E-1,-1.1949058E-2,1.4927098E-1,3.1526667E-1,2.2578366E-1,4.227223E-1,-2.5566307E-1,-2.173373E-3,2.5940043E-1,3.4959388E-1,3.4762868E-1,3.6082E-1,8.512404E-2,3.87543E-1,2.9269284E-1,1.6288276E-1,1.4874165E-1,3.6968988E-1,-1.9124559E-1,4.002304E-1,2.21261E-1,-1.9011725E-1,2.4236734E-1,-1.1619344E-1,8.754866E-2,-1.15724385E-1,3.062596E-1,7.8183636E-2,2.6033366E-1,3.667747E-2,2.7737322E-1,-8.409593E-3],"split_indices":[2871,1452,491,1863,2535,993,2871,1866,4087,1452,0,90,2871,0,0,2874,0,1863,0,1452,1452,2871,0,0,0,3218,2874,1863,0,0,0,1452,3495,2871,2871,0,0,0,0,0,0,0,0,0,0,0,0,0,0],"split_type":[0,0,0,0,0,0,0,0,0,0,0,0,0,0,0,0,0,0,0,0,0,0,0,0,0,0,0,0,0,0,0,0,0,0,0,0,0,0,0,0,0,0,0,0,0,0,0,0,0],"sum_hessian":[3.4570166E2,2.806456E2,6.505605E1,2.6033334E2,2.0312275E1,5.209565E1,1.2960401E1,2.5195738E2,8.375941E0,1.9140148E1,1.1721255E0,4.8530315E1,3.5653334E0,1.1619189E1,1.3412107E0,2.4706383E2,4.893564E0,7.0666876E0,1.3092537E0,1.1679673E1,7.460475E0,4.654179E1,1.9885252E0,2.0723333E0,1.493E0,2.3714687E2,9.916961E0,5.824436E0,1.2422515E0,1.1385703E0,1.0541103E1,2.269733E0,5.190742E0,3.5813473E1,1.0728316E1,2.3555504E2,1.5918244E0,8.672059E0,1.2449015E0,4.6769896E0,1.1474464E0,1.2527063E0,1.0170267E0,4.038702E0,1.1520401E0,4.5564947E0,3.1256979E1,8.81571E0,1.9126065E0],"tree_param":{"num_deleted":"0","num_feature":"5000","num_nodes":"49","size_leaf_vector":"1"}},{"base_weights":[-1.6924365E-1,-2.4977691E-1,9.0985006E-1,-3.4811264E-1,7.0601046E-1,1.0521487E0,-1.2357112E-1,-4.0101182E-1,5.6571597E-1,5.2070516E-1,3.5658088E-1,1.1200439E0,-2.534216E-2,-4.2665467E-1,1.3306917E0,7.1257436E-1,-1.9258241E-1,5.810798E-1,-8.1636496E-2,1.1635092E0,6.722173E-2,-4.513469E-1,1.1402216E0,4.7309497E-1,1.4723064E-1,8.234481E-1,-6.0966756E-2,6.3633746E-1,-5.850123E-2,3.6357397E-1,7.046096E-2,-1.4424562E-1,2.2005807E-1,5.4556334E-1,9.3956016E-2,9.938857E-2,3.2583696E-1,2.1198604E-1,-3.8332477E-2],"categories":[],"categories_nodes":[],"categories_segments":[],"categories_sizes":[],"default_left":[0,0,0,0,0,0,0,0,0,0,0,0,0,0,0,0,0,0,0,0,0,0,0,0,0,0,0,0,0,0,0,0,0,0,0,0,0,0,0],"id":5,"left_children":[1,3,5,7,9,11,-1,13,15,17,-1,19,-1,21,23,25,-1,27,-1,29,-1,31,33,-1,-1,35,-1,37,-1,-1,-1,-1,-1,-1,-1,-1,-1,-1,-1],"loss_changes":[2.7086237E1,2.7350904E1,4.5109386E0,1.2899693E1,1.8164644E0,1.6267452E0,0E0,1.1597973E1,3.0751758E0,1.1851997E0,0E0,4.7161674E-1,0E0,1.001408E1,2.6083946E-2,1.5516682E0,0E0,9.928279E-1,0E0,5.107975E-1,0E0,8.8186455E0,1.7265162E0,0E0,0E0,1.2379217E0,0E0,1.1184864E0,0E0,0E0,0E0,0E0,0E0,0E0,0E0,0E0,0E0,0E0,0E0],"parents":[2147483647,0,0,1,1,2,2,3,3,4,4,5,5,7,7,8,8,9,9,11,11,13,13,14,14,15,15,17,17,19,19,21,21,22,22,25,25,27,27],"right_children":[2,4,6,8,10,12,-1,14,16,18,-1,20,-1,22,24,26,-1,28,-1,30,-1,32,34,-1,-1,36,-1,38,-1,-1,-1,-1,-1,-1,-1,-1,-1,-1,-1],"split_conditions":[1.4171378E-1,1.7283653E-1,2.8875554E-1,1.7848784E-1,3.18298E-1,2.2923341E-1,-1.2357112E-1,2.2291388E-1,9.4085656E-2,3.025077E-1,3.5658088E-1,1.6288276E-1,-2.534216E-2,2.633665E-1,3.5746285E-1,1.1768239E-1,-1.9258241E-1,2.526091E-1,-8.1636496E-2,1.8503955E-1,6.722173E-2,2.734441E-1,1.678662E-1,4.7309497E-1,1.4723064E-1,2.4275951E-1,-6.0966756E-2,1.2887543E-1,-5.850123E-2,3.6357397E-1,7.046096E-2,-1.4424562E-1,2.2005807E-1,5.4556334E-1,9.3956016E-2,9.938857E-2,3.2583696E-1,2.1198604E-1,-3.8332477E-2],"split_indices":[1452,491,452,1863,491,2419,0,1476,465,2105,0,3495,0,1869,1476,4087,0,993,0,2541,0,1866,2874,0,0,1863,0,4087,0,0,0,0,0,0,0,0,0,0,0],"split_type":[0,0,0,0,0,0,0,0,0,0,0,0,0,0,0,0,0,0,0,0,0,0,0,0,0,0,0,0,0,0,0,0,0,0,0,0,0,0,0],"sum_hessian":[3.080687E2,2.8738922E2,2.067946E1,2.611561E2,2.6233133E1,1.885367E1,1.8257917E0,2.4739613E2,1.3759949E1,2.0457039E1,5.776094E0,1.7804707E1,1.048963E0,2.4452881E2,2.8673291E0,1.2633583E1,1.126366E0,1.925763E1,1.1994107E0,1.6696142E1,1.1085634E0,2.4143599E2,3.0928233E0,1.5386237E0,1.3287055E0,1.1359187E1,1.2743952E0,1.814571E1,1.1119192E0,1.5579066E1,1.117077E0,2.3615619E2,5.2797995E0,1.0405253E0,2.0522978E0,4.739815E0,6.6193724E0,1.6686165E1,1.4595442E0],"tree_param":{"num_deleted":"0","num_feature":"5000","num_nodes":"39","size_leaf_vector":"1"}},{"base_weights":[-1.2684976E-1,-2.5646952E-1,3.5251048E-1,-3.3857945E-1,7.7957773E-1,3.9154246E-1,-2.4162659E-1,-3.7924138E-1,6.8082184E-1,8.228993E-1,3.1380575E-2,4.367114E-1,-5.3090566E-1,-4.1566825E-1,8.192735E-1,8.4198046E-1,1.738705E-1,3.2177094E-1,4.1745472E-1,4.7275212E-1,-2.2241761E-1,-2.0664464E-1,-3.158944E-2,-4.40788E-1,4.585618E-1,1.1312248E0,-6.208838E-2,3.5648447E-1,3.8520056E-1,1.7424429E-2,6.410097E-2,-3.1031945E-1,7.9251343E-1,5.1219237E-1,-1.7318101E-1,-1.394396E-1,4.0916765E-1,4.3518737E-1,1.3462576E-1,2.8900772E-2,1.7460741E-1,6.716385E-2,-2.1614583E-1,2.7007616E-1,5.7843212E-2,9.913768E-2,2.2873795E-1],"categories":[],"categories_nodes":[],"categories_segments":[],"categories_sizes":[],"default_left":[0,0,0,0,0,0,0,0,0,0,0,0,0,0,0,0,0,0,0,0,0,0,0,0,0,0,0,0,0,0,0,0,0,0,0,0,0,0,0,0,0,0,0,0,0,0,0],"id":6,"left_children":[1,3,5,7,9,11,-1,13,15,17,-1,19,21,23,25,27,29,-1,31,33,-1,-1,-1,35,-1,37,-1,-1,39,-1,-1,41,43,45,-1,-1,-1,-1,-1,-1,-1,-1,-1,-1,-1,-1,-1],"loss_changes":[1.7525E1,1.9102581E1,3.033687E0,8.792284E0,3.9828587E-1,2.684165E0,0E0,9.012348E0,5.280409E-1,1.1131687E0,0E0,2.7561646E0,1.4245129E-1,1.0120693E1,2.2175303E0,4.919405E-1,2.573736E-3,0E0,2.296907E0,2.597683E0,0E0,0E0,0E0,8.94244E0,0E0,4.1842747E-1,0E0,0E0,1.7524654E-1,0E0,0E0,8.7866724E-1,1.6498303E-1,2.2087955E0,0E0,0E0,0E0,0E0,0E0,0E0,0E0,0E0,0E0,0E0,0E0,0E0,0E0],"parents":[2147483647,0,0,1,1,2,2,3,3,4,4,5,5,7,7,8,8,9,9,11,11,12,12,13,13,14,14,15,15,16,16,18,18,19,19,23,23,25,25,28,28,31,31,32,32,33,33],"right_children":[2,4,6,8,10,12,-1,14,16,18,-1,20,22,24,26,28,30,-1,32,34,-1,-1,-1,36,-1,38,-1,-1,40,-1,-1,42,44,46,-1,-1,-1,-1,-1,-1,-1,-1,-1,-1,-1,-1,-1],"split_conditions":[1.3049738E-1,1.3971592E-1,3.1652564E-1,2.0005482E-1,2.965325E-1,1.9589159E-1,-2.4162659E-1,2.3681238E-1,9.8246396E-2,2.788349E-1,3.1380575E-2,2.4703445E-1,1.7270513E-1,1.9226016E-1,3.2131973E-1,2.5571325E-1,2.3850994E-1,3.2177094E-1,3.1082207E-1,2.445954E-1,-2.2241761E-1,-2.0664464E-1,-3.158944E-2,2.3563308E-1,4.585618E-1,2.6804325E-1,-6.208838E-2,3.5648447E-1,4.2943233E-1,1.7424429E-2,6.410097E-2,2.8856647E-1,1.6288276E-1,2.1296701E-1,-1.7318101E-1,-1.394396E-1,4.0916765E-1,4.3518737E-1,1.3462576E-1,2.8900772E-2,1.7460741E-1,6.716385E-2,-2.1614583E-1,2.7007616E-1,5.7843212E-2,9.913768E-2,2.2873795E-1],"split_indices":[2871,1751,2630,1474,2535,2874,0,2874,4087,1751,0,1045,2871,1473,2874,1474,1474,0,1751,452,0,0,0,2873,0,2874,0,0,1474,0,0,1751,3495,2871,0,0,0,0,0,0,0,0,0,0,0,0,0],"split_type":[0,0,0,0,0,0,0,0,0,0,0,0,0,0,0,0,0,0,0,0,0,0,0,0,0,0,0,0,0,0,0,0,0,0,0,0,0,0,0,0,0,0,0,0,0,0,0],"sum_hessian":[2.7959406E2,2.2044922E2,5.9144844E1,2.0488467E2,1.5564538E1,5.785646E1,1.2883842E0,1.976296E2,7.255082E0,1.4419882E1,1.1446562E0,5.565768E1,2.1987805E0,1.9243407E2,5.195536E0,5.003585E0,2.2514975E0,7.9059973E0,6.513884E0,5.458648E1,1.071201E0,1.1526817E0,1.0460988E0,1.9074289E2,1.6911731E0,3.9059212E0,1.2896148E0,1.9350916E0,3.0684934E0,1.2050319E0,1.0464655E0,2.2739873E0,4.239897E0,5.310403E1,1.48245E0,1.8897115E2,1.7717468E0,1.8939852E0,2.011936E0,1.8470954E0,1.221398E0,1.1849233E0,1.0890641E0,3.1693382E0,1.0705584E0,3.2108585E1,2.0995447E1],"tree_param":{"num_deleted":"0","num_feature":"5000","num_nodes":"47","size_leaf_vector":"1"}},{"base_weights":[-9.468732E-2,-1.5300082E-1,7.067194E-1,-2.202801E-1,4.9530983E-1,8.153086E-1,-1.5438356E-1,-2.775259E-1,4.3298638E-1,3.1826264E-1,3.2377794E-1,9.1281074E-1,-4.097707E-2,-3.1346557E-1,7.313962E-1,1.204981E0,4.957095E-2,3.778944E-1,-7.867122E-2,3.4280038E-1,4.3425256E-1,-3.412535E-1,9.3821627E-1,3.9747453E-1,1.4261495E-1,4.14299E-1,4.701432E-1,-2.0467684E-1,3.746189E-1,4.6481547E-1,-9.448313E-2,5.6314427E-2,6.4185756E-1,-1.10652104E-1,2.9359612E-1,4.5734698E-1,5.350929E-2,-7.390455E-2,2.1132897E-1,2.620372E-1,-7.245752E-2,-1.05834946E-1,1.6427624E-1,1.6012068E-1,-6.502747E-2,1.1562541E-1,-1.0704975E-1,2.2442265E-1,4.980297E-2],"categories":[],"categories_nodes":[],"categories_segments":[],"categories_sizes":[],"default_left":[0,0,0,0,0,0,0,0,0,0,0,0,0,0,0,0,0,0,0,0,0,0,0,0,0,0,0,0,0,0,0,0,0,0,0,0,0,0,0,0,0,0,0,0,0,0,0,0,0],"id":7,"left_children":[1,3,5,7,9,11,-1,13,15,17,-1,19,-1,21,23,25,27,29,-1,-1,31,33,35,-1,37,39,-1,41,-1,43,-1,45,47,-1,-1,-1,-1,-1,-1,-1,-1,-1,-1,-1,-1,-1,-1,-1,-1],"loss_changes":[1.2138016E1,1.0611424E1,2.758811E0,8.303858E0,2.0288048E0,1.6639748E0,0E0,7.5470457E0,5.27469E0,7.576945E-1,0E0,1.1729593E0,0E0,7.1224384E0,2.3416643E0,1.0509958E0,4.244813E0,1.2100942E0,0E0,0E0,4.7672188E-1,7.3541374E0,1.7390673E0,0E0,1.2128339E0,1.1819903E0,0E0,1.4916909E0,0E0,8.7187886E-1,0E0,6.01685E-1,8.4194064E-2,0E0,0E0,0E0,0E0,0E0,0E0,0E0,0E0,0E0,0E0,0E0,0E0,0E0,0E0,0E0,0E0],"parents":[2147483647,0,0,1,1,2,2,3,3,4,4,5,5,7,7,8,8,9,9,11,11,13,13,14,14,15,15,16,16,17,17,20,20,21,21,22,22,24,24,25,25,27,27,29,29,31,31,32,32],"right_children":[2,4,6,8,10,12,-1,14,16,18,-1,20,-1,22,24,26,28,30,-1,-1,32,34,36,-1,38,40,-1,42,-1,44,-1,46,48,-1,-1,-1,-1,-1,-1,-1,-1,-1,-1,-1,-1,-1,-1,-1,-1],"split_conditions":[8.485061E-2,1.7283653E-1,2.0031027E-1,1.4216776E-1,3.18298E-1,2.7922627E-1,-1.5438356E-1,1.6999154E-1,1.7050594E-1,2.2200587E-1,3.2377794E-1,2.828221E-1,-4.097707E-2,2.633665E-1,2.6393184E-1,1.5693292E-1,1.9149308E-1,2.1838479E-1,-7.867122E-2,3.4280038E-1,3.1526667E-1,2.2291388E-1,1.678662E-1,3.9747453E-1,1.8584393E-1,1.5008852E-1,4.701432E-1,1.8396273E-1,3.746189E-1,3.025077E-1,-9.448313E-2,2.974722E-1,1.6288276E-1,-1.10652104E-1,2.9359612E-1,4.5734698E-1,5.350929E-2,-7.390455E-2,2.1132897E-1,2.620372E-1,-7.245752E-2,-1.05834946E-1,1.6427624E-1,1.6012068E-1,-6.502747E-2,1.1562541E-1,-1.0704975E-1,2.2442265E-1,4.980297E-2],"split_indices":[1452,491,2031,3585,491,452,0,4757,3585,4670,0,1452,0,1869,4757,3585,993,993,0,0,1452,1476,2874,0,2871,3585,0,2871,0,2105,0,1452,3495,0,0,0,0,0,0,0,0,0,0,0,0,0,0,0,0],"split_type":[0,0,0,0,0,0,0,0,0,0,0,0,0,0,0,0,0,0,0,0,0,0,0,0,0,0,0,0,0,0,0,0,0,0,0,0,0,0,0,0,0,0,0,0,0,0,0,0,0],"sum_hessian":[2.5641833E2,2.3978009E2,1.6638254E1,2.1783427E2,2.1945814E1,1.5585025E1,1.0532293E0,2.0081226E2,1.7022022E1,1.802565E1,3.9201627E0,1.41742325E1,1.4107918E0,1.945706E2,6.241656E0,4.9375896E0,1.2084434E1,1.666297E1,1.3626822E0,8.637709E0,5.536524E0,1.9105643E2,3.5141797E0,2.485694E0,3.755962E0,2.2246478E0,2.7129421E0,1.0654717E1,1.4297161E0,1.5097947E1,1.5650218E0,2.413707E0,3.122817E0,1.8785078E2,3.2056355E0,1.4156321E0,2.0985477E0,2.5511959E0,1.2047662E0,1.113331E0,1.1113167E0,9.345757E0,1.3089607E0,1.3908444E1,1.1895025E0,1.3808604E0,1.0328465E0,2.0852587E0,1.0375583E0],"tree_param":{"num_deleted":"0","num_feature":"5000","num_nodes":"49","size_leaf_vector":"1"}},{"base_weights":[-6.1860997E-2,-1.0910034E-1,6.029942E-1,-1.280113E-1,4.7731748E-1,7.245184E-1,-7.860235E-2,-1.5441918E-1,1.0731857E0,2.6675183E-1,2.7712035E-1,-2.5269037E-1,1.7450052E-1,4.9083444E-1,3.25986E-1,-2.0739506E-1,6.7378765E-1,-2.740881E-1,3.9551324E-1,1.254117E-1,3.323752E-1,-1.202252E-1,3.0002272E-1,2.3808268E-1,4.290018E-2,-9.281319E-2,2.1214819E-1,1.1772196E-2,2.0661737E-1],"categories":[],"categories_nodes":[],"categories_segments":[],"categories_sizes":[],"default_left":[0,0,0,0,0,0,0,0,0,0,0,0,0,0,0,0,0,0,0,0,0,0,0,0,0,0,0,0,0],"id":8,"left_children":[1,3,5,7,-1,9,-1,11,13,-1,15,17,19,-1,21,-1,23,25,-1,27,-1,-1,-1,-1,-1,-1,-1,-1,-1],"loss_changes":[7.625436E0,7.4563203E0,1.8844166E0,7.2718854E0,0E0,8.144188E-1,0E0,7.157666E0,1.5465546E0,0E0,2.5120726E0,6.0715065E0,2.2078695E0,0E0,2.0534081E0,0E0,1.590612E-1,6.0501537E0,0E0,2.38967E0,0E0,0E0,0E0,0E0,0E0,0E0,0E0,0E0,0E0],"parents":[2147483647,0,0,1,1,2,2,3,3,5,5,7,7,8,8,10,10,11,11,12,12,14,14,16,16,17,17,19,19],"right_children":[2,4,6,8,-1,10,-1,12,14,-1,16,18,20,-1,22,-1,24,26,-1,28,-1,-1,-1,-1,-1,-1,-1,-1,-1],"split_conditions":[1.3971592E-1,3.0892053E-1,2.8875554E-1,2.0728534E-1,4.7731748E-1,2.9375818E-1,-7.860235E-2,1.3049738E-1,2.3313598E-1,2.6675183E-1,3.1082207E-1,2.6617023E-1,2.2497988E-1,4.9083444E-1,2.554946E-1,-2.0739506E-1,1.6288276E-1,2.3681238E-1,3.9551324E-1,2.7433074E-1,3.323752E-1,-1.202252E-1,3.0002272E-1,2.3808268E-1,4.290018E-2,-9.281319E-2,2.1214819E-1,1.1772196E-2,2.0661737E-1],"split_indices":[1751,4245,452,3850,0,1751,0,2871,3850,0,1751,1756,90,0,3850,0,3495,2874,0,491,0,0,0,0,0,0,0,0,0],"split_type":[0,0,0,0,0,0,0,0,0,0,0,0,0,0,0,0,0,0,0,0,0,0,0,0,0,0,0,0,0],"sum_hessian":[2.3969699E2,2.2457628E2,1.51207075E1,2.2302032E2,1.5559618E0,1.3400481E1,1.720226E0,2.1907547E2,3.9448493E0,9.073693E0,4.3267884E0,1.688577E2,5.0217777E1,1.5713536E0,2.3734958E0,1.0414191E0,3.2853694E0,1.6740323E2,1.4544693E0,4.8786434E1,1.4313432E0,1.3372736E0,1.0362222E0,2.276346E0,1.0090234E0,1.6225275E2,5.1504703E0,4.324138E1,5.545057E0],"tree_param":{"num_deleted":"0","num_feature":"5000","num_nodes":"29","size_leaf_vector":"1"}},{"base_weights":[-3.715777E-2,-5.4156777E-2,4.831586E-1,-6.93459E-2,4.8644376E-1,-1.0838732E-1,5.319961E-1,-1.4790647E-1,7.429545E-1,6.490473E-1,-1.4459287E-1,-1.6435862E-1,4.0763044E-1,8.6750907E-1,-3.6212683E-2,7.404165E-1,-2.0633483E-2,-5.5077646E-2,3.417884E-1,3.8239008E-1,1.7312343E-1,2.9650292E-1,9.111421E-2],"categories":[],"categories_nodes":[],"categories_segments":[],"categories_sizes":[],"default_left":[0,0,0,0,0,0,0,0,0,0,0,0,0,0,0,0,0,0,0,0,0,0,0],"id":9,"left_children":[1,3,-1,5,-1,7,9,11,13,15,-1,17,-1,19,-1,21,-1,-1,-1,-1,-1,-1,-1],"loss_changes":[6.460678E0,5.869405E0,0E0,5.342882E0,0E0,7.2501173E0,1.9618473E0,5.2713223E0,1.1353273E0,8.9582825E-1,0E0,5.28258E0,0E0,2.68919E-1,0E0,9.462948E-1,0E0,0E0,0E0,0E0,0E0,0E0,0E0],"parents":[2147483647,0,0,1,1,3,3,5,5,6,6,7,7,8,8,9,9,11,11,13,13,15,15],"right_children":[2,4,-1,6,-1,8,10,12,14,16,-1,18,-1,20,-1,22,-1,-1,-1,-1,-1,-1,-1],"split_conditions":[2.866347E-1,2.9703197E-1,4.831586E-1,8.485061E-2,4.8644376E-1,2.4275951E-1,2.0031027E-1,2.683016E-1,1.3329905E-1,2.7922627E-1,-1.4459287E-1,2.3574775E-1,4.0763044E-1,2.739723E-1,-3.6212683E-2,2.828221E-1,-2.0633483E-2,-5.5077646E-2,3.417884E-1,3.8239008E-1,1.7312343E-1,2.9650292E-1,9.111421E-2],"split_indices":[2481,2680,0,1452,0,1863,2031,3311,4087,452,0,3218,0,1863,0,1452,0,0,0,0,0,0,0],"split_type":[0,0,0,0,0,0,0,0,0,0,0,0,0,0,0,0,0,0,0,0,0,0,0],"sum_hessian":[2.265501E2,2.2519392E2,1.3561702E0,2.2412096E2,1.0729723E0,2.1122705E2,1.2893911E1,2.026465E2,8.580549E0,1.1882153E1,1.0117587E0,2.0133888E2,1.307609E0,7.4951687E0,1.0853802E0,1.0512576E1,1.3695762E0,1.9925829E2,2.0805976E0,1.7097231E0,5.7854457E0,5.8998775E0,4.6126986E0],"tree_param":{"num_deleted":"0","num_feature":"5000","num_nodes":"23","size_leaf_vector":"1"}},{"base_weights":[-1.678524E-2,-3.2724768E-2,4.0938684E-1,-4.856939E-2,3.8550162E-1,-6.4461075E-2,3.8563934E-1,-8.867322E-2,7.8848565E-1,-1.0223033E-1,4.071934E-1,3.421587E-1,3.530843E-1,-3.7675574E-2,2.2916466E-1,2.2626127E-1,-2.5078125E-2],"categories":[],"categories_nodes":[],"categories_segments":[],"categories_sizes":[],"default_left":[0,0,0,0,0,0,0,0,0,0,0,0,0,0,0,0,0],"id":10,"left_children":[1,3,-1,5,-1,7,-1,9,11,13,-1,15,-1,-1,-1,-1,-1],"loss_changes":[4.895192E0,4.62973E0,0E0,4.685752E0,0E0,4.520625E0,0E0,4.264552E0,6.462326E-1,4.3324475E0,0E0,8.0426E-1,0E0,0E0,0E0,0E0,0E0],"parents":[2147483647,0,0,1,1,3,3,5,5,7,7,8,8,9,9,11,11],"right_children":[2,4,-1,6,-1,8,-1,10,12,14,-1,16,-1,-1,-1,-1,-1],"split_conditions":[2.4936447E-1,3.9619625E-1,4.0938684E-1,3.0892053E-1,3.8550162E-1,1.7884749E-1,3.8563934E-1,2.5257474E-1,2.7656385E-1,2.7846032E-1,4.071934E-1,2.1478312E-1,3.530843E-1,-3.7675574E-2,2.2916466E-1,2.2626127E-1,-2.5078125E-2],"split_indices":[1886,2873,0,4245,0,558,0,1639,558,1866,0,558,0,0,0,0,0],"split_type":[0,0,0,0,0,0,0,0,0,0,0,0,0,0,0,0,0],"sum_hessian":[2.192887E2,2.1775244E2,1.5362504E0,2.1611696E2,1.6354872E0,2.1451324E2,1.6037105E0,2.0946336E2,5.0498857E0,2.0843842E2,1.0249556E0,3.2251377E0,1.824748E0,2.0379796E2,4.640454E0,1.2469099E0,1.9782279E0],"tree_param":{"num_deleted":"0","num_feature":"5000","num_nodes":"17","size_leaf_vector":"1"}},{"base_weights":[-2.74712E-3,-2.7651029E-2,7.648281E-1,-5.2822858E-2,8.882273E-1,5.272098E-1,-1.0084006E-2,-7.5271726E-2,8.750398E-1,3.116522E-1,3.475549E-2,-2.5058293E-1,1.2089344E-1,-8.9233726E-2,3.7867585E-1,2.9673392E-1,6.5271124E-2,4.0758334E-2,-1.6523889E-1,-1.3968956E-1,3.18835E-1,-4.719566E-2,3.304722E-1,1.9210514E-1,-6.4551674E-2],"categories":[],"categories_nodes":[],"categories_segments":[],"categories_sizes":[],"default_left":[0,0,0,0,0,0,0,0,0,0,0,0,0,0,0,0,0,0,0,0,0,0,0,0,0],"id":11,"left_children":[1,3,5,7,9,-1,11,13,15,-1,-1,17,-1,19,-1,-1,-1,-1,-1,21,23,-1,-1,-1,-1],"loss_changes":[4.1839175E0,4.931892E0,5.3080387E0,4.3810177E0,5.4550934E-1,0E0,5.8347034E-1,3.9071593E0,1.577723E-1,0E0,0E0,5.02494E-1,0E0,4.204173E0,0E0,0E0,0E0,0E0,0E0,4.1229315E0,4.0069704E0,0E0,0E0,0E0,0E0],"parents":[2147483647,0,0,1,1,2,2,3,3,4,4,6,6,7,7,8,8,11,11,13,13,19,19,20,20],"right_children":[2,4,6,8,10,-1,12,14,16,-1,-1,18,-1,20,-1,-1,-1,-1,-1,22,24,-1,-1,-1,-1],"split_conditions":[1.8614867E-1,2.7433074E-1,2.3732363E-1,2.7876186E-1,2.526091E-1,5.272098E-1,8.485061E-2,2.9703197E-1,4.4991833E-1,3.116522E-1,3.475549E-2,3.2974538E-1,1.2089344E-1,1.3440321E-1,3.7867585E-1,2.9673392E-1,6.5271124E-2,4.0758334E-2,-1.6523889E-1,3.2855132E-1,1.9586743E-1,-4.719566E-2,3.304722E-1,1.9210514E-1,-6.4551674E-2],"split_indices":[3495,491,3495,1474,993,0,1452,2680,1474,0,0,3495,0,3585,0,0,0,0,0,1869,3585,0,0,0,0],"split_type":[0,0,0,0,0,0,0,0,0,0,0,0,0,0,0,0,0,0,0,0,0,0,0,0,0],"sum_hessian":[2.1676791E2,2.108896E2,5.8783174E0,2.0616571E2,4.723894E0,2.0214014E0,3.8569162E0,2.0219269E2,3.9730093E0,3.664351E0,1.0595431E0,2.6862452E0,1.1706711E0,2.0102751E2,1.1651781E0,2.955752E0,1.0172575E0,1.4138038E0,1.2724414E0,1.7949185E2,2.153567E1,1.7783931E2,1.6525408E0,1.331801E1,8.217659E0],"tree_param":{"num_deleted":"0","num_feature":"5000","num_nodes":"25","size_leaf_vector":"1"}},{"base_weights":[5.943239E-3,-7.7561545E-3,3.7424728E-1,-2.9814487E-2,7.6714796E-1,-6.075516E-2,5.66527E-1,3.2443678E-1,4.2086795E-1,-7.7202834E-2,3.609621E-1,7.777705E-1,-2.023999E-1,-1.1471398E-1,2.547733E-1,-9.4135135E-2,3.1919503E-1,3.528696E-1,2.3759629E-1,-3.448552E-2,2.552642E-1,-9.503E-2,1.3805433E-1],"categories":[],"categories_nodes":[],"categories_segments":[],"categories_sizes":[],"default_left":[0,0,0,0,0,0,0,0,0,0,0,0,0,0,0,0,0,0,0,0,0,0,0],"id":12,"left_children":[1,3,-1,5,7,9,11,-1,13,15,-1,17,-1,-1,-1,19,-1,-1,21,-1,-1,-1,-1],"loss_changes":[3.6492052E0,3.6575823E0,0E0,3.8670883E0,1.8949175E-1,4.216987E0,3.2365017E0,0E0,1.8577473E0,3.902288E0,0E0,1.7228675E0,0E0,0E0,0E0,3.9301105E0,0E0,0E0,7.876962E-1,0E0,0E0,0E0,0E0],"parents":[2147483647,0,0,1,1,3,3,4,4,5,5,6,6,8,8,9,9,11,11,15,15,18,18],"right_children":[2,4,-1,6,8,10,12,-1,14,16,-1,18,-1,-1,-1,20,-1,-1,22,-1,-1,-1,-1],"split_conditions":[2.564137E-1,3.0589232E-1,3.7424728E-1,1.6999154E-1,3.568928E-1,2.520243E-1,7.233074E-2,3.2443678E-1,4.6961695E-1,2.7095285E-1,3.609621E-1,2.6393184E-1,-2.023999E-1,-1.1471398E-1,2.547733E-1,2.2291388E-1,3.1919503E-1,3.528696E-1,3.204178E-1,-3.448552E-2,2.552642E-1,-9.503E-2,1.3805433E-1],"split_indices":[1244,1863,0,4757,1863,4436,4087,0,1863,1030,0,4757,0,0,0,1476,0,0,4757,0,0,0,0],"split_type":[0,0,0,0,0,0,0,0,0,0,0,0,0,0,0,0,0,0,0,0,0,0,0],"sum_hessian":[2.1298358E2,2.1164206E2,1.3415323E0,2.0671913E2,4.922919E0,1.9737654E2,9.342594E0,1.4676809E0,3.4552376E0,1.9576797E2,1.6085674E0,8.302866E0,1.0397282E0,1.2391267E0,2.2161112E0,1.9380984E2,1.9581332E0,4.100565E0,4.202301E0,1.9049208E2,3.3177552E0,1.0826807E0,3.1196203E0],"tree_param":{"num_deleted":"0","num_feature":"5000","num_nodes":"23","size_leaf_vector":"1"}},{"base_weights":[1.17476955E-2,-2.0036636E-2,5.04943E-1,-3.5839908E-2,3.4628564E-1,6.0540646E-1,-8.801399E-2,-5.4575924E-2,3.056874E-1,2.4529843E-1,3.4976953E-1,-9.96085E-2,3.8306296E-1,-1.01913996E-1,1.662384E-1,-1.1719091E-1,3.876532E-1,5.191493E-1,-3.6510497E-1,-4.0700745E-2,3.6394626E-1,1.7526595E-1,-2.203915E-2,-2.1733873E-1,4.996176E-2],"categories":[],"categories_nodes":[],"categories_segments":[],"categories_sizes":[],"default_left":[0,0,0,0,0,0,0,0,0,0,0,0,0,0,0,0,0,0,0,0,0,0,0,0,0],"id":13,"left_children":[1,3,5,7,-1,9,-1,11,-1,-1,13,15,17,-1,-1,19,-1,21,23,-1,-1,-1,-1,-1,-1],"loss_changes":[3.3327913E0,3.7546616E0,1.2099063E0,3.9765868E0,0E0,3.5204458E-1,0E0,3.8987432E0,0E0,0E0,1.1860869E0,4.5172105E0,2.071355E0,0E0,0E0,4.5180817E0,0E0,6.6187096E-1,7.762525E-1,0E0,0E0,0E0,0E0,0E0,0E0],"parents":[2147483647,0,0,1,1,2,2,3,3,5,5,7,7,10,10,11,11,12,12,15,15,17,17,18,18],"right_children":[2,4,6,8,-1,10,-1,12,-1,-1,14,16,18,-1,-1,20,-1,22,24,-1,-1,-1,-1,-1,-1],"split_conditions":[8.485061E-2,2.5167385E-1,1.5395628E-1,1.8503955E-1,3.4628564E-1,2.473371E-1,-8.801399E-2,2.1296701E-1,3.056874E-1,2.4529843E-1,2.8054076E-1,2.564137E-1,3.93638E-1,-1.01913996E-1,1.662384E-1,2.2388229E-1,3.876532E-1,2.652641E-1,1.6216797E-1,-4.0700745E-2,3.6394626E-1,1.7526595E-1,-2.203915E-2,-2.1733873E-1,4.996176E-2],"split_indices":[1452,1368,993,2541,0,1452,0,2871,0,0,1751,1244,2871,0,0,994,0,993,491,0,0,0,0,0,0],"split_type":[0,0,0,0,0,0,0,0,0,0,0,0,0,0,0,0,0,0,0,0,0,0,0,0,0],"sum_hessian":[2.1096088E2,1.9908977E2,1.1871112E1,1.9740273E2,1.6870387E0,1.0758839E1,1.1122733E0,1.9488924E2,2.5134919E0,4.6770034E0,6.081835E0,1.7740668E2,1.7482563E1,1.2390562E0,4.8427787E0,1.7609782E2,1.3088424E0,1.5051001E1,2.431563E0,1.7457109E2,1.5267384E0,1.3574635E1,1.4763668E0,1.2344625E0,1.1971004E0],"tree_param":{"num_deleted":"0","num_feature":"5000","num_nodes":"25","size_leaf_vector":"1"}},{"base_weights":[1.51763605E-2,-5.5490374E-3,7.880985E-1,-1.8341249E-2,3.6736938E-1,3.3458143E-1,2.7162096E-1,-3.7120502E-2,9.1444725E-1,-1.069383E-1,2.316577E-1,-4.999397E-2,3.7515765E-1,3.9270693E-1,9.036898E-2,-7.762218E-2,5.6325513E-1,-2.783911E-2,3.218895E-1,2.3910703E-1,-9.576225E-2],"categories":[],"categories_nodes":[],"categories_segments":[],"categories_sizes":[],"default_left":[0,0,0,0,0,0,0,0,0,0,0,0,0,0,0,0,0,0,0,0,0],"id":14,"left_children":[1,3,5,7,-1,-1,9,11,13,-1,-1,15,-1,-1,-1,17,19,-1,-1,-1,-1],"loss_changes":[3.3201056E0,3.2101345E0,6.116164E-1,3.5631793E0,0E0,0E0,1.3507749E0,3.3522668E0,5.7718253E-1,0E0,0E0,3.3892133E0,0E0,0E0,0E0,3.4138653E0,2.0354245E0,0E0,0E0,0E0,0E0],"parents":[2147483647,0,0,1,1,2,2,3,3,6,6,7,7,8,8,11,11,15,15,16,16],"right_children":[2,4,6,8,-1,-1,10,12,14,-1,-1,16,-1,-1,-1,18,20,-1,-1,-1,-1],"split_conditions":[2.0728534E-1,2.790762E-1,2.3313598E-1,1.8577658E-1,3.6736938E-1,3.3458143E-1,2.554946E-1,2.6509255E-1,2.9785177E-1,-1.069383E-1,2.316577E-1,1.6090631E-1,3.7515765E-1,3.9270693E-1,9.036898E-2,3.0892053E-1,2.521391E-1,-2.783911E-2,3.218895E-1,2.3910703E-1,-9.576225E-2],"split_indices":[3850,1639,3850,1756,0,0,3850,4464,1756,0,0,3582,0,0,0,4245,3582,0,0,0,0],"split_type":[0,0,0,0,0,0,0,0,0,0,0,0,0,0,0,0,0,0,0,0,0],"sum_hessian":[2.0598595E2,2.015737E2,4.4122453E0,2.0047401E2,1.0996819E0,1.9913836E0,2.4208617E0,1.9745891E2,3.0151126E0,1.2013649E0,1.219497E0,1.9645598E2,1.0029293E0,1.1441966E0,1.8709159E0,1.8882253E2,7.633444E0,1.8727199E2,1.5505413E0,6.111341E0,1.5221026E0],"tree_param":{"num_deleted":"0","num_feature":"5000","num_nodes":"21","size_leaf_vector":"1"}},{"base_weights":[1.9813834E-2,4.053182E-2,-6.8241835E-1,5.6699716E-2,-2.6282445E-1,-2.292177E-1,-4.7822796E-2,7.477213E-2,-2.3644404E-1,9.5885515E-2,-6.742597E-1,1.2150658E-1,-4.7772616E-1,-2.4852504E-1,-3.704034E-2,3.0521587E-2,4.553165E-1,-1.8466747E-1,7.002225E-2],"categories":[],"categories_nodes":[],"categories_segments":[],"categories_sizes":[],"default_left":[0,0,0,0,0,0,0,0,0,0,0,0,0,0,0,0,0,0,0],"id":15,"left_children":[1,3,5,7,-1,-1,-1,9,-1,11,13,15,17,-1,-1,-1,-1,-1,-1],"loss_changes":[3.0173092E0,3.021701E0,1.3204288E-1,3.0822127E0,0E0,0E0,0E0,3.1449442E0,0E0,2.8549604E0,3.6167598E-1,4.8956547E0,9.6111727E-1,0E0,0E0,0E0,0E0,0E0,0E0],"parents":[2147483647,0,0,1,1,2,2,3,3,7,7,9,9,10,10,11,11,12,12],"right_children":[2,4,6,8,-1,-1,-1,10,-1,12,14,16,18,-1,-1,-1,-1,-1,-1],"split_conditions":[1.8515371E-1,2.4302922E-1,3.06503E-1,1.864726E-1,-2.6282445E-1,-2.292177E-1,-4.7822796E-2,1.8284512E-1,-2.3644404E-1,1.6267525E-1,1.3908243E-1,1.5808953E-1,2.7241746E-1,-2.4852504E-1,-3.704034E-2,3.0521587E-2,4.553165E-1,-1.8466747E-1,7.002225E-2],"split_indices":[150,4286,150,3490,0,0,0,1712,0,4087,2871,4087,4087,0,0,0,0,0,0],"split_type":[0,0,0,0,0,0,0,0,0,0,0,0,0,0,0,0,0,0,0],"sum_hessian":[2.044906E2,1.9954568E2,4.9449244E0,1.9700883E2,2.5368433E0,3.8785934E0,1.0663308E0,1.9377522E2,3.233619E0,1.8931099E2,4.464229E0,1.8197119E2,7.3397927E0,3.0941765E0,1.3700526E0,1.8048866E2,1.4825366E0,6.260735E0,1.0790579E0],"tree_param":{"num_deleted":"0","num_feature":"5000","num_nodes":"19","size_leaf_vector":"1"}},{"base_weights":[8.314013E-3,-5.390677E-3,3.265364E-1,-1.7360343E-2,3.6253077E-1,-3.2131936E-2,2.785885E-1,-4.4065624E-2,3.4437668E-1,-6.296548E-2,7.252983E-1,-2.3359064E-2,2.7402014E-1,3.155239E-1,2.6688087E-3],"categories":[],"categories_nodes":[],"categories_segments":[],"categories_sizes":[],"default_left":[0,0,0,0,0,0,0,0,0,0,0,0,0,0,0],"id":16,"left_children":[1,3,-1,5,-1,7,-1,9,-1,11,13,-1,-1,-1,-1],"loss_changes":[3.0496068E0,2.9854293E0,0E0,2.8669162E0,0E0,2.8793697E0,0E0,2.9513116E0,0E0,2.9214709E0,1.1298192E0,0E0,0E0,0E0,0E0],"parents":[2147483647,0,0,1,1,3,3,5,5,7,7,9,9,10,10],"right_children":[2,4,-1,6,-1,8,-1,10,-1,12,14,-1,-1,-1,-1],"split_conditions":[2.866347E-1,3.693338E-1,3.265364E-1,3.18298E-1,3.6253077E-1,3.168989E-1,2.785885E-1,2.3563308E-1,3.4437668E-1,2.4850427E-1,1.3806081E-1,-2.3359064E-2,2.7402014E-1,3.155239E-1,2.6688087E-3],"split_indices":[2481,452,0,491,0,1478,0,2873,0,2920,2871,0,0,0,0],"split_type":[0,0,0,0,0,0,0,0,0,0,0,0,0,0,0],"sum_hessian":[2.0461652E2,2.0303543E2,1.5810791E0,2.020289E2,1.0065293E0,1.998739E2,2.1549942E0,1.9882588E2,1.0480338E0,1.9495485E2,3.871018E0,1.9293123E2,2.023625E0,2.3376915E0,1.5333265E0],"tree_param":{"num_deleted":"0","num_feature":"5000","num_nodes":"15","size_leaf_vector":"1"}},{"base_weights":[1.4802119E-2,2.8465128E-2,-2.7603552E-1,1.5395782E-2,2.889912E-1,2.7520712E-3,3.516702E-1,-2.8847665E-2,4.0761733E-1,-4.6943657E-2,3.542316E-1,2.6705348E-1,2.7195832E-1,-2.5082596E-2,1.4033075E-1,-6.4806393E-3,1.9386964E-1],"categories":[],"categories_nodes":[],"categories_segments":[],"categories_sizes":[],"default_left":[0,0,0,0,0,0,0,0,0,0,0,0,0,0,0,0,0],"id":17,"left_children":[1,3,-1,5,-1,7,-1,9,11,13,-1,-1,15,-1,-1,-1,-1],"loss_changes":[2.6246397E0,2.4465504E0,0E0,2.9177072E0,0E0,2.5518286E0,0E0,4.1071625E0,7.032287E-1,3.4989924E0,0E0,0E0,1.4106023E0,0E0,0E0,0E0,0E0],"parents":[2147483647,0,0,1,1,3,3,5,5,7,7,8,8,9,9,12,12],"right_children":[2,4,-1,6,-1,8,-1,10,12,14,-1,-1,16,-1,-1,-1,-1],"split_conditions":[1.825289E-1,1.9312133E-1,-2.7603552E-1,2.9703197E-1,2.889912E-1,1.7848784E-1,3.516702E-1,2.7095285E-1,2.1168506E-1,1.3971592E-1,3.542316E-1,2.6705348E-1,3.0589232E-1,-2.5082596E-2,1.4033075E-1,-6.4806393E-3,1.9386964E-1],"split_indices":[1780,2142,0,2680,0,1863,0,1030,1863,1751,0,0,1863,0,0,0,0],"split_type":[0,0,0,0,0,0,0,0,0,0,0,0,0,0,0,0,0],"sum_hessian":[2.0241972E2,2.0045973E2,1.9599825E0,1.9869833E2,1.7613971E0,1.9754167E2,1.1566608E0,1.8410132E2,1.3440361E1,1.8233476E2,1.7665493E0,1.7288134E0,1.1711548E1,1.7099191E2,1.13428545E1,7.091575E0,4.6199727E0],"tree_param":{"num_deleted":"0","num_feature":"5000","num_nodes":"17","size_leaf_vector":"1"}},{"base_weights":[1.624919E-2,2.9478392E-2,-2.6381633E-1,1.7024921E-2,3.5367692E-1,-8.755231E-3,5.313094E-1,-4.5674685E-2,4.0237048E-1,7.287205E-1,-1.4084686E-1,-1.2579627E-3,-4.8413455E-1,4.7592434E-1,1.6005014E-1,2.4391676E-1,3.7756715E-2,-6.4709727E-3,2.516732E-1,-1.6864108E-1,8.5674435E-2,-1.8560143E-1,9.842394E-2],"categories":[],"categories_nodes":[],"categories_segments":[],"categories_sizes":[],"default_left":[0,0,0,0,0,0,0,0,0,0,0,0,0,0,0,0,0,0,0,0,0,0,0],"id":18,"left_children":[1,3,-1,5,-1,7,9,11,13,15,-1,17,19,-1,21,-1,-1,-1,-1,-1,-1,-1,-1],"loss_changes":[2.399763E0,2.8199363E0,0E0,2.6203597E0,0E0,2.8849063E0,2.2059538E0,3.3917382E0,4.240302E0,3.1821156E-1,0E0,2.7344089E0,1.1223743E0,0E0,2.0498834E0,0E0,0E0,0E0,0E0,0E0,0E0,0E0,0E0],"parents":[2147483647,0,0,1,1,3,3,5,5,6,6,7,7,8,8,9,9,11,11,12,12,14,14],"right_children":[2,4,-1,6,-1,8,10,12,14,16,-1,18,20,-1,22,-1,-1,-1,-1,-1,-1,-1,-1],"split_conditions":[2.526063E-1,2.9703197E-1,-2.6381633E-1,2.0005482E-1,3.5367692E-1,1.6532014E-1,1.9287439E-1,1.2943032E-1,1.78778E-1,1.4874165E-1,-1.4084686E-1,1.9226016E-1,2.0865557E-1,4.7592434E-1,1.9265518E-1,2.4391676E-1,3.7756715E-2,-6.4709727E-3,2.516732E-1,-1.6864108E-1,8.5674435E-2,-1.8560143E-1,9.842394E-2],"split_indices":[4743,2680,0,1474,0,993,2874,4087,993,2871,0,1473,2871,0,993,0,0,0,0,0,0,0,0],"split_type":[0,0,0,0,0,0,0,0,0,0,0,0,0,0,0,0,0,0,0,0,0,0,0],"sum_hessian":[1.9934836E2,1.973997E2,1.9486495E0,1.9628787E2,1.1118375E0,1.8785406E2,8.433809E0,1.7319032E2,1.4663741E1,7.2713675E0,1.1624415E0,1.5817027E2,1.5020046E1,1.548853E0,1.3114887E1,6.0731363E0,1.1982311E0,1.5538794E2,2.7823372E0,1.3882853E1,1.1371932E0,1.8516464E0,1.1263241E1],"tree_param":{"num_deleted":"0","num_feature":"5000","num_nodes":"23","size_leaf_vector":"1"}},{"base_weights":[1.37316445E-2,1.6175694E-3,2.9809168E-1,2.2854298E-2,-5.505539E-1,9.1452105E-3,3.536621E-1,-2.3624581E-1,7.300753E-2,-3.9132936E-3,3.0533278E-1,-1.7389802E-2,2.8263864E-1,-9.4114235E-3,2.6314187E-1],"categories":[],"categories_nodes":[],"categories_segments":[],"categories_sizes":[],"default_left":[0,0,0,0,0,0,0,0,0,0,0,0,0,0,0],"id":19,"left_children":[1,3,-1,5,7,9,-1,-1,-1,11,-1,13,-1,-1,-1],"loss_changes":[2.3592222E0,2.3279696E0,0E0,3.0177588E0,1.574707E0,2.5047698E0,0E0,0E0,0E0,2.4188323E0,0E0,2.3634713E0,0E0,0E0,0E0],"parents":[2147483647,0,0,1,1,3,3,4,4,5,5,9,9,11,11],"right_children":[2,4,-1,6,8,10,-1,-1,-1,12,-1,14,-1,-1,-1],"split_conditions":[2.7841878E-1,1.8508556E-1,2.9809168E-1,3.0892053E-1,1.16277866E-1,2.328786E-1,3.536621E-1,-2.3624581E-1,7.300753E-2,2.5940043E-1,3.0533278E-1,2.4936447E-1,2.8263864E-1,-9.4114235E-3,2.6314187E-1],"split_indices":[3860,4731,0,4245,2871,239,0,0,0,3218,0,1886,0,0,0],"split_type":[0,0,0,0,0,0,0,0,0,0,0,0,0,0,0],"sum_hessian":[1.978792E2,1.9645221E2,1.4269842E0,1.9009952E2,6.352691E0,1.8886768E2,1.2318468E0,4.898805E0,1.4538859E0,1.8743709E2,1.4305836E0,1.8577235E2,1.6647363E0,1.8386348E2,1.9088799E0],"tree_param":{"num_deleted":"0","num_feature":"5000","num_nodes":"15","size_leaf_vector":"1"}},{"base_weights":[1.5333781E-2,2.7902164E-2,-2.7175093E-1,-4.8382706E-3,4.0693676E-1,-1.8952882E-2,3.6964995E-1,8.1054574E-1,2.0809793E-1,-3.3869028E-2,3.208581E-1,3.1204545E-1,-1.8446813E-3,-7.834558E-2,5.1409996E-1,-1.3610083E-2,-2.5254172E-1,8.320389E-2,-9.677416E-2,2.5617558E-1,2.025677E-1,-9.659533E-3,2.4437684E-1,-7.745528E-2,8.7286085E-2,1.8806383E-1,-5.324742E-2],"categories":[],"categories_nodes":[],"categories_segments":[],"categories_sizes":[],"default_left":[0,0,0,0,0,0,0,0,0,0,0,0,0,0,0,0,0,0,0,0,0,0,0,0,0,0,0],"id":20,"left_children":[1,3,-1,5,7,9,-1,11,13,15,-1,-1,-1,17,19,21,-1,23,-1,-1,25,-1,-1,-1,-1,-1,-1],"loss_changes":[2.3174126E0,2.4378226E0,0E0,3.1952271E0,1.08476E0,2.9684672E0,0E0,9.0825987E-1,1.0753642E0,2.9205341E0,0E0,0E0,0E0,3.017375E-1,4.454645E-1,2.7321038E0,0E0,4.2891282E-1,0E0,0E0,8.141733E-1,0E0,0E0,0E0,0E0,0E0,0E0],"parents":[2147483647,0,0,1,1,3,3,4,4,5,5,7,7,8,8,9,9,13,13,14,14,15,15,17,17,20,20],"right_children":[2,4,-1,6,8,10,-1,12,14,16,-1,-1,-1,18,20,22,-1,24,-1,-1,26,-1,-1,-1,-1,-1,-1],"split_conditions":[2.3736185E-1,1.8980393E-1,-2.7175093E-1,2.5101456E-1,1.7762235E-1,2.6387182E-1,3.6964995E-1,1.2152554E-1,2.115057E-1,1.8284512E-1,3.208581E-1,3.1204545E-1,-1.8446813E-3,2.522348E-1,2.7211112E-1,1.8577658E-1,-2.5254172E-1,2.278976E-1,-9.677416E-2,2.5617558E-1,2.4800086E-1,-9.659533E-3,2.4437684E-1,-7.745528E-2,8.7286085E-2,1.8806383E-1,-5.324742E-2],"split_indices":[4556,491,0,4136,2871,4612,0,3585,2871,1712,0,0,0,491,491,1756,0,491,0,0,2871,0,0,0,0,0,0],"split_type":[0,0,0,0,0,0,0,0,0,0,0,0,0,0,0,0,0,0,0,0,0,0,0,0,0,0,0],"sum_hessian":[1.969801E2,1.9528535E2,1.6947495E0,1.8066685E2,1.4618493E1,1.7960222E2,1.0646391E0,3.809487E0,1.0809007E1,1.7813007E2,1.472148E0,2.7599447E0,1.0495423E0,5.967189E0,4.8418174E0,1.7476471E2,3.3653646E0,3.9883914E0,1.9787976E0,1.4830658E0,3.3587518E0,1.7186836E2,2.8963432E0,1.4170443E0,2.571347E0,1.2801358E0,2.078616E0],"tree_param":{"num_deleted":"0","num_feature":"5000","num_nodes":"27","size_leaf_vector":"1"}},{"base_weights":[1.5697926E-2,3.250719E-2,-6.2273985E-1,4.6349455E-2,-2.3003118E-1,-2.1399105E-1,-3.9876983E-2,3.3411074E-2,3.214006E-1,2.1200756E-2,2.9741442E-1,7.9657575E-3,2.7276543E-1,-1.945269E-3,2.6097685E-1],"categories":[],"categories_nodes":[],"categories_segments":[],"categories_sizes":[],"default_left":[0,0,0,0,0,0,0,0,0,0,0,0,0,0,0],"id":21,"left_children":[1,3,5,7,-1,-1,-1,9,-1,11,-1,13,-1,-1,-1],"loss_changes":[2.1238952E0,2.159178E0,1.3045394E-1,2.47888E0,0E0,0E0,0E0,2.1814144E0,0E0,2.1898522E0,0E0,2.3124073E0,0E0,0E0,0E0],"parents":[2147483647,0,0,1,1,2,2,3,3,7,7,9,9,11,11],"right_children":[2,4,6,8,-1,-1,-1,10,-1,12,-1,14,-1,-1,-1],"split_conditions":[1.8515371E-1,2.2882646E-1,2.9272428E-1,2.8548333E-1,-2.3003118E-1,-2.1399105E-1,-3.9876983E-2,2.7841878E-1,3.214006E-1,2.5039855E-1,2.9741442E-1,2.4032542E-1,2.7276543E-1,-1.945269E-3,2.6097685E-1],"split_indices":[150,465,150,3115,0,0,0,3860,0,4436,0,90,0,0,0],"split_type":[0,0,0,0,0,0,0,0,0,0,0,0,0,0,0],"sum_hessian":[1.9502277E2,1.9094453E2,4.0782456E0,1.8861993E2,2.3245971E0,3.0567992E0,1.0214466E0,1.8728839E2,1.3315415E0,1.8594052E2,1.3478724E0,1.8420412E2,1.7364053E0,1.8214311E2,2.0609994E0],"tree_param":{"num_deleted":"0","num_feature":"5000","num_nodes":"15","size_leaf_vector":"1"}},{"base_weights":[1.3564779E-2,5.8036856E-4,3.7434632E-1,-1.1429159E-2,3.4801492E-1,-2.3536002E-2,2.6172477E-1,-3.616097E-2,2.5330377E-1,-5.208969E-2,2.0349045E-1,-1.9592714E-2,2.458803E-1],"categories":[],"categories_nodes":[],"categories_segments":[],"categories_sizes":[],"default_left":[0,0,0,0,0,0,0,0,0,0,0,0,0],"id":22,"left_children":[1,3,-1,5,-1,7,-1,9,-1,11,-1,-1,-1],"loss_changes":[3.13201E0,2.7208083E0,0E0,2.0904462E0,0E0,2.132073E0,0E0,2.197715E0,0E0,2.205978E0,0E0,0E0,0E0],"parents":[2147483647,0,0,1,1,3,3,5,5,7,7,9,9],"right_children":[2,4,-1,6,-1,8,-1,10,-1,12,-1,-1,-1],"split_conditions":[2.8439876E-1,2.6509255E-1,3.7434632E-1,2.866347E-1,3.4801492E-1,2.683016E-1,2.6172477E-1,2.055E-1,2.5330377E-1,3.9619625E-1,2.0349045E-1,-1.9592714E-2,2.458803E-1],"split_indices":[3721,4464,0,2481,0,3311,0,4668,0,2873,0,0,0],"split_type":[0,0,0,0,0,0,0,0,0,0,0,0,0],"sum_hessian":[1.9447713E2,1.9344258E2,1.0345511E0,1.9243947E2,1.003103E0,1.9079929E2,1.6401836E0,1.8900815E2,1.7911432E0,1.8579305E2,3.215107E0,1.839288E2,1.8642364E0],"tree_param":{"num_deleted":"0","num_feature":"5000","num_nodes":"13","size_leaf_vector":"1"}},{"base_weights":[1.7388219E-2,5.239746E-3,3.526138E-1,1.7943757E-2,-2.42141E-1,3.1828407E-2,-2.250606E-1,1.9994559E-2,3.0304417E-1,3.4098715E-2,-2.170905E-1,4.149075E-3,2.192552E-1],"categories":[],"categories_nodes":[],"categories_segments":[],"categories_sizes":[],"default_left":[0,0,0,0,0,0,0,0,0,0,0,0,0],"id":23,"left_children":[1,3,-1,5,-1,7,-1,9,-1,11,-1,-1,-1],"loss_changes":[2.730735E0,2.0118446E0,0E0,2.0666592E0,0E0,2.1689684E0,0E0,1.9949154E0,0E0,2.6068606E0,0E0,0E0,0E0],"parents":[2147483647,0,0,1,1,3,3,5,5,7,7,9,9],"right_children":[2,4,-1,6,-1,8,-1,10,-1,12,-1,-1,-1],"split_conditions":[3.1284934E-1,2.542907E-1,3.526138E-1,1.6795775E-1,-2.42141E-1,2.790762E-1,-2.250606E-1,2.2368771E-1,3.0304417E-1,2.0728534E-1,-2.170905E-1,4.149075E-3,2.192552E-1],"split_indices":[3721,4207,0,4646,0,1639,0,3536,0,3850,0,0,0],"split_type":[0,0,0,0,0,0,0,0,0,0,0,0,0],"sum_hessian":[1.9354993E2,1.9253458E2,1.0153533E0,1.9053291E2,2.0016582E0,1.8809161E2,2.4412932E0,1.8685187E2,1.2397424E0,1.8431027E2,2.5416014E0,1.8009128E2,4.218993E0],"tree_param":{"num_deleted":"0","num_feature":"5000","num_nodes":"13","size_leaf_vector":"1"}},{"base_weights":[1.2045227E-2,1.8016596E-3,2.908389E-1,1.35469E-2,-2.5062084E-1,2.0591628E-3,3.010941E-1,1.8442595E-2,-2.5011003E-1,3.1661484E-2,-2.3483501E-1,1.386948E-2,-2.0486575E-1],"categories":[],"categories_nodes":[],"categories_segments":[],"categories_sizes":[],"default_left":[0,0,0,0,0,0,0,0,0,0,0,0,0],"id":24,"left_children":[1,3,-1,5,-1,7,-1,9,-1,11,-1,-1,-1],"loss_changes":[1.907568E0,1.91524E0,0E0,2.180922E0,0E0,2.6269464E0,0E0,2.0163746E0,0E0,1.9674932E0,0E0,0E0,0E0],"parents":[2147483647,0,0,1,1,3,3,5,5,7,7,9,9],"right_children":[2,4,-1,6,-1,8,-1,10,-1,12,-1,-1,-1],"split_conditions":[3.8049564E-1,2.2516023E-1,2.908389E-1,2.2861801E-1,-2.5062084E-1,1.9692415E-1,3.010941E-1,2.4302922E-1,-2.5011003E-1,1.97487E-1,-2.3483501E-1,1.386948E-2,-2.0486575E-1],"split_indices":[452,4556,0,4709,0,150,0,4286,0,4317,0,0,0],"split_type":[0,0,0,0,0,0,0,0,0,0,0,0,0],"sum_hessian":[1.9368158E2,1.9262256E2,1.059018E0,1.9092783E2,1.6947304E0,1.8972856E2,1.1992652E0,1.8703993E2,2.6886206E0,1.8494907E2,2.090867E0,1.821698E2,2.7792687E0],"tree_param":{"num_deleted":"0","num_feature":"5000","num_nodes":"13","size_leaf_vector":"1"}},{"base_weights":[5.674126E-3,-4.5473673E-3,2.8217408E-1,-1.6458675E-2,2.4236634E-1,-2.7793467E-2,2.4379149E-1,-1.329122E-2,-2.2937256E-1,-2.6213288E-2,2.7486277E-1,-1.6311925E-2,9.921935E-2],"categories":[],"categories_nodes":[],"categories_segments":[],"categories_sizes":[],"default_left":[0,0,0,0,0,0,0,0,0,0,0,0,0],"id":25,"left_children":[1,3,-1,5,-1,7,-1,9,-1,11,-1,-1,-1],"loss_changes":[1.8650793E0,1.8869171E0,0E0,1.8250065E0,0E0,2.0218582E0,0E0,2.276355E0,0E0,1.8867828E0,0E0,0E0,0E0],"parents":[2147483647,0,0,1,1,3,3,5,5,7,7,9,9],"right_children":[2,4,-1,6,-1,8,-1,10,-1,12,-1,-1,-1],"split_conditions":[3.1284934E-1,3.18298E-1,2.8217408E-1,2.5835645E-1,2.4236634E-1,2.3846921E-1,2.4379149E-1,3.2855132E-1,-2.2937256E-1,1.7848784E-1,2.7486277E-1,-1.6311925E-2,9.921935E-2],"split_indices":[3721,491,0,2669,0,4789,0,1869,0,1863,0,0,0],"split_type":[0,0,0,0,0,0,0,0,0,0,0,0,0],"sum_hessian":[1.9372325E2,1.9261253E2,1.1107306E0,1.9079498E2,1.8175495E0,1.891752E2,1.6197842E0,1.8652188E2,2.6533144E0,1.8492285E2,1.5990295E0,1.7218651E2,1.2736337E1],"tree_param":{"num_deleted":"0","num_feature":"5000","num_nodes":"13","size_leaf_vector":"1"}},{"base_weights":[8.359958E-3,2.0904595E-2,-2.1434644E-1,3.537425E-2,-6.2535846E-1,4.556467E-2,-2.7480283E-1,-2.25096E-1,-3.557091E-2,3.246234E-2,3.5645232E-1,1.58354E-2,7.603187E-1,-2.4129855E-3,1.2583253E-1,2.9546154E-1,5.245237E-2],"categories":[],"categories_nodes":[],"categories_segments":[],"categories_sizes":[],"default_left":[0,0,0,0,0,0,0,0,0,0,0,0,0,0,0,0,0],"id":26,"left_children":[1,3,-1,5,7,9,-1,-1,-1,11,-1,13,15,-1,-1,-1,-1],"loss_changes":[1.7652358E0,1.8054066E0,0E0,1.8592721E0,1.7890286E-1,2.7525525E0,0E0,0E0,0E0,2.2310898E0,0E0,1.759664E0,3.6923838E-1,0E0,0E0,0E0,0E0],"parents":[2147483647,0,0,1,1,3,3,4,4,5,5,9,9,11,11,12,12],"right_children":[2,4,-1,6,8,10,-1,-1,-1,12,-1,14,16,-1,-1,-1,-1],"split_conditions":[1.864726E-1,1.8957785E-1,-2.1434644E-1,3.5359374E-1,2.3310368E-1,3.160201E-1,-2.7480283E-1,-2.25096E-1,-3.557091E-2,2.2291388E-1,3.5645232E-1,1.3971592E-1,3.5746285E-1,-2.4129855E-3,1.2583253E-1,2.9546154E-1,5.245237E-2],"split_indices":[3490,4787,0,4005,3860,452,0,0,0,1476,0,1751,1476,0,0,0,0],"split_type":[0,0,0,0,0,0,0,0,0,0,0,0,0,0,0,0,0],"sum_hessian":[1.9202222E2,1.8970114E2,2.3210804E0,1.8647136E2,3.2297797E0,1.8543721E2,1.0341402E0,2.205436E0,1.0243438E0,1.8435167E2,1.0855539E0,1.8123338E2,3.1182861E0,1.7203528E2,9.198104E0,1.7607878E0,1.3574983E0],"tree_param":{"num_deleted":"0","num_feature":"5000","num_nodes":"17","size_leaf_vector":"1"}},{"base_weights":[5.8919564E-3,1.7496E-2,-2.3114926E-1,2.8680477E-2,-2.3666705E-1,1.7936183E-2,2.810134E-1,6.479784E-3,2.648678E-1,2.0105518E-2,-6.7401826E-1,-5.7839253E-4,2.2901446E-1,-2.3701672E-1,-6.348987E-2],"categories":[],"categories_nodes":[],"categories_segments":[],"categories_sizes":[],"default_left":[0,0,0,0,0,0,0,0,0,0,0,0,0,0,0],"id":27,"left_children":[1,3,-1,5,-1,7,-1,9,-1,11,13,-1,-1,-1,-1],"loss_changes":[1.7372253E0,1.7316437E0,0E0,1.8160217E0,0E0,1.8442035E0,0E0,1.7312704E0,0E0,2.9917011E0,2.9467225E-2,0E0,0E0,0E0,0E0],"parents":[2147483647,0,0,1,1,3,3,5,5,7,7,9,9,10,10],"right_children":[2,4,-1,6,-1,8,-1,10,-1,12,14,-1,-1,-1,-1],"split_conditions":[2.0222099E-1,2.526063E-1,-2.3114926E-1,2.9703197E-1,-2.3666705E-1,2.698774E-1,2.810134E-1,2.595186E-1,2.648678E-1,2.104261E-1,1.8349315E-1,-5.7839253E-4,2.2901446E-1,-2.3701672E-1,-6.348987E-2],"split_indices":[2175,4743,0,2680,0,3133,0,2118,0,1465,2871,0,0,0,0],"split_type":[0,0,0,0,0,0,0,0,0,0,0,0,0,0,0],"sum_hessian":[1.9033041E2,1.8849068E2,1.8397472E0,1.8686334E2,1.6273386E0,1.8568596E2,1.1773804E0,1.84253E2,1.4329501E0,1.815875E2,2.6655042E0,1.7732823E2,4.259269E0,1.5642881E0,1.1012162E0],"tree_param":{"num_deleted":"0","num_feature":"5000","num_nodes":"15","size_leaf_vector":"1"}},{"base_weights":[3.5365592E-3,-6.041194E-3,2.678183E-1,9.926074E-3,-1.8641317E-1,-1.1431001E-2,5.655492E-1,-2.6090348E-2,7.322768E-1,2.263495E-1,1.12358615E-1,-6.6678114E-2,2.632935E-1,3.2832688E-1,-7.984702E-3,-1.157373E-1,1.6566688E-1,-1.3547454E-2,-2.1211487E-1,4.2323824E-2,3.321971E-1],"categories":[],"categories_nodes":[],"categories_segments":[],"categories_sizes":[],"default_left":[0,0,0,0,0,0,0,0,0,0,0,0,0,0,0,0,0,0,0,0,0],"id":28,"left_children":[1,3,-1,5,-1,7,9,11,13,-1,15,17,19,-1,-1,-1,-1,-1,-1,-1,-1],"loss_changes":[1.630825E0,1.8711667E0,0E0,2.2136376E0,0E0,1.9825596E0,5.0647235E-1,2.1033142E0,9.953439E-1,0E0,9.156824E-1,2.1252422E0,2.1177855E0,0E0,0E0,0E0,0E0,0E0,0E0,0E0,0E0],"parents":[2147483647,0,0,1,1,3,3,5,5,6,6,7,7,8,8,10,10,11,11,12,12],"right_children":[2,4,-1,6,-1,8,10,12,14,-1,16,18,20,-1,-1,-1,-1,-1,-1,-1,-1],"split_conditions":[3.168989E-1,1.8569751E-1,2.678183E-1,2.0531891E-1,-1.8641317E-1,2.2929487E-1,4.308459E-1,1.3440321E-1,2.623081E-1,2.263495E-1,4.8369953E-1,1.8508556E-1,2.0612413E-1,3.2832688E-1,-7.984702E-3,-1.157373E-1,1.6566688E-1,-1.3547454E-2,-2.1211487E-1,4.2323824E-2,3.321971E-1],"split_indices":[1478,410,0,1866,0,162,1866,3585,162,0,1866,4731,1465,0,0,0,0,0,0,0,0],"split_type":[0,0,0,0,0,0,0,0,0,0,0,0,0,0,0,0,0,0,0,0,0],"sum_hessian":[1.8985785E2,1.8881725E2,1.0406029E0,1.8500055E2,3.8166847E0,1.7909589E2,5.904672E0,1.765802E2,2.515683E0,3.698002E0,2.2066698E0,1.5553508E2,2.1045115E1,1.4037005E0,1.1119825E0,1.0924237E0,1.1142461E0,1.5151392E2,4.0211678E0,1.9402777E1,1.6423382E0],"tree_param":{"num_deleted":"0","num_feature":"5000","num_nodes":"21","size_leaf_vector":"1"}},{"base_weights":[5.849972E-3,-3.8627689E-3,2.7048612E-1,-1.9319918E-2,5.941202E-1,-3.147132E-2,2.2606584E-1,2.219179E-1,2.8434526E-2,-4.2002916E-2,2.5177976E-1,-6.448189E-2,4.2586985E-1,-2.3556845E-2,2.0470464E-1,2.181045E-1,-9.1377586E-2],"categories":[],"categories_nodes":[],"categories_segments":[],"categories_sizes":[],"default_left":[0,0,0,0,0,0,0,0,0,0,0,0,0,0,0,0,0],"id":29,"left_children":[1,3,-1,5,7,9,-1,-1,-1,11,-1,13,15,-1,-1,-1,-1],"loss_changes":[1.6541376E0,1.7554936E0,0E0,1.7601714E0,2.7784896E-1,1.7133601E0,0E0,0E0,0E0,1.9390877E0,0E0,1.8812855E0,2.0832791E0,0E0,0E0,0E0,0E0],"parents":[2147483647,0,0,1,1,3,3,4,4,5,5,9,9,11,11,12,12],"right_children":[2,4,-1,6,8,10,-1,-1,-1,12,-1,14,16,-1,-1,-1,-1],"split_conditions":[2.9155013E-1,2.3563308E-1,2.7048612E-1,2.7656385E-1,1.3806081E-1,2.7831766E-1,2.2606584E-1,2.219179E-1,2.8434526E-2,2.5613603E-1,2.5177976E-1,2.2388229E-1,3.7618646E-1,-2.3556845E-2,2.0470464E-1,2.181045E-1,-9.1377586E-2],"split_indices":[4820,2873,0,558,2871,1244,0,0,0,2871,0,994,2871,0,0,0,0],"split_type":[0,0,0,0,0,0,0,0,0,0,0,0,0,0,0,0,0],"sum_hessian":[1.8872203E2,1.876827E2,1.0393353E0,1.8389687E2,3.785824E0,1.8199475E2,1.9021108E0,2.55839E0,1.2274342E0,1.8076022E2,1.2345399E0,1.7329636E2,7.463854E0,1.7097675E2,2.3196206E0,5.288358E0,2.1754954E0],"tree_param":{"num_deleted":"0","num_feature":"5000","num_nodes":"17","size_leaf_vector":"1"}},{"base_weights":[1.0659382E-2,1.1249194E-3,2.6791897E-1,1.1068072E-2,-2.4539797E-1,-8.6198584E-4,3.2422525E-1,-1.9711928E-2,4.9342927E-1,-3.0716065E-2,2.8557006E-1,8.5991144E-1,-9.250166E-2,-4.8549166E-3,-2.3495224E-1,8.570618E-2,3.5701042E-1,-7.82773E-2,2.761878E-2],"categories":[],"categories_nodes":[],"categories_segments":[],"categories_sizes":[],"default_left":[0,0,0,0,0,0,0,0,0,0,0,0,0,0,0,0,0,0,0],"id":30,"left_children":[1,3,-1,5,-1,7,-1,9,11,13,-1,15,17,-1,-1,-1,-1,-1,-1],"loss_changes":[1.5813237E0,1.5326397E0,0E0,2.3721201E0,0E0,1.7311975E0,0E0,1.9423571E0,1.5451933E0,1.9327363E0,0E0,4.7442746E-1,1.3372777E-1,0E0,0E0,0E0,0E0,0E0,0E0],"parents":[2147483647,0,0,1,1,3,3,5,5,7,7,8,8,9,9,11,11,12,12],"right_children":[2,4,-1,6,-1,8,-1,10,12,14,-1,16,18,-1,-1,-1,-1,-1,-1],"split_conditions":[2.8204718E-1,2.9135188E-1,2.6791897E-1,3.0682775E-1,-2.4539797E-1,1.8614867E-1,3.2422525E-1,2.8544813E-1,2.7661705E-1,3.493712E-1,2.8557006E-1,2.2787544E-1,3.6491624E-1,-4.8549166E-3,-2.3495224E-1,8.570618E-2,3.5701042E-1,-7.82773E-2,2.761878E-2],"split_indices":[3001,1045,0,1497,0,3495,0,4119,3495,993,0,3495,3495,0,0,0,0,0,0],"split_type":[0,0,0,0,0,0,0,0,0,0,0,0,0,0,0,0,0,0,0],"sum_hessian":[1.8707584E2,1.8606665E2,1.009194E0,1.8480975E2,1.2568903E0,1.837595E2,1.050256E0,1.7793405E2,5.8254466E0,1.7689894E2,1.0351087E0,3.296184E0,2.5292625E0,1.745492E2,2.3497448E0,1.8841847E0,1.4119993E0,1.1061356E0,1.4231268E0],"tree_param":{"num_deleted":"0","num_feature":"5000","num_nodes":"19","size_leaf_vector":"1"}},{"base_weights":[1.0726432E-2,2.0192433E-2,-2.5210598E-1,3.026817E-2,-2.2612919E-1,1.9421754E-2,2.2146867E-1,9.6175065E-3,2.6988527E-1,-5.741254E-3,1.8200852E-1,-1.090359E-2,8.674304E-2],"categories":[],"categories_nodes":[],"categories_segments":[],"categories_sizes":[],"default_left":[0,0,0,0,0,0,0,0,0,0,0,0,0],"id":31,"left_children":[1,3,-1,5,-1,7,-1,9,-1,11,-1,-1,-1],"loss_changes":[1.5310441E0,1.4798708E0,0E0,1.4093627E0,0E0,1.5760565E0,0E0,1.678204E0,0E0,1.626229E0,0E0,0E0,0E0],"parents":[2147483647,0,0,1,1,3,3,5,5,7,7,9,9],"right_children":[2,4,-1,6,-1,8,-1,10,-1,12,-1,-1,-1],"split_conditions":[2.551151E-1,1.825289E-1,-2.5210598E-1,2.328786E-1,-2.2612919E-1,2.4804783E-1,2.2146867E-1,2.8348255E-1,2.6988527E-1,1.7283653E-1,1.8200852E-1,-1.090359E-2,8.674304E-2],"split_indices":[1161,1780,0,239,0,2220,0,1474,0,491,0,0,0],"split_type":[0,0,0,0,0,0,0,0,0,0,0,0,0],"sum_hessian":[1.8693634E2,1.8584558E2,1.090764E0,1.8440579E2,1.4397919E0,1.8263513E2,1.7706548E0,1.8162302E2,1.0121201E0,1.780338E2,3.5892193E0,1.620885E2,1.5945297E1],"tree_param":{"num_deleted":"0","num_feature":"5000","num_nodes":"13","size_leaf_vector":"1"}},{"base_weights":[8.55888E-3,-1.03516E-3,2.5038862E-1,-1.6468856E-2,5.52572E-1,-3.0826882E-2,5.6203955E-1,2.4766691E-1,2.580362E-1,-1.9479666E-2,-2.4938604E-1,7.832435E-1,-2.3065213E-2,-8.94288E-2,2.4333532E-1,-3.3101335E-2,2.3282574E-1,6.1773E-2,3.229643E-1,-5.880781E-3,-2.4641843E-1],"categories":[],"categories_nodes":[],"categories_segments":[],"categories_sizes":[],"default_left":[0,0,0,0,0,0,0,0,0,0,0,0,0,0,0,0,0,0,0,0,0],"id":32,"left_children":[1,3,-1,5,7,9,11,-1,13,15,-1,17,-1,-1,-1,19,-1,-1,-1,-1,-1],"loss_changes":[1.4787425E0,1.5926219E0,0E0,1.5230578E0,1.9346476E-1,1.599081E0,6.8804073E-1,0E0,1.4372184E0,1.9370352E0,0E0,3.522246E-1,0E0,0E0,0E0,1.8392929E0,0E0,0E0,0E0,0E0,0E0],"parents":[2147483647,0,0,1,1,3,3,4,4,5,5,6,6,8,8,9,9,11,11,15,15],"right_children":[2,4,-1,6,8,10,12,-1,14,16,-1,18,-1,-1,-1,20,-1,-1,-1,-1,-1],"split_conditions":[2.43907E-1,3.0589232E-1,2.5038862E-1,2.1889555E-1,3.568928E-1,2.739723E-1,2.9457763E-1,2.4766691E-1,5.504374E-1,2.7095285E-1,-2.4938604E-1,2.4382079E-1,-2.3065213E-2,-8.94288E-2,2.4333532E-1,1.97487E-1,2.3282574E-1,6.1773E-2,3.229643E-1,-5.880781E-3,-2.4641843E-1],"split_indices":[4766,1863,0,2920,1863,1863,2920,0,1863,1030,0,2920,0,0,0,4317,0,0,0,0,0],"split_type":[0,0,0,0,0,0,0,0,0,0,0,0,0,0,0,0,0,0,0,0,0],"sum_hessian":[1.8547493E2,1.8433282E2,1.1421089E0,1.8027724E2,4.055594E0,1.7683507E2,3.4421637E0,1.1691165E0,2.8864775E0,1.7537334E2,1.461734E0,2.389134E0,1.05303E0,1.6691489E0,1.2173284E0,1.733634E2,2.009935E0,1.3782506E0,1.0108832E0,1.7145232E2,1.9110818E0],"tree_param":{"num_deleted":"0","num_feature":"5000","num_nodes":"21","size_leaf_vector":"1"}},{"base_weights":[9.630724E-3,2.0105783E-2,-2.0524402E-1,9.487377E-3,2.2881617E-1,-9.115654E-4,2.3533882E-1,-1.1489619E-2,2.2732237E-1,-2.087976E-2,2.386243E-1,-9.267782E-3,2.237545E-1],"categories":[],"categories_nodes":[],"categories_segments":[],"categories_sizes":[],"default_left":[0,0,0,0,0,0,0,0,0,0,0,0,0],"id":33,"left_children":[1,3,-1,5,-1,7,-1,9,-1,11,-1,-1,-1],"loss_changes":[1.3641285E0,1.4438412E0,0E0,1.4709816E0,0E0,1.4614265E0,0E0,1.3768094E0,0E0,1.3928548E0,0E0,0E0,0E0],"parents":[2147483647,0,0,1,1,3,3,5,5,7,7,9,9],"right_children":[2,4,-1,6,-1,8,-1,10,-1,12,-1,-1,-1],"split_conditions":[2.2882646E-1,2.5940043E-1,-2.0524402E-1,2.790762E-1,2.2881617E-1,2.7841878E-1,2.3533882E-1,3.8049564E-1,2.2732237E-1,2.609187E-1,2.386243E-1,-9.267782E-3,2.237545E-1],"split_indices":[465,3218,0,1639,0,3860,0,452,0,2520,0,0,0],"split_type":[0,0,0,0,0,0,0,0,0,0,0,0,0],"sum_hessian":[1.8481348E2,1.8302113E2,1.7923406E0,1.8143956E2,1.5815694E0,1.8002277E2,1.4167967E0,1.785185E2,1.5042653E0,1.7742786E2,1.0906482E0,1.76088E2,1.3398577E0],"tree_param":{"num_deleted":"0","num_feature":"5000","num_nodes":"13","size_leaf_vector":"1"}},{"base_weights":[1.1506358E-2,2.2521453E-2,-1.877528E-1,3.3031225E-2,-2.0086454E-1,4.355193E-2,-2.0395832E-1,3.3211723E-2,2.8092992E-1,4.99859E-2,-4.1594097E-1,9.82023E-3,3.575972E-1,-1.6315377E-1,4.3029092E-2],"categories":[],"categories_nodes":[],"categories_segments":[],"categories_sizes":[],"default_left":[0,0,0,0,0,0,0,0,0,0,0,0,0,0,0],"id":34,"left_children":[1,3,-1,5,-1,7,-1,9,-1,11,13,-1,-1,-1,-1],"loss_changes":[1.3126539E0,1.3516436E0,0E0,1.3872024E0,0E0,1.6244541E0,0E0,1.3641376E0,0E0,3.3649151E0,5.449451E-1,0E0,0E0,0E0,0E0],"parents":[2147483647,0,0,1,1,3,3,5,5,7,7,9,9,10,10],"right_children":[2,4,-1,6,-1,8,-1,10,-1,12,14,-1,-1,-1,-1],"split_conditions":[2.2368771E-1,1.6795775E-1,-1.877528E-1,2.542907E-1,-2.0086454E-1,2.4352916E-1,-2.0395832E-1,1.6267525E-1,2.8092992E-1,1.5808953E-1,2.4819872E-1,9.82023E-3,3.575972E-1,-1.6315377E-1,4.3029092E-2],"split_indices":[3536,4646,0,4207,0,4766,0,4087,0,4087,4087,0,0,0,0],"split_type":[0,0,0,0,0,0,0,0,0,0,0,0,0,0,0],"sum_hessian":[1.8396783E2,1.8179066E2,2.1771648E0,1.8000931E2,1.7813498E0,1.7831667E2,1.6926492E0,1.773006E2,1.016073E0,1.7177417E2,5.526415E0,1.7023123E2,1.5429499E0,4.520516E0,1.005899E0],"tree_param":{"num_deleted":"0","num_feature":"5000","num_nodes":"15","size_leaf_vector":"1"}},{"base_weights":[6.803182E-3,1.6306685E-2,-2.1785727E-1,7.0457314E-3,2.409807E-1,-2.971714E-3,2.590834E-1,1.13355825E-2,-5.502078E-1,2.335084E-5,2.772829E-1,-2.0159924E-1,-3.491382E-2,8.210585E-3,-1.826198E-1],"categories":[],"categories_nodes":[],"categories_segments":[],"categories_sizes":[],"default_left":[0,0,0,0,0,0,0,0,0,0,0,0,0,0,0],"id":35,"left_children":[1,3,-1,5,-1,7,-1,9,11,13,-1,-1,-1,-1,-1],"loss_changes":[1.300428E0,1.3323649E0,0E0,1.5682319E0,0E0,1.4261353E0,0E0,1.835284E0,1.6699362E-1,2.955404E0,0E0,0E0,0E0,0E0,0E0],"parents":[2147483647,0,0,1,1,3,3,5,5,7,7,8,8,9,9],"right_children":[2,4,-1,6,-1,8,-1,10,12,14,-1,-1,-1,-1,-1],"split_conditions":[2.526063E-1,3.1284934E-1,-2.1785727E-1,2.6963916E-1,2.409807E-1,2.1540922E-1,2.590834E-1,2.6676777E-1,1.16277866E-1,1.9586743E-1,2.772829E-1,-2.0159924E-1,-3.491382E-2,8.210585E-3,-1.826198E-1],"split_indices":[4743,3721,0,4464,0,274,0,4136,2871,3585,0,0,0,0,0],"split_type":[0,0,0,0,0,0,0,0,0,0,0,0,0,0,0],"sum_hessian":[1.8398192E2,1.8259232E2,1.3896146E0,1.8146577E2,1.1265321E0,1.803531E2,1.1126801E0,1.767123E2,3.6407957E0,1.7553725E2,1.1750532E0,2.4140892E0,1.2267064E0,1.6890509E2,6.6321597E0],"tree_param":{"num_deleted":"0","num_feature":"5000","num_nodes":"15","size_leaf_vector":"1"}},{"base_weights":[4.8599327E-3,1.7233146E-2,-5.518693E-1,5.661725E-3,2.1547318E-1,-2.0239316E-1,-3.2129064E-2,-3.9091427E-3,2.232865E-1,-1.3932247E-2,2.025406E-1,-2.4307793E-2,1.981495E-1,-3.1055352E-3,-2.1862245E-1],"categories":[],"categories_nodes":[],"categories_segments":[],"categories_sizes":[],"default_left":[0,0,0,0,0,0,0,0,0,0,0,0,0,0,0],"id":36,"left_children":[1,3,5,7,-1,-1,-1,9,-1,11,-1,13,-1,-1,-1],"loss_changes":[1.2839757E0,1.4719361E0,1.4905572E-1,1.2754757E0,0E0,0E0,0E0,1.2256975E0,0E0,1.2552265E0,0E0,1.7165039E0,0E0,0E0,0E0],"parents":[2147483647,0,0,1,1,2,2,3,3,7,7,9,9,11,11],"right_children":[2,4,6,8,-1,-1,-1,10,-1,12,-1,14,-1,-1,-1],"split_conditions":[1.8284512E-1,2.4032542E-1,1.3908243E-1,3.0892053E-1,2.1547318E-1,-2.0239316E-1,-3.2129064E-2,2.866347E-1,2.232865E-1,3.2855132E-1,2.025406E-1,1.6747586E-1,1.981495E-1,-3.1055352E-3,-2.1862245E-1],"split_indices":[1712,90,2871,4245,0,0,0,2481,0,1869,0,3956,0,0,0],"split_type":[0,0,0,0,0,0,0,0,0,0,0,0,0,0,0],"sum_hessian":[1.8401273E2,1.8095996E2,3.0527592E0,1.790131E2,1.9468509E0,1.9873449E0,1.0654142E0,1.7770517E2,1.3079348E0,1.7608553E2,1.6196454E0,1.74367E2,1.7185316E0,1.719746E2,2.392409E0],"tree_param":{"num_deleted":"0","num_feature":"5000","num_nodes":"15","size_leaf_vector":"1"}},{"base_weights":[5.039487E-3,1.6291963E-2,-1.8267708E-1,-5.6103445E-3,4.110436E-1,-1.6578862E-2,2.2312221E-1,-2.6026579E-2,2.2226685E-1,-3.5389874E-2,2.2660626E-1,-1.388502E-2,1.8928449E-1],"categories":[],"categories_nodes":[],"categories_segments":[],"categories_sizes":[],"default_left":[0,0,0,0,0,0,0,0,0,0,0,0,0],"id":37,"left_children":[1,3,-1,5,-1,7,-1,9,-1,11,-1,-1,-1],"loss_changes":[1.2818232E0,5.3974643E0,0E0,1.4907042E0,0E0,1.2949032E0,0E0,1.3218658E0,0E0,1.3058712E0,0E0,0E0,0E0],"parents":[2147483647,0,0,1,1,3,3,5,5,7,7,9,9],"right_children":[2,4,-1,6,-1,8,-1,10,-1,12,-1,-1,-1],"split_conditions":[2.7115864E-1,1.8559216E-1,-1.8267708E-1,4.6961695E-1,4.110436E-1,2.9703197E-1,2.2312221E-1,2.9155013E-1,2.2226685E-1,2.683016E-1,2.2660626E-1,-1.388502E-2,1.8928449E-1],"split_indices":[4161,4161,0,1863,0,2680,0,4820,0,3311,0,0,0],"split_type":[0,0,0,0,0,0,0,0,0,0,0,0,0],"sum_hessian":[1.8310414E2,1.8076462E2,2.339519E0,1.788668E2,1.8978072E0,1.7725021E2,1.6165986E0,1.7602039E2,1.2298192E0,1.7487952E2,1.1408747E0,1.7298209E2,1.8974293E0],"tree_param":{"num_deleted":"0","num_feature":"5000","num_nodes":"13","size_leaf_vector":"1"}},{"base_weights":[9.070982E-3,2.0105481E-2,-6.071799E-1,9.824742E-3,2.535532E-1,-5.8573198E-2,-2.2213075E-1,4.845973E-5,2.1099171E-1,-9.37319E-3,2.3603365E-1,2.038714E-3,-2.0501693E-1,-3.0042434E-3,2.2961651E-1],"categories":[],"categories_nodes":[],"categories_segments":[],"categories_sizes":[],"default_left":[0,0,0,0,0,0,0,0,0,0,0,0,0,0,0],"id":38,"left_children":[1,3,5,7,-1,-1,-1,9,-1,11,-1,13,-1,-1,-1],"loss_changes":[1.2559562E0,1.5240681E0,3.380835E-2,1.216527E0,0E0,0E0,0E0,1.3263795E0,0E0,1.3615408E0,0E0,1.6166881E0,0E0,0E0,0E0],"parents":[2147483647,0,0,1,1,2,2,3,3,7,7,9,9,11,11],"right_children":[2,4,6,8,-1,-1,-1,10,-1,12,-1,14,-1,-1,-1],"split_conditions":[2.4703445E-1,3.0682775E-1,2.9135188E-1,2.698774E-1,2.535532E-1,-5.8573198E-2,-2.2213075E-1,2.8544813E-1,2.1099171E-1,3.493712E-1,2.3603365E-1,2.7931735E-1,-2.0501693E-1,-3.0042434E-3,2.2961651E-1],"split_indices":[1045,1497,1045,3133,0,0,0,4119,0,993,0,993,0,0,0],"split_type":[0,0,0,0,0,0,0,0,0,0,0,0,0,0,0],"sum_hessian":[1.8190369E2,1.7965419E2,2.2494879E0,1.7844264E2,1.211562E0,1.1523606E0,1.0971272E0,1.769482E2,1.4944406E0,1.7583058E2,1.1176091E0,1.738835E2,1.9470799E0,1.721522E2,1.7313045E0],"tree_param":{"num_deleted":"0","num_feature":"5000","num_nodes":"15","size_leaf_vector":"1"}},{"base_weights":[8.255831E-3,-3.9849052E-4,2.349657E-1,-1.2983262E-2,5.27796E-1,-2.4915857E-3,-2.0810944E-1,5.8880262E-2,1.8838562E-1,-1.390825E-2,2.235899E-1,-3.4722835E-3,-2.0705183E-1,2.3558824E-3,-1.8771778E-1],"categories":[],"categories_nodes":[],"categories_segments":[],"categories_sizes":[],"default_left":[0,0,0,0,0,0,0,0,0,0,0,0,0,0,0],"id":39,"left_children":[1,3,-1,5,7,9,-1,-1,-1,11,-1,13,-1,-1,-1],"loss_changes":[1.2260488E0,1.2149285E0,0E0,1.2730079E0,1.7986655E-2,1.519611E0,0E0,0E0,0E0,1.2334106E0,0E0,1.2272445E0,0E0,0E0,0E0],"parents":[2147483647,0,0,1,1,3,3,4,4,5,5,9,9,11,11],"right_children":[2,4,-1,6,8,10,-1,-1,-1,12,-1,14,-1,-1,-1],"split_conditions":[2.9033643E-1,2.023156E-1,2.349657E-1,2.2242938E-1,2.520243E-1,2.5835645E-1,-2.0810944E-1,5.8880262E-2,1.8838562E-1,2.2912191E-1,2.235899E-1,2.3846921E-1,-2.0705183E-1,2.3558824E-3,-1.8771778E-1],"split_indices":[3001,4436,0,894,4436,2669,0,0,0,4160,0,4789,0,0,0],"split_type":[0,0,0,0,0,0,0,0,0,0,0,0,0,0,0],"sum_hessian":[1.8176085E2,1.8074191E2,1.0189309E0,1.774885E2,3.2534246E0,1.7578287E2,1.705634E0,1.4415015E0,1.8119233E0,1.7410616E2,1.6767094E0,1.7245007E2,1.6560779E0,1.7033727E2,2.1128154E0],"tree_param":{"num_deleted":"0","num_feature":"5000","num_nodes":"15","size_leaf_vector":"1"}},{"base_weights":[5.6773466E-3,1.5067112E-2,-2.0400707E-1,5.6358865E-3,2.5590417E-1,-7.3544136E-3,5.460079E-1,-1.695891E-2,2.0570116E-1,2.1860564E-1,2.645636E-1,-4.512651E-3,-2.1506779E-1,1.54287E-2,1.1076304E-1,1.9363387E-3,-2.161968E-1],"categories":[],"categories_nodes":[],"categories_segments":[],"categories_sizes":[],"default_left":[0,0,0,0,0,0,0,0,0,0,0,0,0,0,0,0,0],"id":40,"left_children":[1,3,-1,5,-1,7,9,11,-1,-1,13,15,-1,-1,-1,-1,-1],"loss_changes":[1.1869953E0,1.4277846E0,0E0,1.2693965E0,0E0,1.1898944E0,2.546835E-2,1.5262978E0,0E0,0E0,5.3295553E-2,1.3674346E0,0E0,0E0,0E0,0E0,0E0],"parents":[2147483647,0,0,1,1,3,3,5,5,6,6,7,7,10,10,11,11],"right_children":[2,4,-1,6,-1,8,10,12,-1,-1,14,16,-1,-1,-1,-1,-1],"split_conditions":[2.570441E-1,3.0892053E-1,-2.0400707E-1,2.2291388E-1,2.5590417E-1,2.2861801E-1,2.815788E-1,1.9692415E-1,2.0570116E-1,2.1860564E-1,4.2741492E-1,2.4302922E-1,-2.1506779E-1,1.54287E-2,1.1076304E-1,1.9363387E-3,-2.161968E-1],"split_indices":[4554,4245,0,1476,0,4709,1476,150,0,0,1476,4286,0,0,0,0,0],"split_type":[0,0,0,0,0,0,0,0,0,0,0,0,0,0,0,0,0],"sum_hessian":[1.8176562E2,1.8027502E2,1.490601E0,1.7926411E2,1.0109204E0,1.7601907E2,3.2450297E0,1.7457521E2,1.4438739E0,1.0041625E0,2.2408671E0,1.7251399E2,2.0612059E0,1.2290677E0,1.0117993E0,1.7088799E2,1.6260139E0],"tree_param":{"num_deleted":"0","num_feature":"5000","num_nodes":"17","size_leaf_vector":"1"}},{"base_weights":[4.4681276E-3,1.4242257E-2,-1.9326457E-1,2.5681986E-2,-5.430113E-1,3.493937E-2,-1.994744E-1,-1.9789921E-1,-4.0198E-2,4.350868E-2,-2.0196877E-1,5.1833212E-2,-2.0538963E-1,1.028262E-2,1.5143277E-1],"categories":[],"categories_nodes":[],"categories_segments":[],"categories_sizes":[],"default_left":[0,0,0,0,0,0,0,0,0,0,0,0,0,0,0],"id":41,"left_children":[1,3,-1,5,7,9,-1,-1,-1,11,-1,13,-1,-1,-1],"loss_changes":[1.1655877E0,1.1656312E0,0E0,1.1610924E0,8.716047E-2,1.1008567E0,0E0,0E0,0E0,1.0986983E0,0E0,1.3692725E0,0E0,0E0,0E0],"parents":[2147483647,0,0,1,1,3,3,4,4,5,5,9,9,11,11],"right_children":[2,4,-1,6,8,10,-1,-1,-1,12,-1,14,-1,-1,-1],"split_conditions":[1.864726E-1,1.8957785E-1,-1.9326457E-1,2.0222099E-1,2.1633998E-1,2.526063E-1,-1.994744E-1,-1.9789921E-1,-4.0198E-2,3.2836023E-1,-2.0196877E-1,2.3718743E-1,-2.0538963E-1,1.028262E-2,1.5143277E-1],"split_indices":[3490,4787,0,2175,3860,4743,0,0,0,2118,0,2874,0,0,0],"split_type":[0,0,0,0,0,0,0,0,0,0,0,0,0,0,0],"sum_hessian":[1.8139041E2,1.7966138E2,1.7290293E0,1.7698207E2,2.6793103E0,1.7557787E2,1.4041989E0,1.6079273E0,1.071383E0,1.74406E2,1.1718658E0,1.7335295E2,1.0530587E0,1.679194E2,5.433536E0],"tree_param":{"num_deleted":"0","num_feature":"5000","num_nodes":"15","size_leaf_vector":"1"}},{"base_weights":[-2.3593248E-3,-1.2192101E-2,1.8396866E-1,-2.7211541E-2,4.0327924E-1,-3.6599897E-2,2.3440704E-1,2.2741812E-1,1.9853547E-1,-4.5228466E-2,2.1834068E-1,1.15502454E-1,6.545463E-2,-5.4155715E-2,2.1559602E-1,-3.0043213E-2,7.395672E-2,-1.9096132E-2,1.9934608E-1],"categories":[],"categories_nodes":[],"categories_segments":[],"categories_sizes":[],"default_left":[0,0,0,0,0,0,0,0,0,0,0,0,0,0,0,0,0,0,0],"id":42,"left_children":[1,3,-1,5,7,9,-1,11,-1,13,-1,-1,15,17,-1,-1,-1,-1,-1],"loss_changes":[1.1111844E0,1.1370467E0,0E0,1.3577807E0,1.3859272E-1,1.1808488E0,0E0,1.1028263E-1,0E0,1.218951E0,0E0,0E0,1.3930564E-1,1.2161303E0,0E0,0E0,0E0,0E0,0E0],"parents":[2147483647,0,0,1,1,3,3,4,4,5,5,7,7,9,9,12,12,13,13],"right_children":[2,4,-1,6,8,10,-1,12,-1,14,-1,-1,16,18,-1,-1,-1,-1,-1],"split_conditions":[2.3023306E-1,1.744318E-1,1.8396866E-1,2.8911126E-1,1.6216797E-1,3.0779395E-1,2.3440704E-1,2.2489916E-1,1.9853547E-1,2.94446E-1,2.1834068E-1,1.15502454E-1,3.0406818E-1,3.18298E-1,2.1559602E-1,-3.0043213E-2,7.395672E-2,-1.9096132E-2,1.9934608E-1],"split_indices":[4481,4494,0,3259,491,3001,0,4494,0,3678,0,0,4494,491,0,0,0,0,0],"split_type":[0,0,0,0,0,0,0,0,0,0,0,0,0,0,0,0,0,0,0],"sum_hessian":[1.8134239E2,1.7945615E2,1.8862543E0,1.7409697E2,5.359164E0,1.730425E2,1.054476E0,4.3081055E0,1.0510585E0,1.7204132E2,1.0011705E0,1.4855452E0,2.8225605E0,1.7097234E2,1.068996E0,1.707689E0,1.1148715E0,1.6964166E2,1.3306721E0],"tree_param":{"num_deleted":"0","num_feature":"5000","num_nodes":"19","size_leaf_vector":"1"}},{"base_weights":[5.897974E-3,-3.7492237E-3,1.7949966E-1,6.2153633E-3,-2.5162104E-1,-9.3113445E-3,4.1225094E-1,-2.4925949E-2,7.514138E-1,-4.3439213E-2,3.7929443E-1,3.0793133E-1,6.108504E-2,-1.9620791E-2,1.4175045E-1,1.6223033E-1,9.974904E-3],"categories":[],"categories_nodes":[],"categories_segments":[],"categories_sizes":[],"default_left":[0,0,0,0,0,0,0,0,0,0,0,0,0,0,0,0,0],"id":43,"left_children":[1,3,-1,5,-1,7,-1,9,11,13,15,-1,-1,-1,-1,-1,-1],"loss_changes":[1.0360192E0,1.4943253E0,0E0,3.7904108E0,0E0,2.1194582E0,0E0,1.3205653E0,3.3173323E-1,1.9293098E0,4.1419888E-1,0E0,0E0,0E0,0E0,0E0,0E0],"parents":[2147483647,0,0,1,1,3,3,5,5,7,7,8,8,9,9,10,10],"right_children":[2,4,-1,6,-1,8,-1,10,12,14,16,-1,-1,-1,-1,-1,-1],"split_conditions":[3.9619625E-1,2.934132E-1,1.7949966E-1,2.1709967E-1,-2.5162104E-1,1.8503955E-1,4.1225094E-1,2.4275951E-1,2.667138E-1,2.0531891E-1,3.8838813E-1,3.0793133E-1,6.108504E-2,-1.9620791E-2,1.4175045E-1,1.6223033E-1,9.974904E-3],"split_indices":[2873,1368,0,1368,0,2541,0,1863,2541,1866,1863,0,0,0,0,0,0],"split_type":[0,0,0,0,0,0,0,0,0,0,0,0,0,0,0,0,0],"sum_hessian":[1.7987773E2,1.7797328E2,1.9044454E0,1.7685529E2,1.1180022E0,1.758525E2,1.0027875E0,1.7326334E2,2.5891602E0,1.6652887E2,6.7344747E0,1.1420386E0,1.4471215E0,1.6056682E2,5.962038E0,4.208139E0,2.5263352E0],"tree_param":{"num_deleted":"0","num_feature":"5000","num_nodes":"17","size_leaf_vector":"1"}},{"base_weights":[9.265103E-3,1.8230235E-2,-1.901022E-1,9.3298005E-3,1.9765915E-1,1.925032E-2,-2.0314106E-1,2.9877717E-2,-1.7046168E-1,1.1907009E-2,3.543255E-1,-2.614029E-3,1.0806427E-1],"categories":[],"categories_nodes":[],"categories_segments":[],"categories_sizes":[],"default_left":[0,0,0,0,0,0,0,0,0,0,0,0,0],"id":44,"left_children":[1,3,-1,5,-1,7,-1,9,-1,11,-1,-1,-1],"loss_changes":[1.0463032E0,1.0089189E0,0E0,1.2156782E0,0E0,1.1098573E0,0E0,3.5627472E0,0E0,1.2330676E0,0E0,0E0,0E0],"parents":[2147483647,0,0,1,1,3,3,5,5,7,7,9,9],"right_children":[2,4,-1,6,-1,8,-1,10,-1,12,-1,-1,-1],"split_conditions":[2.2882646E-1,2.8548333E-1,-1.901022E-1,2.241828E-1,1.9765915E-1,2.5889462E-1,-2.0314106E-1,1.8559216E-1,-1.7046168E-1,1.6999154E-1,3.543255E-1,-2.614029E-3,1.0806427E-1],"split_indices":[465,3115,0,3661,0,4161,0,4161,0,4757,0,0,0],"split_type":[0,0,0,0,0,0,0,0,0,0,0,0,0],"sum_hessian":[1.785186E2,1.7702185E2,1.4967445E0,1.7559682E2,1.4250345E0,1.7405344E2,1.5433879E0,1.7189293E2,2.1604955E0,1.7024568E2,1.6472453E0,1.6165065E2,8.595038E0],"tree_param":{"num_deleted":"0","num_feature":"5000","num_nodes":"13","size_leaf_vector":"1"}},{"base_weights":[6.4383135E-3,-1.8407606E-3,2.134523E-1,7.0781605E-3,-2.0750074E-1,-6.57428E-3,5.8972657E-1,-1.9528331E-2,1.6001052E-1,3.5676348E-1,-1.5038661E-2,-4.2902693E-2,3.6745936E-1,-1.6698612E-2,1.9059628E-1,1.5951657E-1,-1.4292821E-1],"categories":[],"categories_nodes":[],"categories_segments":[],"categories_sizes":[],"default_left":[0,0,0,0,0,0,0,0,0,0,0,0,0,0,0,0,0],"id":45,"left_children":[1,3,-1,5,-1,7,9,11,-1,-1,-1,13,15,-1,-1,-1,-1],"loss_changes":[1.0467219E0,1.1001066E0,0E0,1.4096704E0,0E0,1.2251443E0,1.6159075E0,1.5586364E0,0E0,0E0,0E0,1.4350631E0,1.614572E0,0E0,0E0,0E0,0E0],"parents":[2147483647,0,0,1,1,3,3,5,5,6,6,7,7,11,11,12,12],"right_children":[2,4,-1,6,-1,8,10,12,-1,-1,-1,14,16,-1,-1,-1,-1],"split_conditions":[3.8049564E-1,2.2516023E-1,2.134523E-1,9.5038496E-2,-2.0750074E-1,2.0386498E-1,2.370282E-1,1.3971592E-1,1.6001052E-1,3.5676348E-1,-1.5038661E-2,2.5167385E-1,3.0665243E-1,-1.6698612E-2,1.9059628E-1,1.5951657E-1,-1.4292821E-1],"split_indices":[452,4556,0,4654,0,4668,4654,1751,0,0,0,1368,2535,0,0,0,0],"split_type":[0,0,0,0,0,0,0,0,0,0,0,0,0,0,0,0,0],"sum_hessian":[1.7809108E2,1.7700998E2,1.0810997E0,1.757277E2,1.2822775E0,1.7267046E2,3.0572453E0,1.6956615E2,3.1043193E0,1.1351513E0,1.9220941E0,1.607461E2,8.820053E0,1.5867882E2,2.0672765E0,7.692602E0,1.1274514E0],"tree_param":{"num_deleted":"0","num_feature":"5000","num_nodes":"17","size_leaf_vector":"1"}},{"base_weights":[8.377222E-3,2.303416E-4,2.100231E-1,-1.0286012E-2,2.0017906E-1,-2.7431814E-2,3.23211E-1,-5.460788E-2,2.673232E-1,4.389924E-1,-8.207068E-2,-2.2703685E-2,-4.030962E-1,3.471729E-1,5.593564E-2,4.8805955E-1,3.138008E-2,-1.5124984E-2,1.945721E-1,-1.772778E-1,-4.1332833E-2,-3.812721E-2,2.2809272E-1,1.8029475E-1,4.0917873E-2],"categories":[],"categories_nodes":[],"categories_segments":[],"categories_sizes":[],"default_left":[0,0,0,0,0,0,0,0,0,0,0,0,0,0,0,0,0,0,0,0,0,0,0,0,0],"id":46,"left_children":[1,3,-1,5,-1,7,9,11,13,15,-1,17,19,-1,21,23,-1,-1,-1,-1,-1,-1,-1,-1,-1],"loss_changes":[9.981906E-1,1.2421736E0,0E0,1.0058305E0,0E0,1.3503073E0,7.14582E-1,1.6975363E0,2.6151795E0,7.347846E-2,0E0,2.6685393E0,5.572164E-1,0E0,1.7161461E0,1.7002809E-1,0E0,0E0,0E0,0E0,0E0,0E0,0E0,0E0,0E0],"parents":[2147483647,0,0,1,1,3,3,5,5,6,6,7,7,8,8,9,9,11,11,12,12,14,14,15,15],"right_children":[2,4,-1,6,-1,8,10,12,14,16,-1,18,20,-1,22,24,-1,-1,-1,-1,-1,-1,-1,-1,-1],"split_conditions":[2.7884504E-1,2.4501199E-1,2.100231E-1,2.0005482E-1,2.0017906E-1,1.6532014E-1,1.9287439E-1,1.2943032E-1,1.78778E-1,1.4874165E-1,-8.207068E-2,1.1994434E-1,1.5808953E-1,3.471729E-1,1.2987453E-1,3.382807E-1,3.138008E-2,-1.5124984E-2,1.945721E-1,-1.772778E-1,-4.1332833E-2,-3.812721E-2,2.2809272E-1,1.8029475E-1,4.0917873E-2],"split_indices":[3290,3780,0,1474,0,993,2874,4087,993,2871,0,4087,4087,0,4087,1474,0,0,0,0,0,0,0,0,0],"split_type":[0,0,0,0,0,0,0,0,0,0,0,0,0,0,0,0,0,0,0,0,0,0,0,0,0],"sum_hessian":[1.7616367E2,1.7510164E2,1.0620246E0,1.7335315E2,1.7484826E0,1.6574937E2,7.603788E0,1.5250346E2,1.3245905E1,6.589714E0,1.0140736E0,1.4068854E2,1.1814923E1,1.6836028E0,1.1562302E1,5.3457594E0,1.2439547E0,1.3599887E2,4.689666E0,6.1991196E0,5.6158032E0,9.828108E0,1.7341938E0,3.5097852E0,1.8359745E0],"tree_param":{"num_deleted":"0","num_feature":"5000","num_nodes":"25","size_leaf_vector":"1"}},{"base_weights":[1.1078569E-2,1.9482734E-2,-1.9182657E-1,2.7608225E-2,-1.9572869E-1,1.6515382E-2,2.475177E-1,6.23965E-3,2.5579026E-1,-4.5277392E-3,2.3360921E-1,2.0168526E-3,-1.9988132E-1],"categories":[],"categories_nodes":[],"categories_segments":[],"categories_sizes":[],"default_left":[0,0,0,0,0,0,0,0,0,0,0,0,0],"id":47,"left_children":[1,3,-1,5,-1,7,-1,9,-1,11,-1,-1,-1],"loss_changes":[9.75228E-1,9.7253156E-1,0E0,1.5229515E0,0E0,1.475383E0,0E0,1.4279183E0,0E0,1.2693497E0,0E0,0E0,0E0],"parents":[2147483647,0,0,1,1,3,3,5,5,7,7,9,9],"right_children":[2,4,-1,6,-1,8,-1,10,-1,12,-1,-1,-1],"split_conditions":[1.7079592E-1,3.4959388E-1,-1.9182657E-1,3.2855132E-1,-1.9572869E-1,2.554946E-1,2.475177E-1,2.790762E-1,2.5579026E-1,1.6747586E-1,2.3360921E-1,2.0168526E-3,-1.9988132E-1],"split_indices":[2970,2874,0,1869,0,3850,0,1639,0,3956,0,0,0],"split_type":[0,0,0,0,0,0,0,0,0,0,0,0,0],"sum_hessian":[1.7510855E2,1.7383276E2,1.2757896E0,1.7270316E2,1.1296049E0,1.7134045E2,1.3627009E0,1.7025552E2,1.0849434E0,1.688954E2,1.3601165E0,1.6704523E2,1.8501667E0],"tree_param":{"num_deleted":"0","num_feature":"5000","num_nodes":"13","size_leaf_vector":"1"}},{"base_weights":[8.023953E-3,-6.8207574E-4,1.9432472E-1,1.5311796E-2,-1.9262572E-1,3.4488002E-3,4.9130455E-1,-6.80134E-3,1.756743E-1,2.747769E-1,-1.9234853E-2,3.4605453E-3,-2.116695E-1,4.1867257E-3,-1.8745407E-1],"categories":[],"categories_nodes":[],"categories_segments":[],"categories_sizes":[],"default_left":[0,0,0,0,0,0,0,0,0,0,0,0,0,0,0],"id":48,"left_children":[1,3,-1,5,-1,7,9,11,-1,-1,-1,13,-1,-1,-1],"loss_changes":[9.808465E-1,1.8016638E0,0E0,9.661208E-1,0E0,1.0078251E0,1.0399859E0,1.1950015E0,0E0,0E0,0E0,1.0961047E0,0E0,0E0,0E0],"parents":[2147483647,0,0,1,1,3,3,5,5,6,6,7,7,11,11],"right_children":[2,4,-1,6,-1,8,10,12,-1,-1,-1,14,-1,-1,-1],"split_conditions":[2.7831766E-1,1.7904763E-1,1.9432472E-1,1.681474E-1,-1.9262572E-1,2.4850427E-1,2.3139714E-1,2.414545E-1,1.756743E-1,2.747769E-1,-1.9234853E-2,3.0665243E-1,-2.116695E-1,4.1867257E-3,-1.8745407E-1],"split_indices":[1244,1230,0,3048,0,2920,3048,791,0,0,0,2535,0,0,0],"split_type":[0,0,0,0,0,0,0,0,0,0,0,0,0,0,0],"sum_hessian":[1.7503212E2,1.7366762E2,1.3645115E0,1.7039482E2,3.2727928E0,1.6723415E2,3.1606708E0,1.6531168E2,1.922479E0,1.4234122E0,1.7372586E0,1.6389972E2,1.4119467E0,1.6216866E2,1.7310666E0],"tree_param":{"num_deleted":"0","num_feature":"5000","num_nodes":"15","size_leaf_vector":"1"}},{"base_weights":[5.3785415E-3,-2.6689721E-3,1.9953278E-1,-1.0708399E-2,1.9943535E-1,-2.1061374E-2,1.7801464E-1,-9.485293E-3,-2.5263542E-1,-2.8668882E-2,3.484076E-1,-1.2898269E-2,2.095638E-1,1.5501128E-1,-7.767193E-2],"categories":[],"categories_nodes":[],"categories_segments":[],"categories_sizes":[],"default_left":[0,0,0,0,0,0,0,0,0,0,0,0,0,0,0],"id":49,"left_children":[1,3,-1,5,-1,7,-1,9,-1,11,13,-1,-1,-1,-1],"loss_changes":[9.3567485E-1,9.449707E-1,0E0,1.0987315E0,0E0,1.6241632E0,0E0,1.1795267E0,0E0,1.7239727E0,1.0273185E0,0E0,0E0,0E0,0E0],"parents":[2147483647,0,0,1,1,3,3,5,5,7,7,9,9,10,10],"right_children":[2,4,-1,6,-1,8,-1,10,-1,12,14,-1,-1,-1,-1],"split_conditions":[3.8049564E-1,2.9731178E-1,1.9953278E-1,2.328786E-1,1.9943535E-1,1.9049095E-1,1.7801464E-1,8.485061E-2,-2.5263542E-1,2.2388229E-1,1.9016643E-1,-1.2898269E-2,2.095638E-1,1.5501128E-1,-7.767193E-2],"split_indices":[452,2220,0,239,0,1161,0,1452,0,994,2535,0,0,0,0],"split_type":[0,0,0,0,0,0,0,0,0,0,0,0,0,0,0],"sum_hessian":[1.7490242E2,1.737786E2,1.1238282E0,1.726826E2,1.0959924E0,1.7072188E2,1.9607164E0,1.6934583E2,1.3760548E0,1.6160353E2,7.742294E0,1.5940431E2,2.1992137E0,6.179148E0,1.5631458E0],"tree_param":{"num_deleted":"0","num_feature":"5000","num_nodes":"15","size_leaf_vector":"1"}},{"base_weights":[7.035413E-3,1.7477496E-2,-1.470408E-1,7.4887406E-3,1.7827486E-1,1.6959045E-2,-1.6008715E-1,2.5264176E-2,-1.857603E-1,3.7138622E-2,-4.3116218E-1,7.768277E-3,2.0562877E-1,-1.750018E-1,3.5290862E-3],"categories":[],"categories_nodes":[],"categories_segments":[],"categories_sizes":[],"default_left":[0,0,0,0,0,0,0,0,0,0,0,0,0,0,0],"id":50,"left_children":[1,3,-1,5,-1,7,-1,9,-1,11,13,-1,-1,-1,-1],"loss_changes":[9.144408E-1,9.8572046E-1,0E0,8.799831E-1,0E0,9.03257E-1,0E0,9.200181E-1,0E0,1.1740148E0,2.9728037E-1,0E0,0E0,0E0,0E0],"parents":[2147483647,0,0,1,1,3,3,5,5,7,7,9,9,10,10],"right_children":[2,4,-1,6,-1,8,-1,10,-1,12,14,-1,-1,-1,-1],"split_conditions":[1.8284512E-1,2.4032542E-1,-1.470408E-1,1.6224007E-1,1.7827486E-1,1.8027924E-1,-1.6008715E-1,1.8569751E-1,-1.857603E-1,2.4936447E-1,1.16277866E-1,7.768277E-3,2.0562877E-1,-1.750018E-1,3.5290862E-3],"split_indices":[1712,90,0,4317,0,1011,0,410,0,1886,2871,0,0,0,0],"split_type":[0,0,0,0,0,0,0,0,0,0,0,0,0,0,0],"sum_hessian":[1.734917E2,1.7086781E2,2.6238873E0,1.6895477E2,1.9130384E0,1.6700066E2,1.95411E0,1.6579646E2,1.2042024E0,1.6248778E2,3.308672E0,1.6073975E2,1.7480311E0,2.2266445E0,1.0820276E0],"tree_param":{"num_deleted":"0","num_feature":"5000","num_nodes":"15","size_leaf_vector":"1"}},{"base_weights":[2.8773516E-3,-8.629496E-3,4.568818E-1,1.3750016E-3,-2.127173E-1,1.8524916E-1,3.8524784E-2,-8.477255E-3,2.483052E-1,-1.7432524E-2,1.8978924E-1,-2.7039964E-2,1.88373E-1,-1.1781512E-2,1.3374536E-1],"categories":[],"categories_nodes":[],"categories_segments":[],"categories_sizes":[],"default_left":[0,0,0,0,0,0,0,0,0,0,0,0,0,0,0],"id":51,"left_children":[1,3,5,7,-1,-1,-1,9,-1,11,-1,13,-1,-1,-1],"loss_changes":[9.1542715E-1,1.2002515E0,1.492104E-1,1.388802E0,0E0,0E0,0E0,9.79708E-1,0E0,1.0546898E0,0E0,9.7690177E-1,0E0,0E0,0E0],"parents":[2147483647,0,0,1,1,2,2,3,3,7,7,9,9,11,11],"right_children":[2,4,6,8,-1,-1,-1,10,-1,12,-1,14,-1,-1,-1],"split_conditions":[2.2385727E-1,2.5416464E-1,2.6541862E-1,2.1102941E-1,-2.127173E-1,1.8524916E-1,3.8524784E-2,2.6069123E-1,2.483052E-1,2.866347E-1,1.8978924E-1,2.2291388E-1,1.88373E-1,-1.1781512E-2,1.3374536E-1],"split_indices":[4494,4555,4494,4555,0,0,0,4481,0,2481,0,1476,0,0,0],"split_type":[0,0,0,0,0,0,0,0,0,0,0,0,0,0,0],"sum_hessian":[1.7347485E2,1.7014352E2,3.3313346E0,1.687315E2,1.4120233E0,1.6463487E0,1.6849858E0,1.6772147E2,1.0100377E0,1.6637035E2,1.3511229E0,1.648739E2,1.4964359E0,1.6161037E2,3.263539E0],"tree_param":{"num_deleted":"0","num_feature":"5000","num_nodes":"15","size_leaf_vector":"1"}},{"base_weights":[6.0680774E-3,-1.8804574E-3,1.8831176E-1,9.781167E-3,-4.817506E-1,6.297276E-4,2.0371626E-1,-1.8430346E-1,-2.3197284E-2,2.3996012E-2,-5.3926015E-1,4.128059E-3,2.588759E-1,-2.1213594E-1,5.640586E-2,6.3576857E-3,-1.4773482E-1],"categories":[],"categories_nodes":[],"categories_segments":[],"categories_sizes":[],"default_left":[0,0,0,0,0,0,0,0,0,0,0,0,0,0,0,0,0],"id":52,"left_children":[1,3,-1,5,7,9,-1,-1,-1,11,13,15,-1,-1,-1,-1,-1],"loss_changes":[8.5952526E-1,9.7013915E-1,0E0,1.037152E0,1.7304993E-1,2.1338332E0,0E0,0E0,0E0,2.69835E0,9.895954E-1,1.3608006E0,0E0,0E0,0E0,0E0,0E0],"parents":[2147483647,0,0,1,1,3,3,4,4,5,5,9,9,10,10,11,11],"right_children":[2,4,-1,6,8,10,-1,-1,-1,12,14,16,-1,-1,-1,-1,-1],"split_conditions":[3.18298E-1,2.1540922E-1,1.8831176E-1,2.6676777E-1,1.16277866E-1,1.9586743E-1,2.0371626E-1,-1.8430346E-1,-2.3197284E-2,1.7776091E-1,2.203944E-1,1.6969012E-1,2.588759E-1,-2.1213594E-1,5.640586E-2,6.3576857E-3,-1.4773482E-1],"split_indices":[491,274,0,4136,2871,3585,0,0,0,3585,2871,4731,0,0,0,0,0],"split_type":[0,0,0,0,0,0,0,0,0,0,0,0,0,0,0,0,0],"sum_hessian":[1.7271504E2,1.715189E2,1.1961416E0,1.6840598E2,3.1129217E0,1.6712175E2,1.2842319E0,1.9534243E0,1.1594974E0,1.6110474E2,6.017014E0,1.5835928E2,2.7454503E0,4.9112043E0,1.1058099E0,1.5402379E2,4.3355E0],"tree_param":{"num_deleted":"0","num_feature":"5000","num_nodes":"17","size_leaf_vector":"1"}},{"base_weights":[4.479149E-3,1.2778038E-2,-1.7439067E-1,4.431829E-3,2.1511148E-1,-7.893138E-3,4.5581663E-1,-2.3631707E-2,3.4202716E-1,2.1565996E-1,1.7703642E-1,-1.0639183E-2,-1.8589987E-1,1.593101E-1,1.18045926E-1,-5.551219E-2,1.492785E-1,-6.741128E-3,1.627762E-1,-4.5640014E-2,1.4942735E-1],"categories":[],"categories_nodes":[],"categories_segments":[],"categories_sizes":[],"default_left":[0,0,0,0,0,0,0,0,0,0,0,0,0,0,0,0,0,0,0,0,0],"id":53,"left_children":[1,3,-1,5,-1,7,9,11,13,-1,15,17,-1,-1,19,-1,-1,-1,-1,-1,-1],"loss_changes":[8.489433E-1,1.0058472E0,0E0,9.5302963E-1,0E0,9.2838055E-1,2.0661986E-1,1.2390252E0,2.4453849E-1,0E0,5.026208E-1,1.0492097E0,0E0,0E0,5.48838E-1,0E0,0E0,0E0,0E0,0E0,0E0],"parents":[2147483647,0,0,1,1,3,3,5,5,6,6,7,7,8,8,10,10,11,11,14,14],"right_children":[2,4,-1,6,-1,8,10,12,14,-1,16,18,-1,-1,20,-1,-1,-1,-1,-1,-1],"split_conditions":[2.542907E-1,2.43907E-1,-1.7439067E-1,3.0589232E-1,2.1511148E-1,2.0531891E-1,3.568928E-1,1.8515371E-1,3.4095368E-1,2.1565996E-1,5.360228E-1,2.3713869E-1,-1.8589987E-1,1.593101E-1,4.8369953E-1,-5.551219E-2,1.492785E-1,-6.741128E-3,1.627762E-1,-4.5640014E-2,1.4942735E-1],"split_indices":[4207,4766,0,1863,0,1866,1863,150,1866,0,1863,162,0,0,1866,0,0,0,0,0,0],"split_type":[0,0,0,0,0,0,0,0,0,0,0,0,0,0,0,0,0,0,0,0,0],"sum_hessian":[1.7210376E2,1.7066411E2,1.4396483E0,1.6965976E2,1.0043503E0,1.6610677E2,3.5529964E0,1.5984958E2,6.257182E0,1.0158513E0,2.5371454E0,1.5743561E2,2.4139745E0,2.6500523E0,3.6071298E0,1.3899386E0,1.1472067E0,1.5507849E2,2.3571088E0,2.458819E0,1.1483109E0],"tree_param":{"num_deleted":"0","num_feature":"5000","num_nodes":"21","size_leaf_vector":"1"}},{"base_weights":[6.1552445E-3,1.4225671E-2,-1.7710866E-1,2.1920605E-2,-1.8008533E-1,3.1266056E-2,-1.4983308E-1,2.1983292E-2,2.1117198E-1,7.7013355E-3,4.5935965E-1,-7.1782025E-4,2.0853968E-1,2.2534628E-1,2.7917894E-2],"categories":[],"categories_nodes":[],"categories_segments":[],"categories_sizes":[],"default_left":[0,0,0,0,0,0,0,0,0,0,0,0,0,0,0],"id":54,"left_children":[1,3,-1,5,-1,7,-1,9,-1,11,13,-1,-1,-1,-1],"loss_changes":[8.388327E-1,8.2256716E-1,0E0,8.440198E-1,0E0,1.033308E0,0E0,1.0378516E0,0E0,1.1289595E0,4.917339E-1,0E0,0E0,0E0,0E0],"parents":[2147483647,0,0,1,1,3,3,5,5,7,7,9,9,10,10],"right_children":[2,4,-1,6,-1,8,-1,10,-1,12,14,-1,-1,-1,-1],"split_conditions":[1.6795775E-1,2.0222099E-1,-1.7710866E-1,2.4703445E-1,-1.8008533E-1,3.0682775E-1,-1.4983308E-1,2.0728534E-1,2.1117198E-1,3.2855132E-1,2.3313598E-1,-7.1782025E-4,2.0853968E-1,2.2534628E-1,2.7917894E-2],"split_indices":[4646,2175,0,1045,0,1497,0,3850,0,1869,3850,0,0,0,0],"split_type":[0,0,0,0,0,0,0,0,0,0,0,0,0,0,0],"sum_hessian":[1.7149863E2,1.7017247E2,1.326152E0,1.6902032E2,1.1521546E0,1.6696747E2,2.0528605E0,1.6571323E2,1.2542397E0,1.614586E2,4.2546134E0,1.601042E2,1.354412E0,1.7833465E0,2.4712667E0],"tree_param":{"num_deleted":"0","num_feature":"5000","num_nodes":"15","size_leaf_vector":"1"}},{"base_weights":[4.894209E-3,-2.7523618E-3,1.8273696E-1,9.457452E-3,-1.4049914E-1,8.1574626E-4,1.7820646E-1,1.0328263E-2,-1.9725959E-1,1.510725E-3,2.1172582E-1,-3.3791566E-3,1.5381661E-1],"categories":[],"categories_nodes":[],"categories_segments":[],"categories_sizes":[],"default_left":[0,0,0,0,0,0,0,0,0,0,0,0,0],"id":55,"left_children":[1,3,-1,5,-1,7,-1,9,-1,11,-1,-1,-1],"loss_changes":[7.973477E-1,9.7681856E-1,0E0,8.4649724E-1,0E0,1.0477754E0,0E0,1.0097266E0,0E0,1.0753361E0,0E0,0E0,0E0],"parents":[2147483647,0,0,1,1,3,3,5,5,7,7,9,9],"right_children":[2,4,-1,6,-1,8,-1,10,-1,12,-1,-1,-1],"split_conditions":[2.7884504E-1,9.4085656E-2,1.8273696E-1,2.2861801E-1,-1.4049914E-1,2.4302922E-1,1.7820646E-1,2.7970913E-1,-1.9725959E-1,3.1018445E-1,2.1172582E-1,-3.3791566E-3,1.5381661E-1],"split_indices":[3290,465,0,4709,0,4286,0,2220,0,1474,0,0,0],"split_type":[0,0,0,0,0,0,0,0,0,0,0,0,0],"sum_hessian":[1.7121277E2,1.7005614E2,1.1566306E0,1.6666502E2,3.3911142E0,1.6522389E2,1.4411362E0,1.6384085E2,1.3830374E0,1.6277908E2,1.0617626E0,1.5976472E2,3.0143697E0],"tree_param":{"num_deleted":"0","num_feature":"5000","num_nodes":"13","size_leaf_vector":"1"}},{"base_weights":[5.2531897E-3,-2.2759798E-3,1.8660462E-1,6.2409244E-3,-2.0044893E-1,-6.9973404E-3,6.217305E-1,-1.7359784E-2,2.4609137E-1,2.4018255E-1,5.1546004E-2,-2.64428E-2,2.2112414E-1,-1.0727869E-2,1.9625153E-1],"categories":[],"categories_nodes":[],"categories_segments":[],"categories_sizes":[],"default_left":[0,0,0,0,0,0,0,0,0,0,0,0,0,0,0],"id":56,"left_children":[1,3,-1,5,-1,7,9,11,-1,-1,-1,13,-1,-1,-1],"loss_changes":[7.9916394E-1,9.7234964E-1,0E0,1.3858508E0,0E0,1.4456475E0,1.506449E-1,1.1562207E0,0E0,0E0,0E0,1.068887E0,0E0,0E0,0E0],"parents":[2147483647,0,0,1,1,3,3,5,5,6,6,7,7,11,11],"right_children":[2,4,-1,6,-1,8,10,12,-1,-1,-1,14,-1,-1,-1],"split_conditions":[2.609187E-1,2.9694143E-1,1.8660462E-1,1.9226016E-1,-2.0044893E-1,2.8439876E-1,2.5100327E-1,2.9061514E-1,2.4609137E-1,2.4018255E-1,5.1546004E-2,2.554946E-1,2.2112414E-1,-1.0727869E-2,1.9625153E-1],"split_indices":[2520,1473,0,1473,0,3721,1473,4464,0,0,0,3850,0,0,0],"split_type":[0,0,0,0,0,0,0,0,0,0,0,0,0,0,0],"sum_hessian":[1.7079128E2,1.6971576E2,1.0755079E0,1.6855057E2,1.165187E0,1.6596945E2,2.5811245E0,1.6488321E2,1.0862429E0,1.2891093E0,1.2920151E0,1.638752E2,1.0080105E0,1.6259691E2,1.278289E0],"tree_param":{"num_deleted":"0","num_feature":"5000","num_nodes":"15","size_leaf_vector":"1"}},{"base_weights":[8.8815745E-3,1.664175E-2,-1.7399658E-1,4.4944226E-3,4.554097E-1,-5.917449E-3,1.7412199E-1,3.267451E-1,-8.139824E-2,-2.1556953E-2,4.5858014E-1,-3.1170506E-2,2.2396573E-1,2.8467745E-1,8.37036E-2,-1.2382629E-2,1.9065121E-1,-9.200002E-2,1.13285474E-1],"categories":[],"categories_nodes":[],"categories_segments":[],"categories_sizes":[],"default_left":[0,0,0,0,0,0,0,0,0,0,0,0,0,0,0,0,0,0,0],"id":57,"left_children":[1,3,-1,5,7,9,-1,-1,-1,11,13,15,-1,-1,17,-1,-1,-1,-1],"loss_changes":[7.9185236E-1,9.035786E-1,0E0,1.0009115E0,2.3991053E0,1.2040551E0,0E0,0E0,0E0,1.2046382E0,9.1307795E-1,1.0971425E0,0E0,0E0,5.9272623E-1,0E0,0E0,0E0,0E0],"parents":[2147483647,0,0,1,1,3,3,4,4,5,5,9,9,10,10,11,11,14,14],"right_children":[2,4,-1,6,8,10,-1,-1,-1,12,14,16,-1,-1,18,-1,-1,-1,-1],"split_conditions":[2.570441E-1,2.246924E-1,-1.7399658E-1,2.2388229E-1,1.6412595E-1,2.3718743E-1,1.7412199E-1,3.267451E-1,-8.139824E-2,2.4633665E-1,2.5341362E-1,2.790762E-1,2.2396573E-1,2.8467745E-1,2.7571988E-1,-1.2382629E-2,1.9065121E-1,-9.200002E-2,1.13285474E-1],"split_indices":[4554,1465,0,994,2871,2874,0,0,0,219,2874,1639,0,0,2874,0,0,0,0],"split_type":[0,0,0,0,0,0,0,0,0,0,0,0,0,0,0,0,0,0,0],"sum_hessian":[1.7016974E2,1.689155E2,1.2542412E0,1.6534807E2,3.5674312E0,1.6338399E2,1.9640812E0,1.6392562E0,1.9281749E0,1.589846E2,4.399377E0,1.5796693E2,1.0176736E0,1.2426591E0,3.1567178E0,1.5653242E2,1.4345069E0,1.3372403E0,1.8194774E0],"tree_param":{"num_deleted":"0","num_feature":"5000","num_nodes":"19","size_leaf_vector":"1"}},{"base_weights":[1.131518E-2,2.3859525E-3,1.5867837E-1,1.2308818E-2,-2.4746703E-1,7.9176103E-4,2.6415214E-1,-1.17685925E-2,5.8276373E-1,2.592858E-4,-5.16111E-1,2.4763516E-1,3.7616357E-2,-7.475479E-3,1.0220787E-1,-2.1701594E-1,1.2316646E-3],"categories":[],"categories_nodes":[],"categories_segments":[],"categories_sizes":[],"default_left":[0,0,0,0,0,0,0,0,0,0,0,0,0,0,0,0,0],"id":58,"left_children":[1,3,-1,5,-1,7,-1,9,11,13,15,-1,-1,-1,-1,-1,-1],"loss_changes":[7.87548E-1,1.3956506E0,0E0,1.6767874E0,0E0,1.224435E0,0E0,9.9516463E-1,2.8930104E-1,1.390251E0,4.1500926E-1,0E0,0E0,0E0,0E0,0E0,0E0],"parents":[2147483647,0,0,1,1,3,3,5,5,7,7,8,8,9,9,10,10],"right_children":[2,4,-1,6,-1,8,-1,10,12,14,16,-1,-1,-1,-1,-1,-1],"split_conditions":[3.9619625E-1,2.934132E-1,1.5867837E-1,2.5167385E-1,-2.4746703E-1,1.8503955E-1,2.6415214E-1,1.8569751E-1,2.667138E-1,1.7848784E-1,1.16277866E-1,2.4763516E-1,3.7616357E-2,-7.475479E-3,1.0220787E-1,-2.1701594E-1,1.2316646E-3],"split_indices":[2873,1368,0,1368,0,2541,0,410,2541,1863,2871,0,0,0,0,0,0],"split_type":[0,0,0,0,0,0,0,0,0,0,0,0,0,0,0,0,0],"sum_hessian":[1.6966858E2,1.6777887E2,1.8897085E0,1.6676372E2,1.0151471E0,1.655683E2,1.1954291E0,1.630295E2,2.5387902E0,1.6020824E2,2.821262E0,1.1329085E0,1.4058819E0,1.5003859E2,1.0169644E1,1.73816E0,1.0831019E0],"tree_param":{"num_deleted":"0","num_feature":"5000","num_nodes":"17","size_leaf_vector":"1"}},{"base_weights":[9.575975E-3,1.7259121E-2,-1.7447229E-1,6.9141416E-3,2.5885147E-1,1.799278E-2,-4.8330146E-1,4.841382E-3,1.8593471E-1,-1.9318473E-1,-4.852942E-2,1.4530109E-2,-2.1003728E-1,6.9913233E-4,2.713224E-1],"categories":[],"categories_nodes":[],"categories_segments":[],"categories_sizes":[],"default_left":[0,0,0,0,0,0,0,0,0,0,0,0,0,0,0],"id":59,"left_children":[1,3,-1,5,-1,7,9,11,-1,-1,-1,13,-1,-1,-1],"loss_changes":[7.815607E-1,1.4693867E0,0E0,9.190788E-1,0E0,1.3019928E0,8.904481E-2,1.119199E0,0E0,0E0,0E0,1.747359E0,0E0,0E0,0E0],"parents":[2147483647,0,0,1,1,3,3,5,5,6,6,7,7,11,11],"right_children":[2,4,-1,6,-1,8,10,12,-1,-1,-1,14,-1,-1,-1],"split_conditions":[2.2456768E-1,2.9155013E-1,-1.7447229E-1,2.2276708E-1,2.5885147E-1,2.7433074E-1,2.743019E-1,2.0888317E-1,1.8593471E-1,-1.9318473E-1,-4.852942E-2,2.7831766E-1,-2.1003728E-1,6.9913233E-4,2.713224E-1],"split_indices":[1493,4820,0,4553,0,491,4553,3538,0,0,0,1244,0,0,0],"split_type":[0,0,0,0,0,0,0,0,0,0,0,0,0,0,0],"sum_hessian":[1.688682E2,1.6765994E2,1.2082624E0,1.6662953E2,1.0304015E0,1.6388902E2,2.7405174E0,1.613705E2,2.5185163E0,1.1588194E0,1.581698E0,1.6014888E2,1.2216246E0,1.5897209E2,1.1767889E0],"tree_param":{"num_deleted":"0","num_feature":"5000","num_nodes":"15","size_leaf_vector":"1"}},{"base_weights":[6.9993166E-3,-2.735824E-3,4.8193276E-1,-1.1125335E-2,1.8143332E-1,2.2825262E-1,1.4543671E-2,-1.3410948E-3,-1.829519E-1,7.276199E-3,-1.74422E-1,-2.107397E-3,1.74405E-1,-5.0279056E-3,1.7885056E-1],"categories":[],"categories_nodes":[],"categories_segments":[],"categories_sizes":[],"default_left":[0,0,0,0,0,0,0,0,0,0,0,0,0,0,0],"id":60,"left_children":[1,3,5,7,-1,-1,-1,9,-1,11,-1,13,-1,-1,-1],"loss_changes":[7.8563476E-1,8.5901713E-1,3.7572372E-1,9.711733E-1,0E0,0E0,0E0,8.25303E-1,0E0,8.7844455E-1,0E0,1.4232746E0,0E0,0E0,0E0],"parents":[2147483647,0,0,1,1,2,2,3,3,7,7,9,9,11,11],"right_children":[2,4,6,8,-1,-1,-1,10,-1,12,-1,14,-1,-1,-1],"split_conditions":[2.1744134E-1,2.8544813E-1,2.4584556E-1,2.0743388E-1,1.8143332E-1,2.2825262E-1,1.4543671E-2,3.493712E-1,-1.829519E-1,2.7931735E-1,-1.74422E-1,2.246924E-1,1.74405E-1,-5.0279056E-3,1.7885056E-1],"split_indices":[2881,4119,2881,449,0,0,0,993,0,993,0,1465,0,0,0],"split_type":[0,0,0,0,0,0,0,0,0,0,0,0,0,0,0],"sum_hessian":[1.6863528E2,1.6622232E2,2.4129698E0,1.6492644E2,1.2958789E0,1.008647E0,1.4043227E0,1.6326067E2,1.6657797E0,1.6184381E2,1.4168508E0,1.6022122E2,1.6225874E0,1.5733983E2,2.8813996E0],"tree_param":{"num_deleted":"0","num_feature":"5000","num_nodes":"15","size_leaf_vector":"1"}},{"base_weights":[6.967664E-3,-7.228359E-4,1.8439975E-1,1.0016654E-2,-5.315345E-1,1.8263735E-2,-1.9980145E-1,-2.277012E-1,-1.5266011E-3,7.559752E-3,1.932578E-1,1.9357782E-2,-2.0001055E-1,1.9235009E-3,1.610793E-1],"categories":[],"categories_nodes":[],"categories_segments":[],"categories_sizes":[],"default_left":[0,0,0,0,0,0,0,0,0,0,0,0,0,0,0],"id":61,"left_children":[1,3,-1,5,7,9,-1,-1,-1,11,-1,13,-1,-1,-1],