{"learner":{"attributes":{},"feature_names":[],"feature_types":[],"gradient_booster":{"model":{"gbtree_model_param":{"num_parallel_tree":"1","num_trees":"100"},"iteration_indptr":[0,1,2,3,4,5,6,7,8,9,10,11,12,13,14,15,16,17,18,19,20,21,22,23,24,25,26,27,28,29,30,31,32,33,34,35,36,37,38,39,40,41,42,43,44,45,46,47,48,49,50,51,52,53,54,55,56,57,58,59,60,61,62,63,64,65,66,67,68,69,70,71,72,73,74,75,76,77,78,79,80,81,82,83,84,85,86,87,88,89,90,91,92,93,94,95,96,97,98,99,100],"tree_info":[0,0,0,0,0,0,0,0,0,0,0,0,0,0,0,0,0,0,0,0,0,0,0,0,0,0,0,0,0,0,0,0,0,0,0,0,0,0,0,0,0,0,0,0,0,0,0,0,0,0,0,0,0,0,0,0,0,0,0,0,0,0,0,0,0,0,0,0,0,0,0,0,0,0,0,0,0,0,0,0,0,0,0,0,0,0,0,0,0,0,0,0,0,0,0,0,0,0,0,0],"trees":[{"base_weights":[-1.1146817E0,-1.1194E0,1.16632365E-1,-1.124139E0,9.427533E-2,-1.126507E0,-2.9253751E-2,-1.1288872E0,-2.9253751E-2,-1.1312795E0,-2.9253751E-2,-3.4010518E-1,-2.9253751E-2],"categories":[],"categories_nodes":[],"categories_segments":[],"categories_sizes":[],"default_left":[0,0,0,0,0,0,0,0,0,0,0,0,0],"id":0,"left_children":[1,3,-1,5,-1,7,-1,9,-1,11,-1,-1,-1],"loss_changes":[3.415039E0,3.2001343E0,0E0,9.059448E-1,0E0,9.1070557E-1,0E0,9.154053E-1,0E0,9.2022705E-1,0E0,0E0,0E0],"parents":[2147483647,0,0,1,1,3,3,5,5,7,7,9,9],"right_children":[2,4,-1,6,-1,8,-1,10,-1,12,-1,-1,-1],"split_conditions":[3.360975E-1,2.920455E-1,1.16632365E-1,2.4250343E-1,9.427533E-2,4.6961695E-1,-2.9253751E-2,3.0572575E-1,-2.9253751E-2,2.6387182E-1,-2.9253751E-2,-3.4010518E-1,-2.9253751E-2],"split_indices":[1814,4312,0,1044,0,1863,0,3063,0,4612,0,0,0],"split_type":[0,0,0,0,0,0,0,0,0,0,0,0,0],"sum_hessian":[4.1907336E2,4.1801697E2,1.0563986E0,4.1685492E2,1.1620386E0,4.1579852E2,1.0563986E0,4.1474213E2,1.0563986E0,4.1368573E2,1.0563986E0,4.1262933E2,1.0563986E0],"tree_param":{"num_deleted":"0","num_feature":"5000","num_nodes":"13","size_leaf_vector":"1"}},{"base_weights":[-1.0697597E0,-1.0757711E0,1.2636128E-1,-1.0817252E0,7.5547814E-2,-1.0846925E0,-2.5079587E-2,-1.0876789E0,-2.5079587E-2,-1.0906849E0,-2.5079587E-2,-3.2811314E-1,-2.5079587E-2],"categories":[],"categories_nodes":[],"categories_segments":[],"categories_sizes":[],"default_left":[0,0,0,0,0,0,0,0,0,0,0,0,0],"id":1,"left_children":[1,3,-1,5,-1,7,-1,9,-1,11,-1,-1,-1],"loss_changes":[3.3448486E0,2.8146973E0,0E0,8.581848E-1,0E0,8.6380005E-1,0E0,8.6953735E-1,0E0,8.753052E-1,0E0,0E0,0E0],"parents":[2147483647,0,0,1,1,3,3,5,5,7,7,9,9],"right_children":[2,4,-1,6,-1,8,-1,10,-1,12,-1,-1,-1],"split_conditions":[3.1083393E-1,2.920455E-1,1.2636128E-1,2.4250343E-1,7.5547814E-2,4.6961695E-1,-2.5079587E-2,3.0572575E-1,-2.5079587E-2,2.6387182E-1,-2.5079587E-2,-3.2811314E-1,-2.5079587E-2],"split_indices":[1985,4312,0,1044,0,1863,0,3063,0,4612,0,0,0],"split_type":[0,0,0,0,0,0,0,0,0,0,0,0,0],"sum_hessian":[3.2163336E2,3.206191E2,1.01424E0,3.1937198E2,1.2471409E0,3.183389E2,1.0330815E0,3.1730582E2,1.0330815E0,3.1627274E2,1.0330815E0,3.1523965E2,1.0330815E0],"tree_param":{"num_deleted":"0","num_feature":"5000","num_nodes":"13","size_leaf_vector":"1"}},{"base_weights":[-1.0350068E0,-1.0426271E0,1.012733E-1,-1.0501871E0,6.0702745E-2,-1.053976E0,-2.1501588E-2,-1.0577968E0,-2.1501588E-2,-1.0616498E0,-2.1501588E-2,-3.196606E-1,-2.1501588E-2],"categories":[],"categories_nodes":[],"categories_segments":[],"categories_sizes":[],"default_left":[0,0,0,0,0,0,0,0,0,0,0,0,0],"id":2,"left_children":[1,3,-1,5,-1,7,-1,9,-1,11,-1,-1,-1],"loss_changes":[2.9274597E0,2.5194702E0,0E0,8.2839966E-1,0E0,8.354187E-1,0E0,8.424988E-1,0E0,8.4973145E-1,0E0,0E0,0E0],"parents":[2147483647,0,0,1,1,3,3,5,5,7,7,9,9],"right_children":[2,4,-1,6,-1,8,-1,10,-1,12,-1,-1,-1],"split_conditions":[3.1083393E-1,2.920455E-1,1.012733E-1,2.4250343E-1,6.0702745E-2,4.6961695E-1,-2.1501588E-2,3.0572575E-1,-2.1501588E-2,2.6387182E-1,-2.1501588E-2,-3.196606E-1,-2.1501588E-2],"split_indices":[1985,4312,0,1044,0,1863,0,3063,0,4612,0,0,0],"split_type":[0,0,0,0,0,0,0,0,0,0,0,0,0],"sum_hessian":[2.452307E2,2.4411578E2,1.1149118E0,2.4279788E2,1.317905E0,2.4178452E2,1.0133588E0,2.4077116E2,1.0133588E0,2.397578E2,1.0133588E0,2.3874445E2,1.0133588E0],"tree_param":{"num_deleted":"0","num_feature":"5000","num_nodes":"13","size_leaf_vector":"1"}},{"base_weights":[-1.0057997E0,-1.0161433E0,1.3450736E-1,-1.0257976E0,4.8888262E-2,-1.0310394E0,-3.1174256E-2,-1.0359855E0,-2.5120053E-2,-1.0413532E0,-3.710452E-2,-3.1386602E-1,-3.1648174E-2],"categories":[],"categories_nodes":[],"categories_segments":[],"categories_sizes":[],"default_left":[0,0,0,0,0,0,0,0,0,0,0,0,0],"id":3,"left_children":[1,3,-1,5,-1,7,-1,9,-1,11,-1,-1,-1],"loss_changes":[3.2737885E0,2.2884216E0,0E0,7.867279E-1,0E0,7.7449036E-1,0E0,7.662201E-1,0E0,7.1661377E-1,0E0,0E0,0E0],"parents":[2147483647,0,0,1,1,3,3,5,5,7,7,9,9],"right_children":[2,4,-1,6,-1,8,-1,10,-1,12,-1,-1,-1],"split_conditions":[2.296297E-1,2.920455E-1,1.3450736E-1,3.077666E-1,4.8888262E-2,4.446062E-1,-3.1174256E-2,2.3934142E-1,-2.5120053E-2,3.09459E-1,-3.710452E-2,-3.1386602E-1,-3.1648174E-2],"split_indices":[836,4312,0,3250,0,1863,0,254,0,1814,0,0,0],"split_type":[0,0,0,0,0,0,0,0,0,0,0,0,0],"sum_hessian":[1.8636423E2,1.8534705E2,1.0171828E0,1.8397073E2,1.376303E0,1.8281287E2,1.1578695E0,1.817702E2,1.0426576E0,1.8056633E2,1.2038784E0,1.7951486E2,1.0514674E0],"tree_param":{"num_deleted":"0","num_feature":"5000","num_nodes":"13","size_leaf_vector":"1"}},{"base_weights":[-9.781931E-1,-9.914475E-1,1.06423765E-1,-1.0038055E0,3.945007E-2,-1.01042E0,-1.2770516E-2,-1.0168523E0,-2.1525074E-2,-1.0238336E0,-3.1688813E-2,-3.0907533E-1,-2.7266648E-2],"categories":[],"categories_nodes":[],"categories_segments":[],"categories_sizes":[],"default_left":[0,0,0,0,0,0,0,0,0,0,0,0,0],"id":4,"left_children":[1,3,-1,5,-1,7,-1,9,-1,11,-1,-1,-1],"loss_changes":[2.8715515E0,2.0954285E0,0E0,8.475189E-1,0E0,7.666321E-1,0E0,7.69989E-1,0E0,7.258301E-1,0E0,0E0,0E0],"parents":[2147483647,0,0,1,1,3,3,5,5,7,7,9,9],"right_children":[2,4,-1,6,-1,8,-1,10,-1,12,-1,-1,-1],"split_conditions":[2.296297E-1,2.920455E-1,1.06423765E-1,2.4977717E-1,3.945007E-2,4.446062E-1,-1.2770516E-2,2.3934142E-1,-2.1525074E-2,2.9181644E-1,-3.1688813E-2,-3.0907533E-1,-2.7266648E-2],"split_indices":[836,4312,0,3063,0,1863,0,254,0,1985,0,0,0],"split_type":[0,0,0,0,0,0,0,0,0,0,0,0,0],"sum_hessian":[1.4162549E2,1.4048473E2,1.1407497E0,1.3906047E2,1.4242581E0,1.3805928E2,1.0011878E0,1.3703696E2,1.0223366E0,1.3587238E2,1.1645751E0,1.3484056E2,1.0318111E0],"tree_param":{"num_deleted":"0","num_feature":"5000","num_nodes":"13","size_leaf_vector":"1"}},{"base_weights":[-9.50462E-1,-9.6699184E-1,1.22144856E-1,-9.846625E-1,6.0725197E-2,-1.0023205E0,-1.8804343E-1,-1.0116464E0,-1.0303523E-2,1.16315365E-1,-1.8368937E-1,-3.0631286E-1,-1.4916475E-2],"categories":[],"categories_nodes":[],"categories_segments":[],"categories_sizes":[],"default_left":[0,0,0,0,0,0,0,0,0,0,0,0,0],"id":5,"left_children":[1,3,-1,5,-1,7,9,11,-1,-1,-1,-1,-1],"loss_changes":[2.8350372E0,2.4263992E0,0E0,1.3073959E0,0E0,9.023285E-1,1.1013829E0,8.78212E-1,0E0,0E0,0E0,0E0,0E0],"parents":[2147483647,0,0,1,1,3,3,5,5,6,6,7,7],"right_children":[2,4,-1,6,-1,8,10,12,-1,-1,-1,-1,-1],"split_conditions":[3.360975E-1,3.2047993E-1,1.22144856E-1,1.8614867E-1,6.0725197E-2,2.7804348E-1,2.3732363E-1,2.3934142E-1,-1.0303523E-2,1.16315365E-1,-1.8368937E-1,-3.0631286E-1,-1.4916475E-2],"split_indices":[1814,2871,0,3495,0,3250,3495,254,0,0,0,0,0],"split_type":[0,0,0,0,0,0,0,0,0,0,0,0,0],"sum_hessian":[1.0778775E2,1.0677541E2,1.0123384E0,1.05341606E2,1.4338033E0,1.02804596E2,2.537014E0,1.0177889E2,1.0256978E0,1.1128584E0,1.4241555E0,1.00733444E2,1.0454514E0],"tree_param":{"num_deleted":"0","num_feature":"5000","num_nodes":"13","size_leaf_vector":"1"}},{"base_weights":[-9.1913754E-1,-9.4110954E-1,1.263732E-1,-9.6245325E-1,7.3714815E-2,-9.7391665E-1,-9.059319E-3,-9.8523843E-1,-1.1878701E-2,-9.970842E-1,-2.574327E-2,-3.0237198E-1,-2.6082026E-2],"categories":[],"categories_nodes":[],"categories_segments":[],"categories_sizes":[],"default_left":[0,0,0,0,0,0,0,0,0,0,0,0,0],"id":6,"left_children":[1,3,-1,5,-1,7,-1,9,-1,11,-1,-1,-1],"loss_changes":[2.8539581E0,2.3239899E0,0E0,8.378906E-1,0E0,8.0870056E-1,0E0,7.5759125E-1,0E0,6.8079376E-1,0E0,0E0,0E0],"parents":[2147483647,0,0,1,1,3,3,5,5,7,7,9,9],"right_children":[2,4,-1,6,-1,8,-1,10,-1,12,-1,-1,-1],"split_conditions":[2.296297E-1,2.920455E-1,1.263732E-1,2.7821195E-1,7.3714815E-2,3.1346178E-1,-9.059319E-3,2.3934142E-1,-1.1878701E-2,2.9986823E-1,-2.574327E-2,-3.0237198E-1,-2.6082026E-2],"split_indices":[836,4312,0,3250,0,1863,0,254,0,1814,0,0,0],"split_type":[0,0,0,0,0,0,0,0,0,0,0,0,0],"sum_hessian":[8.24448E1,8.140821E1,1.0365915E0,8.0155754E1,1.2524557E0,7.913795E1,1.0178037E0,7.813662E1,1.0013304E0,7.701375E1,1.1228712E0,7.60026E1,1.01115E0],"tree_param":{"num_deleted":"0","num_feature":"5000","num_nodes":"13","size_leaf_vector":"1"}},{"base_weights":[-8.845525E-1,-9.128955E-1,9.424868E-2,-9.4144744E-1,1.00474484E-1,-9.562003E-1,-6.5054693E-3,-9.712745E-1,-8.959281E-3,-9.8656815E-1,-2.2025002E-2,-3.0029717E-1,-2.3939455E-2],"categories":[],"categories_nodes":[],"categories_segments":[],"categories_sizes":[],"default_left":[0,0,0,0,0,0,0,0,0,0,0,0,0],"id":7,"left_children":[1,3,-1,5,-1,7,-1,9,-1,11,-1,-1,-1],"loss_changes":[2.472866E0,2.5638542E0,0E0,8.200531E-1,0E0,8.222542E-1,0E0,7.508278E-1,0E0,6.900101E-1,0E0,0E0,0E0],"parents":[2147483647,0,0,1,1,3,3,5,5,7,7,9,9],"right_children":[2,4,-1,6,-1,8,-1,10,-1,12,-1,-1,-1],"split_conditions":[3.2047993E-1,2.296297E-1,9.424868E-2,2.7804348E-1,1.00474484E-1,2.3934142E-1,-6.5054693E-3,2.3722672E-1,-8.959281E-3,2.6757467E-1,-2.2025002E-2,-3.0029717E-1,-2.3939455E-2],"split_indices":[2871,836,0,3250,0,254,0,3495,0,1985,0,0,0],"split_type":[0,0,0,0,0,0,0,0,0,0,0,0,0],"sum_hessian":[6.334305E1,6.2112858E1,1.2301922E0,6.0963436E1,1.1494206E0,5.9962036E1,1.0014007E0,5.8954166E1,1.0078678E0,5.786964E1,1.0845262E0,5.6861343E1,1.0082967E0],"tree_param":{"num_deleted":"0","num_feature":"5000","num_nodes":"13","size_leaf_vector":"1"}},{"base_weights":[-8.4307766E-1,-8.7625545E-1,1.1017052E-1,-9.115112E-1,9.710745E-2,-9.3047434E-1,-4.387327E-3,-9.4980204E-1,-7.186259E-3,-9.70042E-1,-8.304801E-3,-2.9703158E-1,-2.0832079E-2],"categories":[],"categories_nodes":[],"categories_segments":[],"categories_sizes":[],"default_left":[0,0,0,0,0,0,0,0,0,0,0,0,0],"id":8,"left_children":[1,3,-1,5,-1,7,-1,9,-1,11,-1,-1,-1],"loss_changes":[2.3352776E0,2.3722115E0,0E0,8.020973E-1,0E0,7.9987717E-1,0E0,8.3065414E-1,0E0,7.430725E-1,0E0,0E0,0E0],"parents":[2147483647,0,0,1,1,3,3,5,5,7,7,9,9],"right_children":[2,4,-1,6,-1,8,-1,10,-1,12,-1,-1,-1],"split_conditions":[3.1083393E-1,2.920455E-1,1.1017052E-1,1.8818139E-1,9.710745E-2,2.7821195E-1,-4.387327E-3,3.2508004E-1,-7.186259E-3,2.296297E-1,-8.304801E-3,-2.9703158E-1,-2.0832079E-2],"split_indices":[1985,4312,0,1712,0,3250,0,2871,0,836,0,0,0],"split_type":[0,0,0,0,0,0,0,0,0,0,0,0,0],"sum_hessian":[4.9142212E1,4.8099686E1,1.0425272E0,4.6960316E1,1.1393707E0,4.59513E1,1.0090126E0,4.4945293E1,1.0060103E0,4.3929104E1,1.0161883E0,4.2874577E1,1.0545259E0],"tree_param":{"num_deleted":"0","num_feature":"5000","num_nodes":"13","size_leaf_vector":"1"}},{"base_weights":[-7.959405E-1,-8.392398E-1,8.6153924E-2,-8.8195735E-1,1.0066922E-1,-9.3009E-1,4.9149923E-2,-9.563893E-1,-3.2833195E-3,-2.9507944E-1,-6.857021E-3],"categories":[],"categories_nodes":[],"categories_segments":[],"categories_sizes":[],"default_left":[0,0,0,0,0,0,0,0,0,0,0],"id":9,"left_children":[1,3,-1,5,-1,7,-1,9,-1,-1,-1],"loss_changes":[2.0918198E0,2.2131138E0,0E0,2.0217552E0,0E0,8.513737E-1,0E0,8.576298E-1,0E0,0E0,0E0],"parents":[2147483647,0,0,1,1,3,3,5,5,7,7],"right_children":[2,4,-1,6,-1,8,-1,10,-1,-1,-1],"split_conditions":[2.1709354E-1,3.360975E-1,8.6153924E-2,1.8614867E-1,1.0066922E-1,1.8106574E-1,4.9149923E-2,2.637681E-1,-3.2833195E-3,-2.9507944E-1,-6.857021E-3],"split_indices":[1863,1814,0,3495,0,274,0,3250,0,0,0],"split_type":[0,0,0,0,0,0,0,0,0,0,0],"sum_hessian":[3.8464176E1,3.720213E1,1.2620438E0,3.6137398E1,1.0647339E0,3.4653114E1,1.4842811E0,3.364978E1,1.0033338E0,3.264469E1,1.005092E0],"tree_param":{"num_deleted":"0","num_feature":"5000","num_nodes":"11","size_leaf_vector":"1"}},{"base_weights":[-7.403073E-1,-7.919558E-1,1.17703445E-1,-8.4909785E-1,1.0867911E-1,-8.7836367E-1,-4.3375497E-3,-9.090485E-1,-6.735598E-3,-9.4066936E-1,-1.2274115E-2,-2.9103336E-1,-2.978504E-2],"categories":[],"categories_nodes":[],"categories_segments":[],"categories_sizes":[],"default_left":[0,0,0,0,0,0,0,0,0,0,0,0,0],"id":10,"left_children":[1,3,-1,5,-1,7,-1,9,-1,11,-1,-1,-1],"loss_changes":[2.1542034E0,2.3172092E0,0E0,7.0376205E-1,0E0,7.234001E-1,0E0,7.113571E-1,0E0,5.554352E-1,0E0,0E0,0E0],"parents":[2147483647,0,0,1,1,3,3,5,5,7,7,9,9],"right_children":[2,4,-1,6,-1,8,-1,10,-1,12,-1,-1,-1],"split_conditions":[2.296297E-1,3.2047993E-1,1.17703445E-1,1.8354896E-1,1.0867911E-1,2.476599E-1,-4.3375497E-3,2.2996451E-1,-6.735598E-3,2.6757467E-1,-1.2274115E-2,-2.9103336E-1,-2.978504E-2],"split_indices":[836,2871,0,274,0,3250,0,3495,0,1985,0,0,0],"split_type":[0,0,0,0,0,0,0,0,0,0,0,0,0],"sum_hessian":[3.0512705E1,2.9469694E1,1.0430125E0,2.833144E1,1.1382532E0,2.7321066E1,1.0103742E0,2.631556E1,1.0055065E0,2.5310114E1,1.0054461E0,2.4306585E1,1.0035288E0],"tree_param":{"num_deleted":"0","num_feature":"5000","num_nodes":"13","size_leaf_vector":"1"}},{"base_weights":[-6.780667E-1,-7.39994E-1,9.791612E-2,-8.0508304E-1,9.4328396E-2,-8.403144E-1,-3.2881543E-3,-8.778666E-1,-6.2630526E-3,-2.7521455E-1,-1.18925655E-2],"categories":[],"categories_nodes":[],"categories_segments":[],"categories_sizes":[],"default_left":[0,0,0,0,0,0,0,0,0,0,0],"id":11,"left_children":[1,3,-1,5,-1,7,-1,9,-1,-1,-1],"loss_changes":[1.836031E0,1.9312639E0,0E0,6.4297295E-1,0E0,6.680994E-1,0E0,6.6931725E-1,0E0,0E0,0E0],"parents":[2147483647,0,0,1,1,3,3,5,5,7,7],"right_children":[2,4,-1,6,-1,8,-1,10,-1,-1,-1],"split_conditions":[2.1709354E-1,2.296297E-1,9.791612E-2,1.8278976E-1,9.4328396E-2,2.6289293E-1,-3.2881543E-3,2.29596E-1,-6.2630526E-3,-2.7521455E-1,-1.18925655E-2],"split_indices":[1863,836,0,274,0,3250,0,3495,0,0,0],"split_type":[0,0,0,0,0,0,0,0,0,0,0],"sum_hessian":[2.4633848E1,2.3451298E1,1.1825495E0,2.2310547E1,1.1407518E0,2.1307087E1,1.0034587E0,2.0305258E1,1.0018301E0,1.9300947E1,1.0043097E0],"tree_param":{"num_deleted":"0","num_feature":"5000","num_nodes":"11","size_leaf_vector":"1"}},{"base_weights":[-6.0811824E-1,-6.800192E-1,1.090671E-1,-7.5519043E-1,1.1168587E-1,-8.418457E-1,6.410736E-2,-8.9096504E-1,-2.8153271E-3,-2.835095E-1,-5.816892E-3],"categories":[],"categories_nodes":[],"categories_segments":[],"categories_sizes":[],"default_left":[0,0,0,0,0,0,0,0,0,0,0],"id":12,"left_children":[1,3,-1,5,-1,7,-1,9,-1,-1,-1],"loss_changes":[1.7328944E0,1.874937E0,0E0,1.786458E0,0E0,7.1811676E-1,0E0,7.7174664E-1,0E0,0E0,0E0],"parents":[2147483647,0,0,1,1,3,3,5,5,7,7],"right_children":[2,4,-1,6,-1,8,-1,10,-1,-1,-1],"split_conditions":[3.2047993E-1,2.8619775E-1,1.090671E-1,1.8614867E-1,1.1168587E-1,1.7862982E-1,6.410736E-2,2.2804117E-1,-2.8153271E-3,-2.835095E-1,-5.816892E-3],"split_indices":[2871,1985,0,3495,0,274,0,3250,0,0,0],"split_type":[0,0,0,0,0,0,0,0,0,0,0],"sum_hessian":[2.0265032E1,1.9148275E1,1.1167557E0,1.8135143E1,1.0131327E0,1.6766672E1,1.3684701E0,1.5766116E1,1.0005568E0,1.4765864E1,1.0002519E0],"tree_param":{"num_deleted":"0","num_feature":"5000","num_nodes":"11","size_leaf_vector":"1"}},{"base_weights":[-5.3607446E-1,-6.506978E-1,1.758669E-1,-7.475577E-1,1.06914386E-1,8.711099E-2,-1.1598495E-2,-2.3895754E-1,-1.25421565E-2],"categories":[],"categories_nodes":[],"categories_segments":[],"categories_sizes":[],"default_left":[0,0,0,0,0,0,0,0,0],"id":13,"left_children":[1,3,5,7,-1,-1,-1,-1,-1],"loss_changes":[1.576561E0,1.7925353E0,9.159699E-2,4.7109604E-1,0E0,0E0,0E0,0E0,0E0],"parents":[2147483647,0,0,1,1,2,2,3,3],"right_children":[2,4,6,8,-1,-1,-1,-1,-1],"split_conditions":[1.4318614E-1,2.296297E-1,3.2273316E-1,2.2996451E-1,1.06914386E-1,8.711099E-2,-1.1598495E-2,-2.3895754E-1,-1.25421565E-2],"split_indices":[2871,836,2871,3495,0,0,0,0,0],"split_type":[0,0,0,0,0,0,0,0,0],"sum_hessian":[1.6917072E1,1.4645202E1,2.2718706E0,1.3595315E1,1.0498873E0,1.2507603E0,1.0211103E0,1.2592951E1,1.0023638E0],"tree_param":{"num_deleted":"0","num_feature":"5000","num_nodes":"9","size_leaf_vector":"1"}},{"base_weights":[-4.6043536E-1,-5.492896E-1,1.133994E-1,-6.4241743E-1,8.6417586E-2,-6.881683E-1,-1.26178E-2,-2.1986999E-1,-7.0813194E-2],"categories":[],"categories_nodes":[],"categories_segments":[],"categories_sizes":[],"default_left":[0,0,0,0,0,0,0,0,0],"id":14,"left_children":[1,3,-1,5,-1,7,-1,-1,-1],"loss_changes":[1.3603125E0,1.307787E0,0E0,3.354373E-1,0E0,7.498789E-2,0E0,0E0,0E0],"parents":[2147483647,0,0,1,1,3,3,5,5],"right_children":[2,4,-1,6,-1,8,-1,-1,-1],"split_conditions":[2.1709354E-1,2.296297E-1,1.133994E-1,2.3475257E-1,8.6417586E-2,1.4318614E-1,-1.26178E-2,-2.1986999E-1,-7.0813194E-2],"split_indices":[1863,836,0,3495,0,2871,0,0,0],"split_type":[0,0,0,0,0,0,0,0,0],"sum_hessian":[1.4472592E1,1.3397622E1,1.0749706E0,1.22662E1,1.1314225E0,1.1261726E1,1.0044734E0,9.682736E0,1.5789902E0],"tree_param":{"num_deleted":"0","num_feature":"5000","num_nodes":"9","size_leaf_vector":"1"}},{"base_weights":[-3.8912386E-1,-4.7839263E-1,9.054561E-2,-5.747856E-1,6.9965795E-2,-6.22912E-1,-1.2356113E-2,-2.011135E-1,-6.069668E-2],"categories":[],"categories_nodes":[],"categories_segments":[],"categories_sizes":[],"default_left":[0,0,0,0,0,0,0,0,0],"id":15,"left_children":[1,3,-1,5,-1,7,-1,-1,-1],"loss_changes":[9.869149E-1,9.9036145E-1,0E0,2.640946E-1,0E0,6.957221E-2,0E0,0E0,0E0],"parents":[2147483647,0,0,1,1,3,3,5,5],"right_children":[2,4,-1,6,-1,8,-1,-1,-1],"split_conditions":[2.1709354E-1,2.296297E-1,9.054561E-2,2.3463318E-1,6.9965795E-2,1.4318614E-1,-1.2356113E-2,-2.011135E-1,-6.069668E-2],"split_indices":[1863,836,0,3495,0,2871,0,0,0],"split_type":[0,0,0,0,0,0,0,0,0],"sum_hessian":[1.2659734E1,1.1483682E1,1.1760521E0,1.0283046E1,1.200636E0,9.278792E0,1.0042533E0,7.8041425E0,1.4746501E0],"tree_param":{"num_deleted":"0","num_feature":"5000","num_nodes":"9","size_leaf_vector":"1"}},{"base_weights":[-3.2380053E-1,-4.484426E-1,1.5572023E-1,-5.7858497E-1,7.5199835E-2,-1.14932675E-2,7.972472E-2,-1.8695779E-1,-3.5409685E-2],"categories":[],"categories_nodes":[],"categories_segments":[],"categories_sizes":[],"default_left":[0,0,0,0,0,0,0,0,0],"id":16,"left_children":[1,3,5,7,-1,-1,-1,-1,-1],"loss_changes":[8.0588615E-1,1.0577953E0,8.0268316E-2,1.06410265E-1,0E0,0E0,0E0,0E0,0E0],"parents":[2147483647,0,0,1,1,2,2,3,3],"right_children":[2,4,6,8,-1,-1,-1,-1,-1],"split_conditions":[1.4318614E-1,1.8614867E-1,3.2047993E-1,2.425001E-1,7.5199835E-2,-1.14932675E-2,7.972472E-2,-1.8695779E-1,-3.5409685E-2],"split_indices":[2871,3495,2871,836,0,0,0,0,0],"split_type":[0,0,0,0,0,0,0,0,0],"sum_hessian":[1.1315098E1,9.032171E0,2.282926E0,7.760006E0,1.2721653E0,1.0619801E0,1.2209461E0,6.75281E0,1.007196E0],"tree_param":{"num_deleted":"0","num_feature":"5000","num_nodes":"9","size_leaf_vector":"1"}},{"base_weights":[-2.6411211E-1,-3.524483E-1,7.6680236E-2,-4.529608E-1,6.1135795E-2,-1.4985651E-1,-1.3320622E-2],"categories":[],"categories_nodes":[],"categories_segments":[],"categories_sizes":[],"default_left":[0,0,0,0,0,0,0],"id":17,"left_children":[1,3,-1,5,-1,-1,-1],"loss_changes":[6.0906404E-1,6.560023E-1,0E0,1.4616632E-1,0E0,0E0,0E0],"parents":[2147483647,0,0,1,1,3,3],"right_children":[2,4,-1,6,-1,-1,-1],"split_conditions":[2.1709354E-1,2.296297E-1,7.6680236E-2,2.3643614E-1,6.1135795E-2,-1.4985651E-1,-1.3320622E-2],"split_indices":[1863,836,0,3495,0,0,0],"split_type":[0,0,0,0,0,0,0],"sum_hessian":[1.0304377E1,9.08246E0,1.2219163E0,7.8496766E0,1.2327843E0,6.846751E0,1.0029252E0],"tree_param":{"num_deleted":"0","num_feature":"5000","num_nodes":"7","size_leaf_vector":"1"}},{"base_weights":[-2.091125E-1,-4.991709E-2,-1.9405395E-1,-1.8564571E-1,8.5162096E-2,-1.001829E-1,8.307015E-2],"categories":[],"categories_nodes":[],"categories_segments":[],"categories_sizes":[],"default_left":[0,0,0,0,0,0,0],"id":18,"left_children":[1,3,-1,5,-1,-1,-1],"loss_changes":[6.980131E-1,4.49966E-1,0E0,5.615486E-1,0E0,0E0,0E0],"parents":[2147483647,0,0,1,1,3,3],"right_children":[2,4,-1,6,-1,-1,-1],"split_conditions":[7.233074E-2,1.4318614E-1,-1.9405395E-1,1.8614867E-1,8.5162096E-2,-1.001829E-1,8.307015E-2],"split_indices":[4087,2871,0,3495,0,0,0],"split_type":[0,0,0,0,0,0,0],"sum_hessian":[9.480007E0,7.768712E0,1.7112955E0,5.838458E0,1.9302539E0,4.6315627E0,1.2068955E0],"tree_param":{"num_deleted":"0","num_feature":"5000","num_nodes":"7","size_leaf_vector":"1"}},{"base_weights":[-1.7196712E-1,-3.1309806E-2,-1.7973867E-1,-1.4296049E-1,6.464056E-2,-8.2636125E-2,6.659004E-2],"categories":[],"categories_nodes":[],"categories_segments":[],"categories_sizes":[],"default_left":[0,0,0,0,0,0,0],"id":19,"left_children":[1,3,-1,5,-1,-1,-1],"loss_changes":[5.819062E-1,2.6709414E-1,0E0,3.7569153E-1,0E0,0E0,0E0],"parents":[2147483647,0,0,1,1,3,3],"right_children":[2,4,-1,6,-1,-1,-1],"split_conditions":[7.233074E-2,1.4318614E-1,-1.7973867E-1,1.8614867E-1,6.464056E-2,-8.2636125E-2,6.659004E-2],"split_indices":[4087,2871,0,3495,0,0,0],"split_type":[0,0,0,0,0,0,0],"sum_hessian":[8.997181E0,7.575869E0,1.4213114E0,5.505632E0,2.0702374E0,4.219023E0,1.2866087E0],"tree_param":{"num_deleted":"0","num_feature":"5000","num_nodes":"7","size_leaf_vector":"1"}},{"base_weights":[-1.4260225E-1,-1.8746305E-2,-1.6618596E-1,-9.9762045E-2,7.908366E-2,8.280102E-2,-1.6651782E-1,4.462963E-2,-3.2839343E-2],"categories":[],"categories_nodes":[],"categories_segments":[],"categories_sizes":[],"default_left":[0,0,0,0,0,0,0,0,0],"id":20,"left_children":[1,3,-1,5,-1,7,-1,-1,-1],"loss_changes":[4.80638E-1,2.1942191E-1,0E0,6.5153956E-1,0E0,9.32753E-2,0E0,0E0,0E0],"parents":[2147483647,0,0,1,1,3,3,5,5],"right_children":[2,4,-1,6,-1,8,-1,-1,-1],"split_conditions":[7.233074E-2,2.1682762E-1,-1.6618596E-1,1.4372063E-1,7.908366E-2,1.8982519E-1,-1.6651782E-1,4.462963E-2,-3.2839343E-2],"split_indices":[4087,1863,0,2871,0,3495,0,0,0],"split_type":[0,0,0,0,0,0,0,0,0],"sum_hessian":[8.63767E0,7.4423757E0,1.1952939E0,6.2855706E0,1.156805E0,5.070545E0,1.2150258E0,3.9437373E0,1.1268077E0],"tree_param":{"num_deleted":"0","num_feature":"5000","num_nodes":"9","size_leaf_vector":"1"}},{"base_weights":[-1.3106915E-1,-2.2134793E-1,9.0111926E-2,-3.7629968E-1,1.4763665E-1,-1.2878907E-1,-1.5152918E-2,8.2266435E-2,-1.9181432E-2],"categories":[],"categories_nodes":[],"categories_segments":[],"categories_sizes":[],"default_left":[0,0,0,0,0,0,0,0,0],"id":21,"left_children":[1,3,-1,5,7,-1,-1,-1,-1],"loss_changes":[4.3533906E-1,5.3622043E-1,0E0,8.540678E-2,1.0335737E-1,0E0,0E0,0E0,0E0],"parents":[2147483647,0,0,1,1,3,3,4,4],"right_children":[2,4,-1,6,8,-1,-1,-1,-1],"split_conditions":[2.296297E-1,1.4318614E-1,9.0111926E-2,2.3551272E-1,3.2273316E-1,-1.2878907E-1,-1.5152918E-2,8.2266435E-2,-1.9181432E-2],"split_indices":[836,2871,0,3495,2871,0,0,0,0],"split_type":[0,0,0,0,0,0,0,0,0],"sum_hessian":[8.469869E0,7.4069347E0,1.0629342E0,5.2024064E0,2.2045286E0,4.201264E0,1.0011424E0,1.1940396E0,1.010489E0],"tree_param":{"num_deleted":"0","num_feature":"5000","num_nodes":"9","size_leaf_vector":"1"}},{"base_weights":[-9.8968074E-2,-1.7842518E-1,7.363642E-2,-3.183154E-1,1.1953274E-1,-1.0960422E-1,-1.4680472E-2,-3.8456794E-2,1.0215992E-1],"categories":[],"categories_nodes":[],"categories_segments":[],"categories_sizes":[],"default_left":[0,0,0,0,0,0,0,0,0],"id":22,"left_children":[1,3,-1,5,7,-1,-1,-1,-1],"loss_changes":[2.9232526E-1,3.697564E-1,0E0,5.419308E-2,2.2265187E-1,0E0,0E0,0E0,0E0],"parents":[2147483647,0,0,1,1,3,3,4,4],"right_children":[2,4,-1,6,8,-1,-1,-1,-1],"split_conditions":[2.296297E-1,1.4318614E-1,7.363642E-2,2.354898E-1,2.1709354E-1,-1.0960422E-1,-1.4680472E-2,-3.8456794E-2,1.0215992E-1],"split_indices":[836,2871,0,3495,1863,0,0,0,0],"split_type":[0,0,0,0,0,0,0,0,0],"sum_hessian":[8.081428E0,6.958163E0,1.1232644E0,4.6885715E0,2.2695913E0,3.688359E0,1.0002123E0,1.2681098E0,1.0014817E0],"tree_param":{"num_deleted":"0","num_feature":"5000","num_nodes":"9","size_leaf_vector":"1"}},{"base_weights":[-7.3445395E-2,-1.4238799E-1,6.023932E-2,-2.667173E-1,1.014131E-1,-9.181916E-2,-1.4758528E-2,-3.279415E-2,8.373818E-2],"categories":[],"categories_nodes":[],"categories_segments":[],"categories_sizes":[],"default_left":[0,0,0,0,0,0,0,0,0],"id":23,"left_children":[1,3,-1,5,7,-1,-1,-1,-1],"loss_changes":[1.9417465E-1,2.5691748E-1,0E0,3.0285805E-2,1.535597E-1,0E0,0E0,0E0,0E0],"parents":[2147483647,0,0,1,1,3,3,4,4],"right_children":[2,4,-1,6,8,-1,-1,-1,-1],"split_conditions":[2.296297E-1,1.4318614E-1,6.023932E-2,2.3463318E-1,2.1709354E-1,-9.181916E-2,-1.4758528E-2,-3.279415E-2,8.373818E-2],"split_indices":[836,2871,0,3495,1863,0,0,0,0],"split_type":[0,0,0,0,0,0,0,0,0],"sum_hessian":[7.7577715E0,6.583522E0,1.1742496E0,4.297807E0,2.2857144E0,3.2947834E0,1.0030239E0,1.2218174E0,1.063897E0],"tree_param":{"num_deleted":"0","num_feature":"5000","num_nodes":"9","size_leaf_vector":"1"}},{"base_weights":[-5.4384045E-2,-1.1339392E-1,4.932888E-2,-2.2184932E-1,8.525323E-2,-7.586455E-2,-1.4838822E-2,-2.7949147E-2,6.871091E-2],"categories":[],"categories_nodes":[],"categories_segments":[],"categories_sizes":[],"default_left":[0,0,0,0,0,0,0,0,0],"id":24,"left_children":[1,3,-1,5,7,-1,-1,-1,-1],"loss_changes":[1.2861615E-1,1.761809E-1,0E0,1.4236316E-2,1.0600265E-1,0E0,0E0,0E0,0E0],"parents":[2147483647,0,0,1,1,3,3,4,4],"right_children":[2,4,-1,6,8,-1,-1,-1,-1],"split_conditions":[2.296297E-1,1.4318614E-1,4.932888E-2,2.2996451E-1,2.1709354E-1,-7.586455E-2,-1.4838822E-2,-2.7949147E-2,6.871091E-2],"split_indices":[836,2871,0,3495,1863,0,0,0,0],"split_type":[0,0,0,0,0,0,0,0,0],"sum_hessian":[7.5168414E0,6.2997084E0,1.2171327E0,3.9993706E0,2.3003378E0,2.9935372E0,1.0058335E0,1.1836402E0,1.1166977E0],"tree_param":{"num_deleted":"0","num_feature":"5000","num_nodes":"9","size_leaf_vector":"1"}},{"base_weights":[-4.0316563E-2,5.377919E-2,-2.0627686E-1,1.1803855E-1,-4.0874317E-2,-1.55878E-1,5.6435585E-2,5.6413982E-2,-2.2796031E-2],"categories":[],"categories_nodes":[],"categories_segments":[],"categories_sizes":[],"default_left":[0,0,0,0,0,0,0,0,0],"id":25,"left_children":[1,3,5,7,-1,-1,-1,-1,-1],"loss_changes":[1.4127663E-1,9.07318E-2,4.9603337E-1,8.3621524E-2,0E0,0E0,0E0,0E0,0E0],"parents":[2147483647,0,0,1,1,2,2,3,3],"right_children":[2,4,6,8,-1,-1,-1,-1,-1],"split_conditions":[1.4372063E-1,2.4066418E-1,2.1709354E-1,1.8982519E-1,-4.0874317E-2,-1.55878E-1,5.6435585E-2,5.6413982E-2,-2.2796031E-2],"split_indices":[2871,836,1863,3495,0,0,0,0,0],"split_type":[0,0,0,0,0,0,0,0,0],"sum_hessian":[7.336444E0,5.1132803E0,2.2231634E0,4.1042295E0,1.0090508E0,1.0620248E0,1.1611385E0,3.038643E0,1.0655866E0],"tree_param":{"num_deleted":"0","num_feature":"5000","num_nodes":"9","size_leaf_vector":"1"}},{"base_weights":[-4.3239217E-2,-1.0388842E-1,4.6430215E-2,-6.869816E-2,3.665545E-2],"categories":[],"categories_nodes":[],"categories_segments":[],"categories_sizes":[],"default_left":[0,0,0,0,0],"id":26,"left_children":[1,3,-1,-1,-1],"loss_changes":[1.16176E-1,2.2537115E-1,0E0,0E0,0E0],"parents":[2147483647,0,0,1,1],"right_children":[2,4,-1,-1,-1],"split_conditions":[1.8614867E-1,1.4318614E-1,4.6430215E-2,-6.869816E-2,3.665545E-2],"split_indices":[3495,2871,0,0,0],"split_type":[0,0,0,0,0],"sum_hessian":[7.3352437E0,5.9791617E0,1.3560821E0,3.8408022E0,2.1383595E0],"tree_param":{"num_deleted":"0","num_feature":"5000","num_nodes":"5","size_leaf_vector":"1"}},{"base_weights":[-3.0238958E-2,6.770325E-2,-6.2213678E-2,1.19412124E-1,-2.6213596E-2,1.642984E-2,5.2901845E-2],"categories":[],"categories_nodes":[],"categories_segments":[],"categories_sizes":[],"default_left":[0,0,0,0,0,0,0],"id":27,"left_children":[1,3,-1,5,-1,-1,-1],"loss_changes":[1.5642457E-1,5.885905E-2,0E0,8.563764E-3,0E0,0E0,0E0],"parents":[2147483647,0,0,1,1,3,3],"right_children":[2,4,-1,6,-1,-1,-1],"split_conditions":[1.4372063E-1,1.8982519E-1,-6.2213678E-2,2.296297E-1,-2.6213596E-2,1.642984E-2,5.2901845E-2],"split_indices":[2871,3495,0,836,0,0,0],"split_type":[0,0,0,0,0,0,0],"sum_hessian":[7.206836E0,5.0386963E0,2.1681402E0,3.9512417E0,1.0874544E0,2.768923E0,1.1823187E0],"tree_param":{"num_deleted":"0","num_feature":"5000","num_nodes":"7","size_leaf_vector":"1"}},{"base_weights":[-2.4187058E-2,5.3751174E-2,-5.131329E-2,-3.5809923E-3,4.9932916E-2],"categories":[],"categories_nodes":[],"categories_segments":[],"categories_sizes":[],"default_left":[0,0,0,0,0],"id":28,"left_children":[1,3,-1,-1,-1],"loss_changes":[1.02663584E-1,4.711134E-2,0E0,0E0,0E0],"parents":[2147483647,0,0,1,1],"right_children":[2,4,-1,-1,-1],"split_conditions":[1.4372063E-1,1.8614867E-1,-5.131329E-2,-3.5809923E-3,4.9932916E-2],"split_indices":[2871,3495,0,0,0],"split_type":[0,0,0,0,0],"sum_hessian":[7.1662974E0,5.0958705E0,2.0704265E0,3.7841666E0,1.3117042E0],"tree_param":{"num_deleted":"0","num_feature":"5000","num_nodes":"5","size_leaf_vector":"1"}},{"base_weights":[-1.8023675E-2,-1.0213034E-1,4.5590937E-2,-5.9965715E-2,4.045102E-2],"categories":[],"categories_nodes":[],"categories_segments":[],"categories_sizes":[],"default_left":[0,0,0,0,0],"id":29,"left_children":[1,3,-1,-1,-1],"loss_changes":[1.3167305E-1,1.667048E-1,0E0,0E0,0E0],"parents":[2147483647,0,0,1,1],"right_children":[2,4,-1,-1,-1],"split_conditions":[1.4318614E-1,1.8614867E-1,4.5590937E-2,-5.9965715E-2,4.045102E-2],"split_indices":[2871,3495,0,0,0],"split_type":[0,0,0,0,0],"sum_hessian":[7.1239133E0,5.032984E0,2.0909293E0,3.673888E0,1.3590958E0],"tree_param":{"num_deleted":"0","num_feature":"5000","num_nodes":"5","size_leaf_vector":"1"}},{"base_weights":[-1.0543972E-2,7.1688786E-2,-5.030192E-2,4.2409007E-2,-3.5479702E-2],"categories":[],"categories_nodes":[],"categories_segments":[],"categories_sizes":[],"default_left":[0,0,0,0,0],"id":30,"left_children":[1,3,-1,-1,-1],"loss_changes":[1.159067E-1,9.584219E-2,0E0,0E0,0E0],"parents":[2147483647,0,0,1,1],"right_children":[2,4,-1,-1,-1],"split_conditions":[1.4372063E-1,1.8982519E-1,-5.030192E-2,4.2409007E-2,-3.5479702E-2],"split_indices":[2871,3495,0,0,0],"split_type":[0,0,0,0,0],"sum_hessian":[7.0400233E0,4.978374E0,2.0616493E0,3.829523E0,1.1488507E0],"tree_param":{"num_deleted":"0","num_feature":"5000","num_nodes":"5","size_leaf_vector":"1"}},{"base_weights":[-1.3407319E-2,-9.6719496E-2,4.5633715E-2,-1.8578464E-1,4.196322E-2,-6.2196545E-2,-1.5837915E-2],"categories":[],"categories_nodes":[],"categories_segments":[],"categories_sizes":[],"default_left":[0,0,0,0,0,0,0],"id":31,"left_children":[1,3,-1,5,-1,-1,-1],"loss_changes":[1.2600918E-1,1.5200087E-1,0E0,2.7289689E-3,0E0,0E0,0E0],"parents":[2147483647,0,0,1,1,3,3],"right_children":[2,4,-1,6,-1,-1,-1],"split_conditions":[1.4318614E-1,2.296297E-1,4.5633715E-2,2.354898E-1,4.196322E-2,-6.2196545E-2,-1.5837915E-2],"split_indices":[2871,836,0,3495,0,0,0],"split_type":[0,0,0,0,0,0,0],"sum_hessian":[7.070958E0,4.9800014E0,2.090957E0,3.774051E0,1.2059505E0,2.767037E0,1.0070139E0],"tree_param":{"num_deleted":"0","num_feature":"5000","num_nodes":"7","size_leaf_vector":"1"}},{"base_weights":[-9.222756E-3,7.2415434E-2,-4.947581E-2,3.8505472E-2,-2.7448066E-2],"categories":[],"categories_nodes":[],"categories_segments":[],"categories_sizes":[],"default_left":[0,0,0,0,0],"id":32,"left_children":[1,3,-1,-1,-1],"loss_changes":[1.1353899E-1,6.618919E-2,0E0,0E0,0E0],"parents":[2147483647,0,0,1,1],"right_children":[2,4,-1,-1,-1],"split_conditions":[1.4372063E-1,1.8982519E-1,-4.947581E-2,3.8505472E-2,-2.7448066E-2],"split_indices":[2871,3495,0,0,0],"split_type":[0,0,0,0,0],"sum_hessian":[6.992917E0,4.9384017E0,2.0545151E0,3.8436415E0,1.0947604E0],"tree_param":{"num_deleted":"0","num_feature":"5000","num_nodes":"5","size_leaf_vector":"1"}},{"base_weights":[-1.1801216E-2,-9.5028624E-2,4.5467924E-2,-5.774448E-2,4.1885786E-2],"categories":[],"categories_nodes":[],"categories_segments":[],"categories_sizes":[],"default_left":[0,0,0,0,0],"id":33,"left_children":[1,3,-1,-1,-1],"loss_changes":[1.2344494E-1,1.6242667E-1,0E0,0E0,0E0],"parents":[2147483647,0,0,1,1],"right_children":[2,4,-1,-1,-1],"split_conditions":[1.4318614E-1,1.8614867E-1,4.5467924E-2,-5.774448E-2,4.1885786E-2],"split_indices":[2871,3495,0,0,0],"split_type":[0,0,0,0,0],"sum_hessian":[7.020121E0,4.927832E0,2.092289E0,3.6087582E0,1.3190737E0],"tree_param":{"num_deleted":"0","num_feature":"5000","num_nodes":"5","size_leaf_vector":"1"}},{"base_weights":[-5.592412E-3,7.647719E-2,-4.8765767E-2,4.1252036E-2,-2.953373E-2],"categories":[],"categories_nodes":[],"categories_segments":[],"categories_sizes":[],"default_left":[0,0,0,0,0],"id":34,"left_children":[1,3,-1,-1,-1],"loss_changes":[1.1479829E-1,7.650411E-2,0E0,0E0,0E0],"parents":[2147483647,0,0,1,1],"right_children":[2,4,-1,-1,-1],"split_conditions":[1.4372063E-1,1.8982519E-1,-4.8765767E-2,4.1252036E-2,-2.953373E-2],"split_indices":[2871,3495,0,0,0],"split_type":[0,0,0,0,0],"sum_hessian":[6.9467072E0,4.8982987E0,2.0484085E0,3.7899191E0,1.1083796E0],"tree_param":{"num_deleted":"0","num_feature":"5000","num_nodes":"5","size_leaf_vector":"1"}},{"base_weights":[-9.160214E-3,-9.146664E-2,4.5088276E-2,-5.4532982E-2,3.731924E-2],"categories":[],"categories_nodes":[],"categories_segments":[],"categories_sizes":[],"default_left":[0,0,0,0,0],"id":35,"left_children":[1,3,-1,-1,-1],"loss_changes":[1.184722E-1,1.3733181E-1,0E0,0E0,0E0],"parents":[2147483647,0,0,1,1],"right_children":[2,4,-1,-1,-1],"split_conditions":[1.4318614E-1,1.8614867E-1,4.5088276E-2,-5.4532982E-2,3.731924E-2],"split_indices":[2871,3495,0,0,0],"split_type":[0,0,0,0,0],"sum_hessian":[6.9796004E0,4.884646E0,2.094955E0,3.5551906E0,1.329455E0],"tree_param":{"num_deleted":"0","num_feature":"5000","num_nodes":"5","size_leaf_vector":"1"}},{"base_weights":[-3.8221856E-3,7.79691E-2,-4.811366E-2,4.252023E-2,-3.0657966E-2],"categories":[],"categories_nodes":[],"categories_segments":[],"categories_sizes":[],"default_left":[0,0,0,0,0],"id":36,"left_children":[1,3,-1,-1,-1],"loss_changes":[1.1384074E-1,8.193051E-2,0E0,0E0,0E0],"parents":[2147483647,0,0,1,1],"right_children":[2,4,-1,-1,-1],"split_conditions":[1.4372063E-1,1.8982519E-1,-4.811366E-2,4.252023E-2,-3.0657966E-2],"split_indices":[2871,3495,0,0,0],"split_type":[0,0,0,0,0],"sum_hessian":[6.913812E0,4.870992E0,2.0428202E0,3.7552063E0,1.1157857E0],"tree_param":{"num_deleted":"0","num_feature":"5000","num_nodes":"5","size_leaf_vector":"1"}},{"base_weights":[-7.859905E-3,-8.935721E-2,4.4569083E-2,-5.217676E-2,3.3775978E-2],"categories":[],"categories_nodes":[],"categories_segments":[],"categories_sizes":[],"default_left":[0,0,0,0,0],"id":37,"left_children":[1,3,-1,-1,-1],"loss_changes":[1.1460917E-1,1.19493626E-1,0E0,0E0,0E0],"parents":[2147483647,0,0,1,1],"right_children":[2,4,-1,-1,-1],"split_conditions":[1.4318614E-1,1.8614867E-1,4.4569083E-2,-5.217676E-2,3.3775978E-2],"split_indices":[2871,3495,0,0,0],"split_type":[0,0,0,0,0],"sum_hessian":[6.9489474E0,4.8505425E0,2.098405E0,3.5166707E0,1.3338717E0],"tree_param":{"num_deleted":"0","num_feature":"5000","num_nodes":"5","size_leaf_vector":"1"}},{"base_weights":[-3.0330645E-3,7.808796E-2,-4.748452E-2,4.2895105E-2,-3.110813E-2],"categories":[],"categories_nodes":[],"categories_segments":[],"categories_sizes":[],"default_left":[0,0,0,0,0],"id":38,"left_children":[1,3,-1,-1,-1],"loss_changes":[1.11699246E-1,8.384314E-2,0E0,0E0,0E0],"parents":[2147483647,0,0,1,1],"right_children":[2,4,-1,-1,-1],"split_conditions":[1.4372063E-1,1.8982519E-1,-4.748452E-2,4.2895105E-2,-3.110813E-2],"split_indices":[2871,3495,0,0,0],"split_type":[0,0,0,0,0],"sum_hessian":[6.8878746E0,4.850427E0,2.0374472E0,3.7316632E0,1.1187642E0],"tree_param":{"num_deleted":"0","num_feature":"5000","num_nodes":"5","size_leaf_vector":"1"}},{"base_weights":[-7.255038E-3,-8.796172E-2,4.3956507E-2,-5.0346438E-2,3.0978976E-2],"categories":[],"categories_nodes":[],"categories_segments":[],"categories_sizes":[],"default_left":[0,0,0,0,0],"id":39,"left_children":[1,3,-1,-1,-1],"loss_changes":[1.1122435E-1,1.0622533E-1,0E0,0E0,0E0],"parents":[2147483647,0,0,1,1],"right_children":[2,4,-1,-1,-1],"split_conditions":[1.4318614E-1,1.8614867E-1,4.3956507E-2,-5.0346438E-2,3.0978976E-2],"split_indices":[2871,3495,0,0,0],"split_type":[0,0,0,0,0],"sum_hessian":[6.92342E0,4.8211336E0,2.102286E0,3.487193E0,1.3339406E0],"tree_param":{"num_deleted":"0","num_feature":"5000","num_nodes":"5","size_leaf_vector":"1"}},{"base_weights":[-2.7403748E-3,7.749257E-2,-4.685779E-2,4.2734426E-2,-3.1089514E-2],"categories":[],"categories_nodes":[],"categories_segments":[],"categories_sizes":[],"default_left":[0,0,0,0,0],"id":40,"left_children":[1,3,-1,-1,-1],"loss_changes":[1.0894245E-1,8.339132E-2,0E0,0E0,0E0],"parents":[2147483647,0,0,1,1],"right_children":[2,4,-1,-1,-1],"split_conditions":[1.4372063E-1,1.8982519E-1,-4.685779E-2,4.2734426E-2,-3.1089514E-2],"split_indices":[2871,3495,0,0,0],"split_type":[0,0,0,0,0],"sum_hessian":[6.8654375E0,4.8333254E0,2.0321124E0,3.7146842E0,1.1186408E0],"tree_param":{"num_deleted":"0","num_feature":"5000","num_nodes":"5","size_leaf_vector":"1"}},{"base_weights":[-6.9928057E-3,-6.908265E-2,5.625419E-2,-3.6292475E-2,2.3138298E-2],"categories":[],"categories_nodes":[],"categories_segments":[],"categories_sizes":[],"default_left":[0,0,0,0,0],"id":41,"left_children":[1,3,-1,-1,-1],"loss_changes":[1.083668E-1,6.0312677E-2,0E0,0E0,0E0],"parents":[2147483647,0,0,1,1],"right_children":[2,4,-1,-1,-1],"split_conditions":[3.2047993E-1,1.8614867E-1,5.625419E-2,-3.6292475E-2,2.3138298E-2],"split_indices":[2871,3495,0,0,0],"split_type":[0,0,0,0,0],"sum_hessian":[6.900445E0,5.719512E0,1.180933E0,4.348692E0,1.3708203E0],"tree_param":{"num_deleted":"0","num_feature":"5000","num_nodes":"5","size_leaf_vector":"1"}},{"base_weights":[6.213096E-5,7.23139E-2,-4.253122E-2,4.014558E-2,-2.9941496E-2],"categories":[],"categories_nodes":[],"categories_segments":[],"categories_sizes":[],"default_left":[0,0,0,0,0],"id":42,"left_children":[1,3,-1,-1,-1],"loss_changes":[9.0389036E-2,7.521097E-2,0E0,0E0,0E0],"parents":[2147483647,0,0,1,1],"right_children":[2,4,-1,-1,-1],"split_conditions":[1.4372063E-1,1.8982519E-1,-4.253122E-2,4.014558E-2,-2.9941496E-2],"split_indices":[2871,3495,0,0,0],"split_type":[0,0,0,0,0],"sum_hessian":[6.8200226E0,4.8430486E0,1.9769739E0,3.731988E0,1.1110606E0],"tree_param":{"num_deleted":"0","num_feature":"5000","num_nodes":"5","size_leaf_vector":"1"}},{"base_weights":[-4.61111E-3,-9.0491034E-2,4.787091E-2,-4.9602766E-2,2.7834957E-2],"categories":[],"categories_nodes":[],"categories_segments":[],"categories_sizes":[],"default_left":[0,0,0,0,0],"id":43,"left_children":[1,3,-1,-1,-1],"loss_changes":[1.2522432E-1,9.486425E-2,0E0,0E0,0E0],"parents":[2147483647,0,0,1,1],"right_children":[2,4,-1,-1,-1],"split_conditions":[1.4318614E-1,1.8614867E-1,4.787091E-2,-4.9602766E-2,2.7834957E-2],"split_indices":[2871,3495,0,0,0],"split_type":[0,0,0,0,0],"sum_hessian":[6.8571615E0,4.796851E0,2.0603106E0,3.4753253E0,1.3215258E0],"tree_param":{"num_deleted":"0","num_feature":"5000","num_nodes":"5","size_leaf_vector":"1"}},{"base_weights":[-6.623884E-4,7.3476784E-2,-4.34836E-2,4.051036E-2,-2.9637272E-2],"categories":[],"categories_nodes":[],"categories_segments":[],"categories_sizes":[],"default_left":[0,0,0,0,0],"id":44,"left_children":[1,3,-1,-1,-1],"loss_changes":[9.411178E-2,7.503222E-2,0E0,0E0,0E0],"parents":[2147483647,0,0,1,1],"right_children":[2,4,-1,-1,-1],"split_conditions":[1.4372063E-1,1.8982519E-1,-4.34836E-2,4.051036E-2,-2.9637272E-2],"split_indices":[2871,3495,0,0,0],"split_type":[0,0,0,0,0],"sum_hessian":[6.802331E0,4.817582E0,1.9847488E0,3.7085223E0,1.1090598E0],"tree_param":{"num_deleted":"0","num_feature":"5000","num_nodes":"5","size_leaf_vector":"1"}},{"base_weights":[-5.1729726E-3,-8.803283E-2,4.5536164E-2,-4.779804E-2,2.6056204E-2],"categories":[],"categories_nodes":[],"categories_segments":[],"categories_sizes":[],"default_left":[0,0,0,0,0],"id":45,"left_children":[1,3,-1,-1,-1],"loss_changes":[1.1530275E-1,8.5692406E-2,0E0,0E0,0E0],"parents":[2147483647,0,0,1,1],"right_children":[2,4,-1,-1,-1],"split_conditions":[1.4318614E-1,1.8614867E-1,4.5536164E-2,-4.779804E-2,2.6056204E-2],"split_indices":[2871,3495,0,0,0],"split_type":[0,0,0,0,0],"sum_hessian":[6.838141E0,4.762918E0,2.075223E0,3.4467828E0,1.3161353E0],"tree_param":{"num_deleted":"0","num_feature":"5000","num_nodes":"5","size_leaf_vector":"1"}},{"base_weights":[-1.2835601E-3,7.360787E-2,-4.3849334E-2,4.0356822E-2,-2.9120058E-2],"categories":[],"categories_nodes":[],"categories_segments":[],"categories_sizes":[],"default_left":[0,0,0,0,0],"id":46,"left_children":[1,3,-1,-1,-1],"loss_changes":[9.52267E-2,7.332766E-2,0E0,0E0,0E0],"parents":[2147483647,0,0,1,1],"right_children":[2,4,-1,-1,-1],"split_conditions":[1.4372063E-1,1.8982519E-1,-4.3849334E-2,4.0356822E-2,-2.9120058E-2],"split_indices":[2871,3495,0,0,0],"split_type":[0,0,0,0,0],"sum_hessian":[6.784812E0,4.7970676E0,1.9877447E0,3.6914015E0,1.105666E0],"tree_param":{"num_deleted":"0","num_feature":"5000","num_nodes":"5","size_leaf_vector":"1"}},{"base_weights":[-5.6139524E-3,-8.615655E-2,4.374516E-2,-4.6314966E-2,2.4554232E-2],"categories":[],"categories_nodes":[],"categories_segments":[],"categories_sizes":[],"default_left":[0,0,0,0,0],"id":47,"left_children":[1,3,-1,-1,-1],"loss_changes":[1.0792985E-1,7.834782E-2,0E0,0E0,0E0],"parents":[2147483647,0,0,1,1],"right_children":[2,4,-1,-1,-1],"split_conditions":[1.4318614E-1,1.8614867E-1,4.374516E-2,-4.6314966E-2,2.4554232E-2],"split_indices":[2871,3495,0,0,0],"split_type":[0,0,0,0,0],"sum_hessian":[6.819089E0,4.7328506E0,2.0862384E0,3.4235969E0,1.3092536E0],"tree_param":{"num_deleted":"0","num_feature":"5000","num_nodes":"5","size_leaf_vector":"1"}},{"base_weights":[-1.7709967E-3,7.314633E-2,-4.383076E-2,3.9894585E-2,-2.846053E-2],"categories":[],"categories_nodes":[],"categories_segments":[],"categories_sizes":[],"default_left":[0,0,0,0,0],"id":48,"left_children":[1,3,-1,-1,-1],"loss_changes":[9.467048E-2,7.0717305E-2,0E0,0E0,0E0],"parents":[2147483647,0,0,1,1],"right_children":[2,4,-1,-1,-1],"split_conditions":[1.4372063E-1,1.8982519E-1,-4.383076E-2,3.9894585E-2,-2.846053E-2],"split_indices":[2871,3495,0,0,0],"split_type":[0,0,0,0,0],"sum_hessian":[6.76696E0,4.779368E0,1.9875923E0,3.6780155E0,1.1013523E0],"tree_param":{"num_deleted":"0","num_feature":"5000","num_nodes":"5","size_leaf_vector":"1"}},{"base_weights":[-5.925896E-3,-8.4581174E-2,4.2297922E-2,-4.5030948E-2,2.3265207E-2],"categories":[],"categories_nodes":[],"categories_segments":[],"categories_sizes":[],"default_left":[0,0,0,0,0],"id":49,"left_children":[1,3,-1,-1,-1],"loss_changes":[1.0205817E-1,7.224661E-2,0E0,0E0,0E0],"parents":[2147483647,0,0,1,1],"right_children":[2,4,-1,-1,-1],"split_conditions":[1.4318614E-1,1.8614867E-1,4.2297922E-2,-4.5030948E-2,2.3265207E-2],"split_indices":[2871,3495,0,0,0],"split_type":[0,0,0,0,0],"sum_hessian":[6.799687E0,4.705062E0,2.094625E0,3.4037166E0,1.3013452E0],"tree_param":{"num_deleted":"0","num_feature":"5000","num_nodes":"5","size_leaf_vector":"1"}},{"base_weights":[-2.131279E-3,7.2343454E-2,-4.3557595E-2,3.925024E-2,-2.7709978E-2],"categories":[],"categories_nodes":[],"categories_segments":[],"categories_sizes":[],"default_left":[0,0,0,0,0],"id":50,"left_children":[1,3,-1,-1,-1],"loss_changes":[9.3060724E-2,6.7608096E-2,0E0,0E0,0E0],"parents":[2147483647,0,0,1,1],"right_children":[2,4,-1,-1,-1],"split_conditions":[1.4372063E-1,1.8982519E-1,-4.3557595E-2,3.925024E-2,-2.7709978E-2],"split_indices":[2871,3495,0,0,0],"split_type":[0,0,0,0,0],"sum_hessian":[6.748627E0,4.763273E0,1.9853544E0,3.6668105E0,1.0964622E0],"tree_param":{"num_deleted":"0","num_feature":"5000","num_nodes":"5","size_leaf_vector":"1"}},{"base_weights":[-6.123554E-3,-8.3148345E-2,4.1067936E-2,-4.3871388E-2,2.2141233E-2],"categories":[],"categories_nodes":[],"categories_segments":[],"categories_sizes":[],"default_left":[0,0,0,0,0],"id":51,"left_children":[1,3,-1,-1,-1],"loss_changes":[9.708411E-2,6.7023575E-2,0E0,0E0,0E0],"parents":[2147483647,0,0,1,1],"right_children":[2,4,-1,-1,-1],"split_conditions":[1.4318614E-1,1.8614867E-1,4.1067936E-2,-4.3871388E-2,2.2141233E-2],"split_indices":[2871,3495,0,0,0],"split_type":[0,0,0,0,0],"sum_hessian":[6.7798657E0,4.6786733E0,2.1011922E0,3.3859153E0,1.2927579E0],"tree_param":{"num_deleted":"0","num_feature":"5000","num_nodes":"5","size_leaf_vector":"1"}},{"base_weights":[-2.3840934E-3,7.134231E-2,-4.3113768E-2,3.850029E-2,-2.6905326E-2],"categories":[],"categories_nodes":[],"categories_segments":[],"categories_sizes":[],"default_left":[0,0,0,0,0],"id":52,"left_children":[1,3,-1,-1,-1],"loss_changes":[9.0794764E-2,6.426123E-2,0E0,0E0,0E0],"parents":[2147483647,0,0,1,1],"right_children":[2,4,-1,-1,-1],"split_conditions":[1.4372063E-1,1.8982519E-1,-4.3113768E-2,3.850029E-2,-2.6905326E-2],"split_indices":[2871,3495,0,0,0],"split_type":[0,0,0,0,0],"sum_hessian":[6.729824E0,4.748099E0,1.981725E0,3.656857E0,1.0912418E0],"tree_param":{"num_deleted":"0","num_feature":"5000","num_nodes":"5","size_leaf_vector":"1"}},{"base_weights":[-6.2281536E-3,-6.666612E-2,5.3296637E-2,-3.198394E-2,1.566344E-2],"categories":[],"categories_nodes":[],"categories_segments":[],"categories_sizes":[],"default_left":[0,0,0,0,0],"id":53,"left_children":[1,3,-1,-1,-1],"loss_changes":[9.808099E-2,3.6753193E-2,0E0,0E0,0E0],"parents":[2147483647,0,0,1,1],"right_children":[2,4,-1,-1,-1],"split_conditions":[3.2047993E-1,1.8614867E-1,5.3296637E-2,-3.198394E-2,1.566344E-2],"split_indices":[2871,3495,0,0,0],"split_type":[0,0,0,0,0],"sum_hessian":[6.759661E0,5.567287E0,1.1923741E0,4.244242E0,1.323045E0],"tree_param":{"num_deleted":"0","num_feature":"5000","num_nodes":"5","size_leaf_vector":"1"}},{"base_weights":[1.2241007E-5,6.74401E-2,-3.962592E-2,3.6169395E-2,-2.5280518E-2],"categories":[],"categories_nodes":[],"categories_segments":[],"categories_sizes":[],"default_left":[0,0,0,0,0],"id":54,"left_children":[1,3,-1,-1,-1],"loss_changes":[7.740558E-2,5.652886E-2,0E0,0E0,0E0],"parents":[2147483647,0,0,1,1],"right_children":[2,4,-1,-1,-1],"split_conditions":[1.4372063E-1,1.8982519E-1,-3.962592E-2,3.6169395E-2,-2.5280518E-2],"split_indices":[2871,3495,0,0,0],"split_type":[0,0,0,0,0],"sum_hessian":[6.6902065E0,4.753382E0,1.9368243E0,3.672612E0,1.0807703E0],"tree_param":{"num_deleted":"0","num_feature":"5000","num_nodes":"5","size_leaf_vector":"1"}},{"base_weights":[-4.1493187E-3,-8.443995E-2,4.3532763E-2,-4.363317E-2,2.1141581E-2],"categories":[],"categories_nodes":[],"categories_segments":[],"categories_sizes":[],"default_left":[0,0,0,0,0],"id":55,"left_children":[1,3,-1,-1,-1],"loss_changes":[1.0479222E-1,6.367275E-2,0E0,0E0,0E0],"parents":[2147483647,0,0,1,1],"right_children":[2,4,-1,-1,-1],"split_conditions":[1.4318614E-1,1.8614867E-1,4.3532763E-2,-4.363317E-2,2.1141581E-2],"split_indices":[2871,3495,0,0,0],"split_type":[0,0,0,0,0],"sum_hessian":[6.7218575E0,4.653091E0,2.0687664E0,3.3822763E0,1.2708145E0],"tree_param":{"num_deleted":"0","num_feature":"5000","num_nodes":"5","size_leaf_vector":"1"}},{"base_weights":[-7.6445297E-4,6.798634E-2,-4.0324286E-2,3.6130387E-2,-2.4682188E-2],"categories":[],"categories_nodes":[],"categories_segments":[],"categories_sizes":[],"default_left":[0,0,0,0,0],"id":56,"left_children":[1,3,-1,-1,-1],"loss_changes":[7.9644546E-2,5.5073634E-2,0E0,0E0,0E0],"parents":[2147483647,0,0,1,1],"right_children":[2,4,-1,-1,-1],"split_conditions":[1.4372063E-1,1.8982519E-1,-4.0324286E-2,3.6130387E-2,-2.4682188E-2],"split_indices":[2871,3495,0,0,0],"split_type":[0,0,0,0,0],"sum_hessian":[6.6732845E0,4.7309484E0,1.9423364E0,3.654011E0,1.0769373E0],"tree_param":{"num_deleted":"0","num_feature":"5000","num_nodes":"5","size_leaf_vector":"1"}},{"base_weights":[-4.7198045E-3,-8.188962E-2,4.1285064E-2,-4.2122386E-2,2.0110589E-2],"categories":[],"categories_nodes":[],"categories_segments":[],"categories_sizes":[],"default_left":[0,0,0,0,0],"id":57,"left_children":[1,3,-1,-1,-1],"loss_changes":[9.588479E-2,5.8408473E-2,0E0,0E0,0E0],"parents":[2147483647,0,0,1,1],"right_children":[2,4,-1,-1,-1],"split_conditions":[1.4318614E-1,1.8614867E-1,4.1285064E-2,-4.2122386E-2,2.0110589E-2],"split_indices":[2871,3495,0,0,0],"split_type":[0,0,0,0,0],"sum_hessian":[6.7034464E0,4.6221566E0,2.08129E0,3.3593345E0,1.262822E0],"tree_param":{"num_deleted":"0","num_feature":"5000","num_nodes":"5","size_leaf_vector":"1"}},{"base_weights":[-1.3432449E-3,6.776304E-2,-4.0495954E-2,3.5760943E-2,-2.4021251E-2],"categories":[],"categories_nodes":[],"categories_segments":[],"categories_sizes":[],"default_left":[0,0,0,0,0],"id":58,"left_children":[1,3,-1,-1,-1],"loss_changes":[7.9853676E-2,5.2983537E-2,0E0,0E0,0E0],"parents":[2147483647,0,0,1,1],"right_children":[2,4,-1,-1,-1],"split_conditions":[1.4372063E-1,1.8982519E-1,-4.0495954E-2,3.5760943E-2,-2.4021251E-2],"split_indices":[2871,3495,0,0,0],"split_type":[0,0,0,0,0],"sum_hessian":[6.6558833E0,4.7121887E0,1.9436942E0,3.639471E0,1.0727179E0],"tree_param":{"num_deleted":"0","num_feature":"5000","num_nodes":"5","size_leaf_vector":"1"}},{"base_weights":[-5.1106163E-3,-7.980865E-2,3.953361E-2,-4.0837053E-2,1.9200698E-2],"categories":[],"categories_nodes":[],"categories_segments":[],"categories_sizes":[],"default_left":[0,0,0,0,0],"id":59,"left_children":[1,3,-1,-1,-1],"loss_changes":[8.909478E-2,5.4020017E-2,0E0,0E0,0E0],"parents":[2147483647,0,0,1,1],"right_children":[2,4,-1,-1,-1],"split_conditions":[1.4318614E-1,1.8614867E-1,3.953361E-2,-4.0837053E-2,1.9200698E-2],"split_indices":[2871,3495,0,0,0],"split_type":[0,0,0,0,0],"sum_hessian":[6.684587E0,4.594458E0,2.090129E0,3.3400035E0,1.2544546E0],"tree_param":{"num_deleted":"0","num_feature":"5000","num_nodes":"5","size_leaf_vector":"1"}},{"base_weights":[-1.7547895E-3,6.708439E-2,-4.032403E-2,3.5196837E-2,-2.332426E-2],"categories":[],"categories_nodes":[],"categories_segments":[],"categories_sizes":[],"default_left":[0,0,0,0,0],"id":60,"left_children":[1,3,-1,-1,-1],"loss_changes":[7.876756E-2,5.0563503E-2,0E0,0E0,0E0],"parents":[2147483647,0,0,1,1],"right_children":[2,4,-1,-1,-1],"split_conditions":[1.4372063E-1,1.8982519E-1,-4.032403E-2,3.5196837E-2,-2.332426E-2],"split_indices":[2871,3495,0,0,0],"split_type":[0,0,0,0,0],"sum_hessian":[6.637941E0,4.6956067E0,1.9423344E0,3.627322E0,1.0682847E0],"tree_param":{"num_deleted":"0","num_feature":"5000","num_nodes":"5","size_leaf_vector":"1"}},{"base_weights":[-5.3557786E-3,-6.3506074E-2,5.025759E-2,-2.9503722E-2,1.2973083E-2],"categories":[],"categories_nodes":[],"categories_segments":[],"categories_sizes":[],"default_left":[0,0,0,0,0],"id":61,"left_children":[1,3,-1,-1,-1],"loss_changes":[8.7698534E-2,2.8282287E-2,0E0,0E0,0E0],"parents":[2147483647,0,0,1,1],"right_children":[2,4,-1,-1,-1],"split_conditions":[3.2047993E-1,1.8614867E-1,5.025759E-2,-2.9503722E-2,1.2973083E-2],"split_indices":[2871,3495,0,0,0],"split_type":[0,0,0,0,0],"sum_hessian":[6.6652756E0,5.4610553E0,1.2042207E0,4.176655E0,1.2844002E0],"tree_param":{"num_deleted":"0","num_feature":"5000","num_nodes":"5","size_leaf_vector":"1"}},{"base_weights":[3.1651033E-4,6.385614E-2,-3.7347063E-2,3.321261E-2,-2.1827321E-2],"categories":[],"categories_nodes":[],"categories_segments":[],"categories_sizes":[],"default_left":[0,0,0,0,0],"id":62,"left_children":[1,3,-1,-1,-1],"loss_changes":[6.824268E-2,4.4532955E-2,0E0,0E0,0E0],"parents":[2147483647,0,0,1,1],"right_children":[2,4,-1,-1,-1],"split_conditions":[1.4372063E-1,1.8982519E-1,-3.7347063E-2,3.321261E-2,-2.1827321E-2],"split_indices":[2871,3495,0,0,0],"split_type":[0,0,0,0,0],"sum_hessian":[6.6030145E0,4.699062E0,1.9039526E0,3.6402423E0,1.0588197E0],"tree_param":{"num_deleted":"0","num_feature":"5000","num_nodes":"5","size_leaf_vector":"1"}},{"base_weights":[-3.5484843E-3,-8.019439E-2,4.1067E-2,-4.044599E-2,1.8509207E-2],"categories":[],"categories_nodes":[],"categories_segments":[],"categories_sizes":[],"default_left":[0,0,0,0,0],"id":63,"left_children":[1,3,-1,-1,-1],"loss_changes":[9.312801E-2,5.147438E-2,0E0,0E0,0E0],"parents":[2147483647,0,0,1,1],"right_children":[2,4,-1,-1,-1],"split_conditions":[1.4318614E-1,1.8614867E-1,4.1067E-2,-4.044599E-2,1.8509207E-2],"split_indices":[2871,3495,0,0,0],"split_type":[0,0,0,0,0],"sum_hessian":[6.6319156E0,4.567902E0,2.0640135E0,3.3341558E0,1.2337462E0],"tree_param":{"num_deleted":"0","num_feature":"5000","num_nodes":"5","size_leaf_vector":"1"}},{"base_weights":[-4.7856345E-4,6.428583E-2,-3.8012885E-2,3.3187486E-2,-2.1347439E-2],"categories":[],"categories_nodes":[],"categories_segments":[],"categories_sizes":[],"default_left":[0,0,0,0,0],"id":64,"left_children":[1,3,-1,-1,-1],"loss_changes":[7.016693E-2,4.3505136E-2,0E0,0E0,0E0],"parents":[2147483647,0,0,1,1],"right_children":[2,4,-1,-1,-1],"split_conditions":[1.4372063E-1,1.8982519E-1,-3.8012885E-2,3.3187486E-2,-2.1347439E-2],"split_indices":[2871,3495,0,0,0],"split_type":[0,0,0,0,0],"sum_hessian":[6.586446E0,4.677385E0,1.9090612E0,3.6215832E0,1.0558016E0],"tree_param":{"num_deleted":"0","num_feature":"5000","num_nodes":"5","size_leaf_vector":"1"}},{"base_weights":[-4.1409223E-3,-7.7524774E-2,3.8812343E-2,-3.897314E-2,1.7627666E-2],"categories":[],"categories_nodes":[],"categories_segments":[],"categories_sizes":[],"default_left":[0,0,0,0,0],"id":65,"left_children":[1,3,-1,-1,-1],"loss_changes":[8.463021E-2,4.7175925E-2,0E0,0E0,0E0],"parents":[2147483647,0,0,1,1],"right_children":[2,4,-1,-1,-1],"split_conditions":[1.4318614E-1,1.8614867E-1,3.8812343E-2,-3.897314E-2,1.7627666E-2],"split_indices":[2871,3495,0,0,0],"split_type":[0,0,0,0,0],"sum_hessian":[6.6139455E0,4.538703E0,2.0752425E0,3.312272E0,1.2264309E0],"tree_param":{"num_deleted":"0","num_feature":"5000","num_nodes":"5","size_leaf_vector":"1"}},{"base_weights":[-1.0665368E-3,6.39764E-2,-3.8155872E-2,3.284848E-2,-2.0809405E-2],"categories":[],"categories_nodes":[],"categories_segments":[],"categories_sizes":[],"default_left":[0,0,0,0,0],"id":66,"left_children":[1,3,-1,-1,-1],"loss_changes":[7.023038E-2,4.1943934E-2,0E0,0E0,0E0],"parents":[2147483647,0,0,1,1],"right_children":[2,4,-1,-1,-1],"split_conditions":[1.4372063E-1,1.8982519E-1,-3.8155872E-2,3.284848E-2,-2.0809405E-2],"split_indices":[2871,3495,0,0,0],"split_type":[0,0,0,0,0],"sum_hessian":[6.569424E0,4.6592636E0,1.9101604E0,3.6068366E0,1.052427E0],"tree_param":{"num_deleted":"0","num_feature":"5000","num_nodes":"5","size_leaf_vector":"1"}},{"base_weights":[-4.546868E-3,-7.533902E-2,3.7056483E-2,-3.772629E-2,1.6853437E-2],"categories":[],"categories_nodes":[],"categories_segments":[],"categories_sizes":[],"default_left":[0,0,0,0,0],"id":67,"left_children":[1,3,-1,-1,-1],"loss_changes":[7.816926E-2,4.3616958E-2,0E0,0E0,0E0],"parents":[2147483647,0,0,1,1],"right_children":[2,4,-1,-1,-1],"split_conditions":[1.4318614E-1,1.8614867E-1,3.7056483E-2,-3.772629E-2,1.6853437E-2],"split_indices":[2871,3495,0,0,0],"split_type":[0,0,0,0,0],"sum_hessian":[6.595566E0,4.5127764E0,2.0827897E0,3.293917E0,1.2188594E0],"tree_param":{"num_deleted":"0","num_feature":"5000","num_nodes":"5","size_leaf_vector":"1"}},{"base_weights":[-1.4828957E-3,6.323198E-2,-3.795919E-2,3.2324772E-2,-2.0237174E-2],"categories":[],"categories_nodes":[],"categories_segments":[],"categories_sizes":[],"default_left":[0,0,0,0,0],"id":68,"left_children":[1,3,-1,-1,-1],"loss_changes":[6.911419E-2,4.0100522E-2,0E0,0E0,0E0],"parents":[2147483647,0,0,1,1],"right_children":[2,4,-1,-1,-1],"split_conditions":[1.4372063E-1,1.8982519E-1,-3.795919E-2,3.2324772E-2,-2.0237174E-2],"split_indices":[2871,3495,0,0,0],"split_type":[0,0,0,0,0],"sum_hessian":[6.5519066E0,4.643258E0,1.9086484E0,3.5944092E0,1.0488489E0],"tree_param":{"num_deleted":"0","num_feature":"5000","num_nodes":"5","size_leaf_vector":"1"}},{"base_weights":[-4.8038517E-3,-6.077925E-2,4.7430594E-2,-2.7446344E-2,1.0817852E-2],"categories":[],"categories_nodes":[],"categories_segments":[],"categories_sizes":[],"default_left":[0,0,0,0,0],"id":69,"left_children":[1,3,-1,-1,-1],"loss_changes":[7.869987E-2,2.2216577E-2,0E0,0E0,0E0],"parents":[2147483647,0,0,1,1],"right_children":[2,4,-1,-1,-1],"split_conditions":[3.2047993E-1,1.8614867E-1,4.7430594E-2,-2.7446344E-2,1.0817852E-2],"split_indices":[2871,3495,0,0,0],"split_type":[0,0,0,0,0],"sum_hessian":[6.5767837E0,5.36146E0,1.2153236E0,4.1125765E0,1.2488837E0],"tree_param":{"num_deleted":"0","num_feature":"5000","num_nodes":"5","size_leaf_vector":"1"}},{"base_weights":[4.1306845E-4,6.061177E-2,-3.5376314E-2,3.065485E-2,-1.8874565E-2],"categories":[],"categories_nodes":[],"categories_segments":[],"categories_sizes":[],"default_left":[0,0,0,0,0],"id":70,"left_children":[1,3,-1,-1,-1],"loss_changes":[6.072063E-2,3.5418004E-2,0E0,0E0,0E0],"parents":[2147483647,0,0,1,1],"right_children":[2,4,-1,-1,-1],"split_conditions":[1.4372063E-1,1.8982519E-1,-3.5376314E-2,3.065485E-2,-1.8874565E-2],"split_indices":[2871,3495,0,0,0],"split_type":[0,0,0,0,0],"sum_hessian":[6.52057E0,4.645242E0,1.8753276E0,3.6048698E0,1.0403726E0],"tree_param":{"num_deleted":"0","num_feature":"5000","num_nodes":"5","size_leaf_vector":"1"}},{"base_weights":[-3.151494E-3,-7.52144E-2,3.813912E-2,-3.727895E-2,1.6366614E-2],"categories":[],"categories_nodes":[],"categories_segments":[],"categories_sizes":[],"default_left":[0,0,0,0,0],"id":71,"left_children":[1,3,-1,-1,-1],"loss_changes":[8.041628E-2,4.1707136E-2,0E0,0E0,0E0],"parents":[2147483647,0,0,1,1],"right_children":[2,4,-1,-1,-1],"split_conditions":[1.4318614E-1,1.8614867E-1,3.813912E-2,-3.727895E-2,1.6366614E-2],"split_indices":[2871,3495,0,0,0],"split_type":[0,0,0,0,0],"sum_hessian":[6.546924E0,4.4874544E0,2.0594692E0,3.2873695E0,1.2000852E0],"tree_param":{"num_deleted":"0","num_feature":"5000","num_nodes":"5","size_leaf_vector":"1"}},{"base_weights":[-3.4640435E-4,6.0733996E-2,-3.587126E-2,3.056849E-2,-1.8511713E-2],"categories":[],"categories_nodes":[],"categories_segments":[],"categories_sizes":[],"default_left":[0,0,0,0,0],"id":72,"left_children":[1,3,-1,-1,-1],"loss_changes":[6.1910793E-2,3.4637645E-2,0E0,0E0,0E0],"parents":[2147483647,0,0,1,1],"right_children":[2,4,-1,-1,-1],"split_conditions":[1.4372063E-1,1.8982519E-1,-3.587126E-2,3.056849E-2,-1.8511713E-2],"split_indices":[2871,3495,0,0,0],"split_type":[0,0,0,0,0],"sum_hessian":[6.5043526E0,4.625324E0,1.8790286E0,3.587198E0,1.0381258E0],"tree_param":{"num_deleted":"0","num_feature":"5000","num_nodes":"5","size_leaf_vector":"1"}},{"base_weights":[-3.7184444E-3,-7.264616E-2,3.605243E-2,-3.5907175E-2,1.5595787E-2],"categories":[],"categories_nodes":[],"categories_segments":[],"categories_sizes":[],"default_left":[0,0,0,0,0],"id":73,"left_children":[1,3,-1,-1,-1],"loss_changes":[7.3028795E-2,3.824202E-2,0E0,0E0,0E0],"parents":[2147483647,0,0,1,1],"right_children":[2,4,-1,-1,-1],"split_conditions":[1.4318614E-1,1.8614867E-1,3.605243E-2,-3.5907175E-2,1.5595787E-2],"split_indices":[2871,3495,0,0,0],"split_type":[0,0,0,0,0],"sum_hessian":[6.5293913E0,4.461104E0,2.0682871E0,3.2674146E0,1.1936895E0],"tree_param":{"num_deleted":"0","num_feature":"5000","num_nodes":"5","size_leaf_vector":"1"}},{"base_weights":[-9.0216316E-4,6.023665E-2,-3.59037E-2,3.0215347E-2,-1.8089835E-2],"categories":[],"categories_nodes":[],"categories_segments":[],"categories_sizes":[],"default_left":[0,0,0,0,0],"id":74,"left_children":[1,3,-1,-1,-1],"loss_changes":[6.1583832E-2,3.343925E-2,0E0,0E0,0E0],"parents":[2147483647,0,0,1,1],"right_children":[2,4,-1,-1,-1],"split_conditions":[1.4372063E-1,1.8982519E-1,-3.59037E-2,3.0215347E-2,-1.8089835E-2],"split_indices":[2871,3495,0,0,0],"split_type":[0,0,0,0,0],"sum_hessian":[6.4877043E0,4.608433E0,1.8792716E0,3.5729136E0,1.035519E0],"tree_param":{"num_deleted":"0","num_feature":"5000","num_nodes":"5","size_leaf_vector":"1"}},{"base_weights":[-4.10359E-3,-5.7813663E-2,4.483086E-2,-2.5779733E-2,9.654673E-3],"categories":[],"categories_nodes":[],"categories_segments":[],"categories_sizes":[],"default_left":[0,0,0,0,0],"id":75,"left_children":[1,3,-1,-1,-1],"loss_changes":[7.058396E-2,1.8672403E-2,0E0,0E0,0E0],"parents":[2147483647,0,0,1,1],"right_children":[2,4,-1,-1,-1],"split_conditions":[3.2047993E-1,1.8614867E-1,4.483086E-2,-2.5779733E-2,9.654673E-3],"split_indices":[2871,3495,0,0,0],"split_type":[0,0,0,0,0],"sum_hessian":[6.5114903E0,5.2858853E0,1.2256054E0,4.0619125E0,1.2239729E0],"tree_param":{"num_deleted":"0","num_feature":"5000","num_nodes":"5","size_leaf_vector":"1"}},{"base_weights":[6.95272E-4,5.787562E-2,-3.3632576E-2,2.8724125E-2,-1.6869364E-2],"categories":[],"categories_nodes":[],"categories_segments":[],"categories_sizes":[],"default_left":[0,0,0,0,0],"id":76,"left_children":[1,3,-1,-1,-1],"loss_changes":[5.4607734E-2,2.9627861E-2,0E0,0E0,0E0],"parents":[2147483647,0,0,1,1],"right_children":[2,4,-1,-1,-1],"split_conditions":[1.4372063E-1,1.8982519E-1,-3.3632576E-2,2.8724125E-2,-1.6869364E-2],"split_indices":[2871,3495,0,0,0],"split_type":[0,0,0,0,0],"sum_hessian":[6.460181E0,4.610203E0,1.8499789E0,3.5821915E0,1.0280111E0],"tree_param":{"num_deleted":"0","num_feature":"5000","num_nodes":"5","size_leaf_vector":"1"}},{"base_weights":[-2.6986436E-3,-7.2112046E-2,3.6587384E-2,-3.5344232E-2,1.5127464E-2],"categories":[],"categories_nodes":[],"categories_segments":[],"categories_sizes":[],"default_left":[0,0,0,0,0],"id":77,"left_children":[1,3,-1,-1,-1],"loss_changes":[7.356232E-2,3.6385268E-2,0E0,0E0,0E0],"parents":[2147483647,0,0,1,1],"right_children":[2,4,-1,-1,-1],"split_conditions":[1.4318614E-1,1.8614867E-1,3.6587384E-2,-3.5344232E-2,1.5127464E-2],"split_indices":[2871,3495,0,0,0],"split_type":[0,0,0,0,0],"sum_hessian":[6.4851375E0,4.4363356E0,2.0488017E0,3.259279E0,1.1770568E0],"tree_param":{"num_deleted":"0","num_feature":"5000","num_nodes":"5","size_leaf_vector":"1"}},{"base_weights":[-8.0902704E-5,5.8022924E-2,-3.416216E-2,2.869999E-2,-1.6617328E-2],"categories":[],"categories_nodes":[],"categories_segments":[],"categories_sizes":[],"default_left":[0,0,0,0,0],"id":78,"left_children":[1,3,-1,-1,-1],"loss_changes":[5.5827823E-2,2.9166695E-2,0E0,0E0,0E0],"parents":[2147483647,0,0,1,1],"right_children":[2,4,-1,-1,-1],"split_conditions":[1.4372063E-1,1.8982519E-1,-3.416216E-2,2.869999E-2,-1.6617328E-2],"split_indices":[2871,3495,0,0,0],"split_type":[0,0,0,0,0],"sum_hessian":[6.4443398E0,4.5904903E0,1.8538495E0,3.5640237E0,1.0264666E0],"tree_param":{"num_deleted":"0","num_feature":"5000","num_nodes":"5","size_leaf_vector":"1"}},{"base_weights":[-3.2891436E-3,-6.9488525E-2,3.449202E-2,-3.3979833E-2,1.4394558E-2],"categories":[],"categories_nodes":[],"categories_segments":[],"categories_sizes":[],"default_left":[0,0,0,0,0],"id":79,"left_children":[1,3,-1,-1,-1],"loss_changes":[6.645612E-2,3.326233E-2,0E0,0E0,0E0],"parents":[2147483647,0,0,1,1],"right_children":[2,4,-1,-1,-1],"split_conditions":[1.4318614E-1,1.8614867E-1,3.449202E-2,-3.3979833E-2,1.4394558E-2],"split_indices":[2871,3495,0,0,0],"split_type":[0,0,0,0,0],"sum_hessian":[6.4680653E0,4.411229E0,2.0568361E0,3.239688E0,1.1715411E0],"tree_param":{"num_deleted":"0","num_feature":"5000","num_nodes":"5","size_leaf_vector":"1"}},{"base_weights":[-6.542932E-4,5.754164E-2,-3.4221273E-2,2.8401604E-2,-1.6295731E-2],"categories":[],"categories_nodes":[],"categories_segments":[],"categories_sizes":[],"default_left":[0,0,0,0,0],"id":80,"left_children":[1,3,-1,-1,-1],"loss_changes":[5.559257E-2,2.8293233E-2,0E0,0E0,0E0],"parents":[2147483647,0,0,1,1],"right_children":[2,4,-1,-1,-1],"split_conditions":[1.4372063E-1,1.8982519E-1,-3.4221273E-2,2.8401604E-2,-1.6295731E-2],"split_indices":[2871,3495,0,0,0],"split_type":[0,0,0,0,0],"sum_hessian":[6.428165E0,4.5738826E0,1.8542823E0,3.5493836E0,1.024499E0],"tree_param":{"num_deleted":"0","num_feature":"5000","num_nodes":"5","size_leaf_vector":"1"}},{"base_weights":[-3.6970193E-3,-5.5192906E-2,4.233734E-2,-2.429225E-2,8.571485E-3],"categories":[],"categories_nodes":[],"categories_segments":[],"categories_sizes":[],"default_left":[0,0,0,0,0],"id":81,"left_children":[1,3,-1,-1,-1],"loss_changes":[6.335431E-2,1.5735574E-2,0E0,0E0,0E0],"parents":[2147483647,0,0,1,1],"right_children":[2,4,-1,-1,-1],"split_conditions":[3.2047993E-1,1.8614867E-1,4.233734E-2,-2.429225E-2,8.571485E-3],"split_indices":[2871,3495,0,0,0],"split_type":[0,0,0,0,0],"sum_hessian":[6.4507093E0,5.215177E0,1.2355322E0,4.0132737E0,1.2019035E0],"tree_param":{"num_deleted":"0","num_feature":"5000","num_nodes":"5","size_leaf_vector":"1"}},{"base_weights":[7.60068E-4,5.539722E-2,-3.216827E-2,9.01632E-2,-1.5178041E-2,3.0446818E-2,8.228761E-3],"categories":[],"categories_nodes":[],"categories_segments":[],"categories_sizes":[],"default_left":[0,0,0,0,0,0,0],"id":82,"left_children":[1,3,-1,5,-1,-1,-1],"loss_changes":[4.9622305E-2,2.5106875E-2,0E0,4.547611E-4,0E0,0E0,0E0],"parents":[2147483647,0,0,1,1,3,3],"right_children":[2,4,-1,6,-1,-1,-1],"split_conditions":[1.4372063E-1,1.8982519E-1,-3.216827E-2,2.1667837E-1,-1.5178041E-2,3.0446818E-2,8.228761E-3],"split_indices":[2871,3495,0,836,0,0,0],"split_type":[0,0,0,0,0,0,0],"sum_hessian":[6.40359E0,4.575557E0,1.8280334E0,3.55787E0,1.0176871E0,2.4904613E0,1.0674087E0],"tree_param":{"num_deleted":"0","num_feature":"5000","num_nodes":"7","size_leaf_vector":"1"}},{"base_weights":[-8.8655355E-4,-6.649501E-2,3.4697287E-2,-3.275568E-2,1.43749295E-2],"categories":[],"categories_nodes":[],"categories_segments":[],"categories_sizes":[],"default_left":[0,0,0,0,0],"id":83,"left_children":[1,3,-1,-1,-1],"loss_changes":[6.446221E-2,3.153569E-2,0E0,0E0,0E0],"parents":[2147483647,0,0,1,1],"right_children":[2,4,-1,-1,-1],"split_conditions":[1.4318614E-1,1.8614867E-1,3.4697287E-2,-3.275568E-2,1.43749295E-2],"split_indices":[2871,3495,0,0,0],"split_type":[0,0,0,0,0],"sum_hessian":[6.4247265E0,4.385408E0,2.0393186E0,3.22699E0,1.1584178E0],"tree_param":{"num_deleted":"0","num_feature":"5000","num_nodes":"5","size_leaf_vector":"1"}},{"base_weights":[1.254761E-3,5.707713E-2,-3.2621652E-2,2.7651781E-2,-1.5061796E-2],"categories":[],"categories_nodes":[],"categories_segments":[],"categories_sizes":[],"default_left":[0,0,0,0,0],"id":84,"left_children":[1,3,-1,-1,-1],"loss_changes":[5.1567227E-2,2.5548069E-2,0E0,0E0,0E0],"parents":[2147483647,0,0,1,1],"right_children":[2,4,-1,-1,-1],"split_conditions":[1.4372063E-1,1.8982519E-1,-3.2621652E-2,2.7651781E-2,-1.5061796E-2],"split_indices":[2871,3495,0,0,0],"split_type":[0,0,0,0,0],"sum_hessian":[6.387616E0,4.556337E0,1.8312795E0,3.539356E0,1.0169809E0],"tree_param":{"num_deleted":"0","num_feature":"5000","num_nodes":"5","size_leaf_vector":"1"}},{"base_weights":[-2.078572E-3,-6.473651E-2,3.2695636E-2,-3.1701427E-2,1.36119565E-2],"categories":[],"categories_nodes":[],"categories_segments":[],"categories_sizes":[],"default_left":[0,0,0,0,0],"id":85,"left_children":[1,3,-1,-1,-1],"loss_changes":[5.863443E-2,2.8980432E-2,0E0,0E0,0E0],"parents":[2147483647,0,0,1,1],"right_children":[2,4,-1,-1,-1],"split_conditions":[1.4318614E-1,1.8614867E-1,3.2695636E-2,-3.1701427E-2,1.36119565E-2],"split_indices":[2871,3495,0,0,0],"split_type":[0,0,0,0,0],"sum_hessian":[6.4118094E0,4.365878E0,2.0459318E0,3.2120564E0,1.1538215E0],"tree_param":{"num_deleted":"0","num_feature":"5000","num_nodes":"5","size_leaf_vector":"1"}},{"base_weights":[2.1528755E-4,5.5849742E-2,-3.263491E-2,2.7125796E-2,-1.48519715E-2],"categories":[],"categories_nodes":[],"categories_segments":[],"categories_sizes":[],"default_left":[0,0,0,0,0],"id":86,"left_children":[1,3,-1,-1,-1],"loss_changes":[5.079613E-2,2.4665814E-2,0E0,0E0,0E0],"parents":[2147483647,0,0,1,1],"right_children":[2,4,-1,-1,-1],"split_conditions":[1.4372063E-1,1.8982519E-1,-3.263491E-2,2.7125796E-2,-1.48519715E-2],"split_indices":[2871,3495,0,0,0],"split_type":[0,0,0,0,0],"sum_hessian":[6.3746977E0,4.5433235E0,1.8313745E0,3.527616E0,1.0157074E0],"tree_param":{"num_deleted":"0","num_feature":"5000","num_nodes":"5","size_leaf_vector":"1"}},{"base_weights":[-2.8476699E-3,-5.2219607E-2,4.0131137E-2,-2.2856532E-2,7.862681E-3],"categories":[],"categories_nodes":[],"categories_segments":[],"categories_sizes":[],"default_left":[0,0,0,0,0],"id":87,"left_children":[1,3,-1,-1,-1],"loss_changes":[5.687984E-2,1.3563031E-2,0E0,0E0,0E0],"parents":[2147483647,0,0,1,1],"right_children":[2,4,-1,-1,-1],"split_conditions":[3.2047993E-1,1.8614867E-1,4.0131137E-2,-2.2856532E-2,7.862681E-3],"split_indices":[2871,3495,0,0,0],"split_type":[0,0,0,0,0],"sum_hessian":[6.3971314E0,5.1527624E0,1.2443688E0,3.9684978E0,1.1842648E0],"tree_param":{"num_deleted":"0","num_feature":"5000","num_nodes":"5","size_leaf_vector":"1"}},{"base_weights":[1.208216E-3,5.3562682E-2,-3.0790595E-2,2.5775596E-2,-1.3840587E-2],"categories":[],"categories_nodes":[],"categories_segments":[],"categories_sizes":[],"default_left":[0,0,0,0,0],"id":88,"left_children":[1,3,-1,-1,-1],"loss_changes":[4.5479663E-2,2.1855224E-2,0E0,0E0,0E0],"parents":[2147483647,0,0,1,1],"right_children":[2,4,-1,-1,-1],"split_conditions":[1.4372063E-1,1.8982519E-1,-3.0790595E-2,2.5775596E-2,-1.3840587E-2],"split_indices":[2871,3495,0,0,0],"split_type":[0,0,0,0,0],"sum_hessian":[6.3541746E0,4.546286E0,1.8078886E0,3.5366974E0,1.0095887E0],"tree_param":{"num_deleted":"0","num_feature":"5000","num_nodes":"5","size_leaf_vector":"1"}},{"base_weights":[-1.932034E-3,-6.464786E-2,1.0942135E-1,-3.1358674E-2,1.3181662E-2,7.569854E-2,-2.6979756E-2],"categories":[],"categories_nodes":[],"categories_segments":[],"categories_sizes":[],"default_left":[0,0,0,0,0,0,0],"id":89,"left_children":[1,3,5,-1,-1,-1,-1],"loss_changes":[5.8592595E-2,2.7751744E-2,1.0899449E-1,0E0,0E0,0E0,0E0],"parents":[2147483647,0,0,1,1,2,2],"right_children":[2,4,6,-1,-1,-1,-1],"split_conditions":[1.4318614E-1,1.8614867E-1,3.2273316E-1,-3.1358674E-2,1.3181662E-2,7.569854E-2,-2.6979756E-2],"split_indices":[2871,3495,2871,0,0,0,0],"split_type":[0,0,0,0,0,0,0],"sum_hessian":[6.377083E0,4.3477836E0,2.0292993E0,3.207224E0,1.1405596E0,1.0272104E0,1.0020888E0],"tree_param":{"num_deleted":"0","num_feature":"5000","num_nodes":"7","size_leaf_vector":"1"}},{"base_weights":[2.3510212E-3,-4.5866992E-2,3.9897855E-2,-2.039966E-2,9.506425E-3],"categories":[],"categories_nodes":[],"categories_segments":[],"categories_sizes":[],"default_left":[0,0,0,0,0],"id":90,"left_children":[1,3,-1,-1,-1],"loss_changes":[5.2210752E-2,1.2608195E-2,0E0,0E0,0E0],"parents":[2147483647,0,0,1,1],"right_children":[2,4,-1,-1,-1],"split_conditions":[3.2047993E-1,2.296297E-1,3.9897855E-2,-2.039966E-2,9.506425E-3],"split_indices":[2871,836,0,0,0],"split_type":[0,0,0,0,0],"sum_hessian":[6.3199964E0,5.090191E0,1.2298056E0,4.0559607E0,1.03423E0],"tree_param":{"num_deleted":"0","num_feature":"5000","num_nodes":"5","size_leaf_vector":"1"}},{"base_weights":[5.4545994E-3,1.8851325E-2,-3.2532267E-2],"categories":[],"categories_nodes":[],"categories_segments":[],"categories_sizes":[],"default_left":[0,0,0],"id":91,"left_children":[1,-1,-1],"loss_changes":[5.4387387E-2,0E0,0E0],"parents":[2147483647,0,0],"right_children":[2,-1,-1],"split_conditions":[1.4372063E-1,1.8851325E-2,-3.2532267E-2],"split_indices":[2871,0,0],"split_type":[0,0,0],"sum_hessian":[6.278997E0,4.4734545E0,1.8055427E0],"tree_param":{"num_deleted":"0","num_feature":"5000","num_nodes":"3","size_leaf_vector":"1"}},{"base_weights":[1.7528506E-3,-4.5232493E-2,3.8586922E-2,-1.9356005E-2,5.615455E-3],"categories":[],"categories_nodes":[],"categories_segments":[],"categories_sizes":[],"default_left":[0,0,0,0,0],"id":92,"left_children":[1,3,-1,-1,-1],"loss_changes":[4.9376592E-2,8.697495E-3,0E0,0E0,0E0],"parents":[2147483647,0,0,1,1],"right_children":[2,4,-1,-1,-1],"split_conditions":[3.2047993E-1,1.8614867E-1,3.8586922E-2,-1.9356005E-2,5.615455E-3],"split_indices":[2871,3495,0,0,0],"split_type":[0,0,0,0,0],"sum_hessian":[6.3072224E0,5.0722356E0,1.2349867E0,3.8900838E0,1.1821517E0],"tree_param":{"num_deleted":"0","num_feature":"5000","num_nodes":"5","size_leaf_vector":"1"}},{"base_weights":[4.487333E-3,5.785734E-2,-3.0723281E-2,9.2410594E-2,-1.4333735E-2,3.1685304E-2,7.4303243E-3],"categories":[],"categories_nodes":[],"categories_segments":[],"categories_sizes":[],"default_left":[0,0,0,0,0,0,0],"id":93,"left_children":[1,3,-1,5,-1,-1,-1],"loss_changes":[4.7426626E-2,2.4457775E-2,0E0,1.3849363E-3,0E0,0E0,0E0],"parents":[2147483647,0,0,1,1,3,3],"right_children":[2,4,-1,6,-1,-1,-1],"split_conditions":[1.4372063E-1,1.8982519E-1,-3.0723281E-2,2.1667837E-1,-1.4333735E-2,3.1685304E-2,7.4303243E-3],"split_indices":[2871,3495,0,836,0,0,0],"split_type":[0,0,0,0,0,0,0],"sum_hessian":[6.2743616E0,4.490966E0,1.783396E0,3.4783976E0,1.012568E0,2.4404953E0,1.0379025E0],"tree_param":{"num_deleted":"0","num_feature":"5000","num_nodes":"7","size_leaf_vector":"1"}},{"base_weights":[2.0695494E-3,-5.5957753E-2,3.1003373E-2,-2.7421674E-2,1.1713139E-2],"categories":[],"categories_nodes":[],"categories_segments":[],"categories_sizes":[],"default_left":[0,0,0,0,0],"id":94,"left_children":[1,3,-1,-1,-1],"loss_changes":[4.868026E-2,2.1381227E-2,0E0,0E0,0E0],"parents":[2147483647,0,0,1,1],"right_children":[2,4,-1,-1,-1],"split_conditions":[1.4318614E-1,1.8614867E-1,3.1003373E-2,-2.7421674E-2,1.1713139E-2],"split_indices":[2871,3495,0,0,0],"split_type":[0,0,0,0,0],"sum_hessian":[6.29954E0,4.2893496E0,2.0101905E0,3.1513436E0,1.1380059E0],"tree_param":{"num_deleted":"0","num_feature":"5000","num_nodes":"5","size_leaf_vector":"1"}},{"base_weights":[3.3207855E-3,5.6446254E-2,-3.0773336E-2,2.7022794E-2,-1.3954524E-2],"categories":[],"categories_nodes":[],"categories_segments":[],"categories_sizes":[],"default_left":[0,0,0,0,0],"id":95,"left_children":[1,3,-1,-1,-1],"loss_changes":[4.6691913E-2,2.3187265E-2,0E0,0E0,0E0],"parents":[2147483647,0,0,1,1],"right_children":[2,4,-1,-1,-1],"split_conditions":[1.4372063E-1,1.8982519E-1,-3.0773336E-2,2.7022794E-2,-1.3954524E-2],"split_indices":[2871,3495,0,0,0],"split_type":[0,0,0,0,0],"sum_hessian":[6.27025E0,4.4865093E0,1.7837406E0,3.476233E0,1.0102764E0],"tree_param":{"num_deleted":"0","num_feature":"5000","num_nodes":"5","size_leaf_vector":"1"}},{"base_weights":[-3.3978498E-4,-4.6231188E-2,3.7147164E-2,-1.9981008E-2,6.316479E-3],"categories":[],"categories_nodes":[],"categories_segments":[],"categories_sizes":[],"default_left":[0,0,0,0,0],"id":96,"left_children":[1,3,-1,-1,-1],"loss_changes":[4.729586E-2,9.702336E-3,0E0,0E0,0E0],"parents":[2147483647,0,0,1,1],"right_children":[2,4,-1,-1,-1],"split_conditions":[3.2047993E-1,1.8614867E-1,3.7147164E-2,-1.9981008E-2,6.316479E-3],"split_indices":[2871,3495,0,0,0],"split_type":[0,0,0,0,0],"sum_hessian":[6.2957196E0,5.055022E0,1.2406977E0,3.8880017E0,1.1670202E0],"tree_param":{"num_deleted":"0","num_feature":"5000","num_nodes":"5","size_leaf_vector":"1"}},{"base_weights":[2.8334165E-3,5.2627824E-2,-2.9168874E-2,2.5044676E-2,-1.2849287E-2],"categories":[],"categories_nodes":[],"categories_segments":[],"categories_sizes":[],"default_left":[0,0,0,0,0],"id":97,"left_children":[1,3,-1,-1,-1],"loss_changes":[4.1293252E-2,1.9765612E-2,0E0,0E0,0E0],"parents":[2147483647,0,0,1,1],"right_children":[2,4,-1,-1,-1],"split_conditions":[1.4372063E-1,1.8982519E-1,-2.9168874E-2,2.5044676E-2,-1.2849287E-2],"split_indices":[2871,3495,0,0,0],"split_type":[0,0,0,0,0],"sum_hessian":[6.260553E0,4.4968405E0,1.7637124E0,3.4932172E0,1.0036235E0],"tree_param":{"num_deleted":"0","num_feature":"5000","num_nodes":"5","size_leaf_vector":"1"}},{"base_weights":[-5.5286894E-4,-5.8881897E-2,3.0781955E-2,-2.8394701E-2,1.1691346E-2],"categories":[],"categories_nodes":[],"categories_segments":[],"categories_sizes":[],"default_left":[0,0,0,0,0],"id":98,"left_children":[1,3,-1,-1,-1],"loss_changes":[4.9873933E-2,2.2198794E-2,0E0,0E0,0E0],"parents":[2147483647,0,0,1,1],"right_children":[2,4,-1,-1,-1],"split_conditions":[1.4318614E-1,1.8614867E-1,3.0781955E-2,-2.8394701E-2,1.1691346E-2],"split_indices":[2871,3495,0,0,0],"split_type":[0,0,0,0,0],"sum_hessian":[6.284512E0,4.2887526E0,1.9957591E0,3.1647289E0,1.1240238E0],"tree_param":{"num_deleted":"0","num_feature":"5000","num_nodes":"5","size_leaf_vector":"1"}},{"base_weights":[1.3064715E-3,5.1233757E-2,-2.9457055E-2,2.4473341E-2,-1.2681748E-2],"categories":[],"categories_nodes":[],"categories_segments":[],"categories_sizes":[],"default_left":[0,0,0,0,0],"id":99,"left_children":[1,3,-1,-1,-1],"loss_changes":[4.105066E-2,1.9012336E-2,0E0,0E0,0E0],"parents":[2147483647,0,0,1,1],"right_children":[2,4,-1,-1,-1],"split_conditions":[1.4372063E-1,1.8982519E-1,-2.9457055E-2,2.4473341E-2,-1.2681748E-2],"split_indices":[2871,3495,0,0,0],"split_type":[0,0,0,0,0],"sum_hessian":[6.250991E0,4.485329E0,1.7656617E0,3.4827108E0,1.0026184E0],"tree_param":{"num_deleted":"0","num_feature":"5000","num_nodes":"5","size_leaf_vector":"1"}}]},"name":"gbtree"},"learner_model_param":{"base_score":"1.2005246E-1","boost_from_average":"1","num_class":"0","num_feature":"5000","num_target":"1"},"objective":{"name":"binary:logistic","reg_loss_param":{"scale_pos_weight":"1"}}},"version":[2,1,4]}